250 64
225 -0.0003782815 -0.16083035 -0.08086516 -0.09279503 -0.12531056 0.1359868 -0.13624711 -0.055609718 -0.1322835 -0.10323134 -0.08398972 0.029028205 0.45606175 -0.2877912 -0.0969388 0.46805683 -0.18277684 -0.33755046 -0.402313 0.49254435 -0.11175836 -0.048645098 0.12027771 -0.10909244 0.12356306 -0.104615696 0.028349124 0.053693466 0.017399807 -0.005211944 -0.036107376 -0.09229934 0.016095195 0.091403775 0.011686828 -0.031797074 -0.105870225 0.14280422 -0.09677184 0.009944881 0.017671498 -0.10852373 0.0736056 0.1002773 -0.050186343 0.14758025 -0.05753993 -0.08622329 -0.19265585 0.016603695 -0.02933839 -0.08106261 0.011737344 -0.007258339 0.1384586 -0.13128847 0.06456937 0.066559225 -0.016259953 -0.0009314839 -0.06913803 0.039259184 0.07909938 0.0096435975
202 -0.049110144 -0.054197147 -0.104858615 -0.13312222 -0.20247217 0.057321697 -0.18775906 0.0061559207 -0.17687948 -0.0795459 -0.026539883 0.034169134 0.48294464 -0.2583237 -0.062480636 0.5540589 -0.22748229 -0.36772594 -0.38474694 0.34676814 -0.13651098 0.032887243 0.005455392 -0.07739552 0.1024434 -0.10625879 0.059803348 0.056455545 0.0028218257 0.020370962 0.093624815 -0.10786114 -0.010238671 0.020069359 -0.09739162 0.03460537 -0.05191494 0.15235394 -0.019732485 -0.040672958 -0.016455023 -0.17712328 -0.034858756 0.0011289084 -0.010473408 -0.045933593 0.002969771 -0.056394726 -0.05488066 -0.10986104 0.035420623 0.0093214335 0.0054593156 0.07972403 0.07768233 -0.027480267 -0.056910973 0.14623836 -0.006046843 0.015959362 -0.005700207 0.09646857 0.17310311 0.12200962
93 0.028678028 -0.049044896 -0.17781344 -0.00067105115 -0.023269087 -0.003996694 -0.07391671 -0.038560774 -0.13976203 -0.047331337 -0.14591484 0.01693691 0.48194832 -0.25079897 -0.1309262 0.49434704 -0.20879276 -0.34929195 -0.43598074 0.395135 -0.10682891 -0.010125421 0.1610734 -0.1273038 0.1652599 -0.039072633 0.018199509 0.0685239 0.07017987 -0.015194191 -0.09181896 -0.14588511 0.007582049 0.063264295 0.006959742 0.049314402 -0.20297162 0.21334708 -0.06488646 -0.040936083 0.034886368 -0.14284994 -0.02117677 0.06289398 -0.042442963 0.064591594 0.012326242 -0.070378296 -0.0538635 -0.013325303 -0.11539402 -0.11384085 -0.025357496 0.04888808 0.067693435 -0.13639219 -0.07725775 0.08528787 0.06171679 -0.015461139 -0.09005295 0.040495798 0.1732227 0.05119473
246 0.077709414 0.00048530643 -0.13595736 -0.07016502 -0.11127053 0.06074804 -0.12877558 -0.010641505 -0.22955039 -0.029888954 0.09081979 0.036914755 0.5226087 -0.24068218 -0.07591583 0.5037415 -0.13488899 -0.42936125 -0.41361618 0.4087328 0.03855887 0.13811629 0.08633301 -0.119249016 0.063119374 0.035623137 0.013528601 0.11592171 -0.08411744 0.059408687 -0.066192135 -0.049407654 0.005261789 0.068680555 -0.029366659 0.10322521 -0.08455773 0.051964372 -0.023264412 -0.048897933 -0.03867018 -0.12572086 0.0016901309 0.15226361 -0.05119295 0.13378409 -0.16758934 -0.059465103 -0.11212957 -0.01719467 -0.039360106 -0.08204758 -0.06183007 0.027683102 0.08703723 -0.12615028 -0.0958993 0.10542326 -0.012825722 0.019456446 0.015912006 0.03843077 0.055501692 0.0833478
27 0.016332844 -0.050008997 -0.07954188 -0.09030399 -0.08338639 0.04705202 -0.12872368 0.056374446 -0.04879396 -0.07387466 0.040346444 -0.00088533346 0.4971123 -0.31042045 -0.2256076 0.4903488 -0.17523588 -0.3720364 -0.33216256 0.4109553 -0.060293727 -0.082358286 0.021371828 0.013298555 0.09496579 -0.011734904 -0.0075909467 0.13330664 -0.068008654 -0.0017415696 -0.029813712 -0.29225963 0.08825175 0.105032474 0.030424083 0.048358176 -0.23699658 0.17709404 -0.14239642 -0.012579117 0.026028795 -0.13734894 -0.023716122 0.107076995 -0.043728307 0.13609867 -0.07548011 0.0055690845 -0.084589064 0.107675664 -0.081667356 -0.00038137284 0.032636184 0.11842474 0.13785946 -0.19716106 0.0957737 0.120350376 -0.0878117 -0.12689137 -0.05316205 -0.01802637 0.17100112 -0.034816746
237 0.03504401 -0.008937868 -0.092869684 -0.03477909 -0.12642272 0.085429974 -0.16346636 -0.0065280166 -0.13454135 -0.022268463 -0.040715367 0.08172735 0.5080063 -0.2673719 -0.08399688 0.4706688 -0.18054456 -0.32840252 -0.33456594 0.44871345 -0.014672007 -0.054888178 0.028180774 -0.11373422 0.10741909 0.036101773 0.067520015 0.11512014 0.04970469 -0.063227095 0.058578882 -0.21482453 -0.05374675 0.013977956 -0.0054838364 0.038127054 -0.09967371 0.06760679 -0.10401438 0.037747614 -0.019178545 -0.09916819 0.027822623 0.085276775 0.023148073 0.074485056 -0.14860652 -0.060606714 -0.10742427 0.024261635 0.028490828 -0.07187678 -0.043484863 0.15730543 0.11539598 -0.22673032 0.016027896 0.024997825 -0.06157244 -0.07960409 -0.10791032 0.09434365 0.16632736 0.07556489
60 -0.02234941 -0.07127869 -0.13660744 -0.077242956 -0.09431228 0.07071263 -0.016117696 -0.061851747 -0.19764423 -0.08461459 -0.07944583 -0.020661013 0.45469892 -0.27266103 -0.21523815 0.47938535 -0.07789118 -0.33058742 -0.43307155 0.5447932 -0.020017805 -0.03671387 0.13138501 -0.0714303 -0.042847976 -0.059225317 0.061768677 0.01762575 0.01711771 -0.069829315 -0.022819653 -0.12716167 0.021941593 0.018786531 0.06714427 0.06922519 -0.23567446 0.1904909 -0.070846505 -0.011137406 0.0963012 -0.08980901 -0.0262544 0.06442308 -0.019839007 0.11083273 -0.09418721 -0.0807252 -0.04131174 0.055285037 -0.11009297 -0.13196151 -0.03328573 -0.04247791 0.09096768 -0.1713831 0.09289007 0.1454553 0.004163262 -0.10107339 0.008449517 0.016049039 0.19854146 0.13688523
80 -0.027826622 -0.06936095 -0.00079173734 -0.05683126 -0.07491691 0.06757551 -0.16691715 -0.0013390472 -0.046668332 -0.16737938 -0.017911153 0.10654446 0.51540124 -0.33211118 -0.19534971 0.40909025 -0.175387 -0.2335343 -0.3844022 0.48896724 -0.0373179 -0.073496714 0.15159395 -0.13738866 0.103855096 -0.12830034 0.028073607 0.04832593 -0.028207276 -0.00501645 -0.032485064 -0.15067211 0.033186927 -0.0061050286 -0.068998456 -0.036441 -0.20984235 0.22914395 -0.18712866 0.046507847 0.11052185 -0.09766927 -0.04697505 0.067368664 0.016509442 -0.022808943 -0.041391976 -0.10648136 0.021635396 0.10851964 -0.067599595 -0.06458041 0.03698017 0.08093277 0.03407561 -0.28076154 0.1369198 0.11406793 -0.044793025 -0.19247083 -0.09157473 0.12067607 0.23859404 0.110206
244 -0.031967554 0.0050227973 -0.041769113 -0.009966744 -0.12680532 0.13551876 -0.13130869 -0.05712067 -0.07075214 -0.1489532 0.03218464 0.06400796 0.567801 -0.24961062 -0.22162421 0.49691153 -0.13624862 -0.30510756 -0.36861533 0.3797674 -0.091646865 -0.13697119 -0.0104367975 -0.14043014 0.12744479 0.03745406 0.025387585 0.022019591 -0.015618187 0.004372082 -0.025223406 -0.18227229 0.08177203 -0.049609564 -0.030290183 -0.022337094 -0.14650647 0.10900033 -0.23120509 -0.025070664 0.041261543 -0.06611003 -0.1477898 -0.02920663 -0.23125277 0.11837021 -0.20644768 -0.061505795 -0.1129003 0.08495617 -0.09505547 -0.028872252 -0.101115115 -0.0025588733 0.11808092 -0.25251204 0.16021417 0.15306321 -0.05152906 -0.27840993 -0.02780612 0.061847005 0.22243696 0.05186251
227 -0.011831955 -0.08414765 -0.09465659 -0.07848633 -0.044944208 0.08423842 -0.07229768 0.02259383 -0.21940884 -0.053532712 -0.03522282 0.040210582 0.51011574 -0.2955105 -0.07284236 0.56366545 -0.27097476 -0.19307277 -0.40729597 0.38468894 0.013199295 0.016315322 -0.031819906 -0.12237806 0.04234241 -0.10739147 0.09332057 0.10123844 0.07203133 -0.024356311 0.023352036 -0.05981178 0.07249255 0.095329486 -0.011128363 0.05514502 -0.06419724 0.0718104 0.046183597 -0.045300346 0.019933896 -0.042012703 0.039183684 0.046666518 0.03790414 0.042050477 0.00035801754 0.058829777 -0.111018986 -0.045554075 -0.13038857 -0.047922816 0.038042516 -0.0052606706 -0.022371758 -0.03777819 -0.074803084 0.0038751338 0.023578014 0.10225002 0.05299339 0.16112752 0.065119244 0.13625741
245 -0.026484808 0.019738635 -0.06824673 -0.07929014 -0.13837194 0.078476995 -0.026312431 -0.0075236033 -0.102704085 -0.04037064 -0.06153033 0.05199734 0.5182952 -0.2134429 -0.07307862 0.5404269 -0.312583 -0.29120228 -0.3242908 0.4103812 0.02538885 0.029282924 0.06271938 -0.10841359 0.09860349 -0.07952977 0.09598236 0.046107043 0.09684965 0.03787693 -0.0026428336 -0.007129904 0.020273626 -0.010540816 0.008247396 0.1700172 -0.038541082 0.08545484 0.06038041 -0.14922142 -0.053750575 -0.12530649 -0.04649292 0.039873455 0.07490982 0.06918997 0.111567475 -0.0152377365 -0.042923566 -0.1217693 -0.08245794 -0.012143564 0.017137365 -0.076518714 0.014089445 0.08912597 0.00037892317 -0.12896988 0.059582893 0.09709011 -0.022492746 0.1196882 -0.053529862 0.11393095
149 0.027399935 -0.05718678 -0.06562518 -0.015381711 -0.069727756 0.07462319 -0.050002493 0.045439858 -0.11080076 -0.058517754 -0.024082188 0.016921597 0.5147568 -0.20127301 -0.16627437 0.538294 -0.2083116 -0.29033422 -0.43692786 0.40065372 -0.022929024 -0.06113594 0.095856234 -0.12253172 0.08145811 -0.15327813 0.032754924 0.0029188453 0.009140612 -0.062473036 -0.11078528 -0.11868175 0.057690255 0.118825726 -0.025197081 0.15617967 -0.25001687 0.20041212 -0.051713042 -0.068513386 0.009779716 -0.06581423 -0.18799576 -0.0059418795 -0.025713496 -0.03326208 0.0522271 -0.036140766 -0.09190067 -0.00921228 -0.12897195 -0.0133800795 0.068022266 -0.0068909293 0.020008862 -0.115230575 -0.028606795 0.08277469 -0.026847705 -0.02176559 0.014773734 0.11252368 0.052499183 0.15749457
247 0.05769439 0.03097995 -0.14171453 -0.13914746 -0.12544301 0.07292732 0.010714714 0.019895878 -0.2051323 -0.11082977 0.045069955 0.05633293 0.57155305 -0.22264662 -0.010979589 0.5364288 -0.19992785 -0.3147402 -0.37385607 0.3401878 -0.029740013 -0.042875864 -0.045634028 -0.06400028 0.09570648 -0.083938554 0.14953555 0.11254625 0.036451835 0.092148975 0.014185416 -0.11954309 0.10044377 0.081983835 -0.03649309 0.11950909 0.009797602 0.029738352 0.031719472 0.12801543 -0.13193627 -0.10120272 -0.05233649 0.069680646 0.063156135 0.17057957 0.033141855 -0.035051405 -0.07129532 -0.08589064 -0.04969685 -0.0026502947 -0.033668272 -0.053754877 0.08239076 0.0037699162 0.010975384 0.028892973 -0.02326101 0.0824996 -0.09263699 -0.042908497 0.03492418 -0.040965248
39 0.058666606 -0.0654627 -0.05557553 -0.088761486 -0.007465136 0.12363907 -0.014023904 -0.07631925 -0.049388725 0.027313 -0.047320165 -0.0053619114 0.4685542 -0.35484472 -0.19714674 0.5090857 -0.20896111 -0.21686724 -0.420474 0.5258834 -0.037624117 -0.03664939 0.0700899 -0.16146334 0.024408137 -0.044802543 0.09334726 -0.044133805 -0.024383597 -0.056175936 -0.055003826 -0.08059084 -0.124473535 0.063438535 -0.043610964 0.15292145 -0.17321996 0.1901335 -0.05172057 -0.12054566 0.034134928 -0.13783528 -0.14739224 0.09527921 0.0053688567 -0.036017183 0.11564151 -0.030700943 -0.08799215 0.044421446 -0.11398055 -0.1227276 0.031076493 0.0840395 0.0627476 -0.17357808 -0.08625427 0.084689274 0.042546313 -0.038743798 -0.0110010095 0.0914334 0.13919853 0.1448077
235 0.058068458 0.10823747 -0.12717324 -0.18298548 -0.11944876 0.03658571 0.040651403 0.057868443 -0.2404923 -0.04318211 -0.010847044 0.04797318 0.49055028 -0.32398835 -0.018139454 0.51060504 -0.16723639 -0.33586368 -0.4805049 0.25298086 -0.0998474 -0.021925932 -0.02212591 -0.04176636 0.12238109 -0.01315344 0.095022544 0.15365031 -0.05937593 0.062813126 -0.10541777 -0.014907484 0.08125272 -0.048309185 -0.10611655 0.000113474525 0.014295536 -0.042320784 -0.024362579 -0.022946129 -0.12299942 -0.17344224 0.04251216 0.067584224 0.079048686 0.18682964 0.014482282 -0.00059629884 0.0059165973 -0.09780973 -0.026074113 0.014235396 0.09844709 -0.08414024 0.017473912 0.06410876 0.038574446 0.025451437 -0.020087369 0.2814382 -0.058197316 0.022686727 -0.01748584 0.001764946
193 -0.021569733 0.006324596 -0.08972898 -0.082403935 -0.09762689 0.15114903 -0.15958168 -0.04654561 -0.064393 -0.069677785 -0.02621377 0.113664284 0.4899908 -0.25699055 -0.14902619 0.41761497 -0.15874787 -0.40375477 -0.37620598 0.45451438 -0.122475296 -0.1539944 -0.014230779 -0.13231923 0.13026339 0.1286286 0.1549112 0.08746742 0.018092 0.057861347 0.008666877 -0.18171875 0.033113252 -0.039883863 -0.020708853 -0.031600706 -0.08431995 0.10748346 -0.03140884 0.030405853 -0.03228618 -0.15498355 0.016620781 0.051226765 -0.15432999 0.1678125 -0.16027139 -0.030015562 -0.12872817 0.13164738 -0.03556024 0.12006796 -0.030163439 0.10294292 0.12227546 -0.23136939 0.012406775 0.07715296 -0.1486003 -0.1899964 -0.050121825 0.08368991 0.20160833 0.048195876
199 -0.07479705 -0.00080190087 0.03699463 0.020274889 -0.07328704 0.116667084 0.03604736 -5.640146e-05 -0.07779829 -0.0739563 0.01310866 0.07736866 0.59709823 -0.25747582 -0.0072388207 0.57679725 -0.2684711 -0.2669277 -0.34199595 0.23017013 -0.13002673 0.13896364 0.02234631 -0.06729441 0.104521796 -0.039364103 0.08355357 0.21314624 0.10730815 -0.030050052 -0.03383839 -0.052531924 -0.014733449 0.08420127 -0.019776348 0.16020644 0.08830191 0.021872485 0.13341653 -0.09221866 -0.18607256 -0.11128125 0.0005464854 0.00068492076 -0.028566038 0.09810843 0.061252818 0.08849561 -0.04125307 -0.11525433 -0.012031958 0.044411577 0.09593801 -0.12191614 0.034141034 0.11380037 -0.07364358 -0.030710895 -0.022595838 0.18682529 -0.04059998 0.06845895 -0.092455365 -0.09403459
118 -0.0015297611 -0.0108635295 -0.16760896 -0.05067342 -0.15512681 0.06485496 -0.19639415 -0.14205278 -0.113527 -0.11800879 0.05154844 0.06810175 0.5714312 -0.18080944 -0.09383968 0.42043513 -0.24640183 -0.3712896 -0.34716788 0.354938 -0.14279217 -0.064656064 -0.016263599 -0.13046317 0.109561116 0.03010541 0.14741696 0.05725524 -0.03788962 0.12509936 -0.082517914 -0.18023065 0.11435633 0.027736237 -0.027073327 -0.029103218 -0.022458177 0.04679554 -0.123514615 0.05656057 -0.016136387 -0.119206324 -0.020915587 0.12776804 -0.14573881 0.06468704 -0.21590996 -0.07972613 -0.1615598 0.046754885 -0.024940405 0.03143366 -0.08582814 0.0481245 0.03253232 -0.0968763 0.012703927 0.10956871 -0.032026656 0.014696855 -0.008585067 0.027373401 0.18190788 0.054100983
122 -0.022144219 0.006824475 -0.03301949 -0.07483179 -0.019406915 0.123265125 -0.07649465 -0.103725605 -0.011153303 -0.11930638 0.08619733 0.036159933 0.53887725 -0.34334335 -0.29678744 0.46928924 -0.11732379 -0.2832669 -0.3982739 0.3556041 -0.08684739 -0.03413479 0.100477025 0.006350241 0.09461577 -0.016542416 0.021179747 0.08181759 0.09728007 -0.057864796 0.031591613 -0.10535189 0.113730446 0.015152581 0.12425855 -0.020124542 -0.20423518 0.2652343 0.017103998 -0.007247585 0.21746731 -0.08917792 -0.0512773 -0.034689832 -0.16924688 0.11652271 -0.17407231 -0.04121886 -0.016683593 0.16694964 -0.0027997731 0.011560083 0.08097817 0.042674437 0.20070289 -0.26377872 0.13517416 0.17323184 -0.016188065 -0.26299724 -0.057442658 0.018656887 0.24716209 0.11899616
96 0.050250117 -0.034274347 -0.049277622 -0.01311888 -0.14041314 0.10016781 -0.15134753 0.017089823 -0.17481759 -0.10541604 0.023071062 0.051181775 0.5909654 -0.18160668 -0.016800527 0.51032597 -0.28435108 -0.34556937 -0.3692946 0.24021424 -0.120002635 0.09345688 -0.005316039 -0.13109146 0.15162838 -0.042169638 0.10118993 0.19425282 0.035378404 0.1471907 -0.024610974 -0.11666856 0.105438516 -0.03012369 0.017116265 -0.031455442 -8.444313e-05 0.10065783 -0.02997021 0.058125865 0.05668205 -0.15613076 0.051022075 0.10111303 -0.05257181 0.1047241 -0.16760688 -0.015022408 -0.041252106 -0.051699705 0.044704296 0.03580605 -0.07274138 0.113348715 0.105806425 0.06177901 0.028443018 0.027956882 -0.026040241 0.094869085 0.050422445 0.06210731 0.060708642 0.09667608
170 -0.08024821 0.14592774 -0.049012125 -0.22263871 -0.058621503 -0.024018759 0.10154393 0.14884673 -0.09230699 0.063588515 -0.026410665 0.09421841 0.67089105 -0.2361548 -0.03642509 0.47234663 -0.19557576 -0.25983742 -0.32885116 0.3082389 0.0048756357 0.015814185 0.14390913 -0.09660263 0.007059356 -0.12872349 0.14664349 0.19647661 0.15359879 -0.03515597 -0.101105325 0.13921861 0.14655253 -0.04485219 -0.14539273 0.055115514 0.123823844 -0.18556252 0.06732687 0.097627215 -0.056551594 0.0027527858 0.094086826 0.074409686 0.09559241 0.13681746 -0.07994309 -0.014356206 0.073797494 -0.08649381 -0.013064532 -0.10666522 0.06805842 -0.11130969 -0.1036624 0.18948966 0.0039475197 0.015389311 -0.0017463056 0.21263318 -0.045652423 0.026839027 -0.07289596 -0.14131549
204 0.00205903 0.11667837 0.022871936 -0.15605944 -0.17539105 0.028662901 -0.0089277 -0.0069054863 -0.06458919 -0.031767637 -0.08270036 0.15835038 0.6711457 -0.23131178 -0.08290721 0.4123686 -0.2615623 -0.21516192 -0.43348414 0.22972326 -0.014739985 0.04697498 -0.09497224 -0.0066986326 -0.08270503 -0.110219926 0.12879416 0.088567264 -0.01302602 -0.16405761 -0.12165213 0.13549457 0.0016538606 0.0063621216 -0.0749677 0.09269396 0.2136064 -0.14971364 0.13600007 -0.04916393 -0.16453542 0.1038801 0.006268603 0.15881114 0.072515234 0.052811973 -0.08021944 0.13044448 0.21150279 -0.1415552 0.052819528 -0.067606404 0.1526853 -0.11315421 -0.14565672 0.21574606 0.08129287 -0.062156036 -0.1441767 0.1837076 -0.04720835 0.08852818 -0.11252732 -0.17068297
161 0.022113359 0.030151559 0.04041016 0.0061073164 -0.1864454 0.12346532 -0.12892814 0.04007152 -0.048286904 -0.061909217 0.09584681 0.06546329 0.5197114 -0.25614288 -0.0773567 0.45578712 -0.19427341 -0.40777972 -0.4104548 0.39589572 -0.07796457 -0.033370774 0.0052190977 -0.13243091 0.17763178 0.11965557 0.03839556 0.061759878 -0.0705059 0.015468542 -0.0026788618 -0.19826347 0.14169393 -0.0074949535 -0.016482575 -0.062041245 -0.048935074 0.0867327 -0.07810087 0.03641892 -0.001980852 -0.1601852 0.14814204 0.09813159 -0.099805295 0.21477462 -0.15378773 -0.09584365 -0.15522741 0.14209118 0.025909742 0.06700553 -0.09727472 0.08140947 0.08827525 -0.100164235 0.025634931 0.09787872 -0.02458292 -0.093112186 -0.04795069 0.03679065 0.14855327 0.03432404
224 0.029919988 -0.09406291 -0.0768819 0.008786885 -0.029271921 0.025378488 -0.11353295 -0.18802764 0.00735701 -0.02540305 -0.03596889 0.12071548 0.5247123 -0.39904663 -0.318947 0.33427423 -0.045894817 -0.2539043 -0.39603502 0.45791483 -0.14757803 -0.008402112 0.09012274 -0.109049216 0.17675626 -0.021720055 0.041509107 0.0039033312 0.0945096 -0.07550709 0.057136286 -0.1600324 0.012475056 -0.101817384 0.05010084 -0.030033281 -0.23468997 0.12155307 -0.07415702 0.06914059 0.08267492 -0.12791167 -0.089631066 -0.06334899 -0.12993091 0.01830899 -0.17398635 0.049326755 -0.07684548 0.18230273 -0.110839546 -0.049352646 0.02174399 0.031755183 0.27187106 -0.25203624 0.22136822 0.14364359 0.06169512 -0.3140579 -0.11877867 0.014913653 0.20652482 0.05322682
155 0.012067783 0.14655891 -0.07824722 -0.07045712 -0.17208989 0.18130502 -0.119169824 0.035330243 -0.18702723 0.053845864 -0.013720953 0.04941993 0.57638955 -0.10899091 -0.11338275 0.45912766 -0.15309548 -0.24701753 -0.39716482 0.38286662 -0.15359801 0.025210924 -0.062429998 -0.14190148 0.12152707 -0.079685785 0.18248017 0.22909836 -0.029662723 0.06984706 -0.014824107 -0.12912987 0.06691732 -0.005337494 -0.08066411 0.043788996 0.1354702 -0.10497615 -0.037856493 0.018562693 -0.15995081 0.026569972 0.07378608 0.07819508 0.048576258 0.10276903 -0.17807831 0.024930896 0.009048669 -0.02634542 -0.08903354 0.07900677 -0.08385009 0.09565126 0.05821652 0.014848496 0.010819981 -0.036608495 0.022890186 0.21050583 0.01315161 -0.035651166 0.019053152 -0.02245109
172 0.017835567 0.070909984 -0.09835812 -0.07974518 -0.1935266 0.05246901 0.15209374 -0.016324792 0.036606837 -0.0813255 -0.0994992 0.08395084 0.61310244 -0.22904363 -0.081726745 0.4495681 -0.24240956 -0.2117152 -0.42880332 0.2334442 -0.053389262 0.0031214869 -0.12416873 -0.074519806 0.051893685 -0.15674219 0.0705498 0.24290776 0.14501226 -0.08225247 -0.0071741147 0.06573938 0.05634801 -0.020299578 -0.12831458 0.09099915 0.15051724 -0.13224557 0.11439774 0.0009500804 -0.118806146 0.059854478 -0.0044307034 0.042760737 0.016121587 -0.00015316502 -0.07921646 0.22075951 0.1373526 -0.24966176 -0.002444509 -0.03755903 0.07149257 -0.059649084 -0.103833444 0.21409905 -0.013720381 -0.08211792 -0.1501804 0.20351383 -0.012255413 0.0028687702 -0.12718578 -0.25237814
110 0.07656492 -0.030793637 -0.055303093 -0.11288422 -0.15361156 0.03520035 -0.1856425 -0.15094832 -0.08766999 -0.11576538 0.04515387 -0.031716406 0.5949158 -0.3378622 -0.26529866 0.40421975 -0.014722171 -0.23676999 -0.364138 0.42495757 -0.16933669 -0.055862576 0.021458825 -0.15863821 0.09652122 0.11774929 0.05190123 0.052816432 -0.005363838 -0.042447563 -0.15714157 -0.07588587 0.052039556 -0.005945068 0.062014434 -0.086237915 -0.17573656 0.16661727 -0.06658941 0.043186814 -0.029777445 -0.11845957 0.036678586 0.067824885 -0.22312637 0.011780528 -0.26336205 -0.032682735 -0.09698027 0.14595406 -0.13227148 0.03354601 0.034521405 0.09194731 0.1632451 -0.29508924 0.18987727 0.08550872 0.02549218 -0.3215258 -0.18106313 0.017550653 0.22098103 0.0083242
92 -0.07692901 -0.06928523 -0.09011947 0.05873751 -0.0041807485 0.10028252 -0.08903679 -0.05478432 -0.019244358 -0.17692412 -0.03903106 0.049976144 0.4512386 -0.37477237 -0.23524427 0.49539855 -0.17798427 -0.26260236 -0.4000755 0.46322984 -0.067717925 0.04671568 0.024203971 -0.10702701 0.0010337908 -0.15345098 0.11065439 -0.020391332 0.07114992 -0.1524166 -0.09461793 -0.061732695 -0.07891639 0.1467431 -0.014778632 0.015625916 -0.23586021 0.18737103 -0.06085099 -0.08772523 0.086591914 -0.068641745 -0.032289695 0.05874405 -0.046152707 -0.04885327 -0.022928534 -0.05389028 -0.075692706 0.049924403 -0.09480584 -0.049937632 0.14398901 0.060512774 0.18243648 -0.17750025 -0.0009211789 0.10492931 0.022625363 -0.21128124 0.06667597 0.040661465 0.22741854 0.17350383
162 -0.088720724 0.0061140405 -0.04063945 -0.04391976 -0.13117999 0.047614913 0.108502805 -0.012404462 -0.10623902 0.01184875 -0.0650252 0.03968335 0.57271737 -0.18008192 -0.08727589 0.5167313 -0.2821852 -0.22638908 -0.37733546 0.35972196 -0.025702868 0.022640493 -0.0082518 -0.0051841172 -0.005439968 -0.12907675 0.21094015 0.161588 0.0654783 -0.18068658 0.12842023 0.064689726 0.028089792 -0.10225361 0.051676866 0.14088091 -0.041706916 -0.03651514 0.03192296 -0.09492852 -0.19140328 -0.04235936 -0.10064748 -0.044939928 0.13885628 -0.045242146 0.021073913 -0.0018688209 0.012912085 -0.06448479 -0.08915019 -0.08168052 0.04862903 -0.110795714 -0.16706738 0.14774029 0.005359304 -0.06326191 0.03578232 0.17182897 -0.051607803 0.18920283 -0.110210285 0.027608525
169 0.046800416 0.051712662 -0.019431926 -0.05622701 -0.1178042 -0.026231965 0.03167896 0.05940601 -0.06906401 0.013196471 -0.017175006 0.20643117 0.56362116 -0.22769311 -0.03480239 0.50007325 -0.22758673 -0.3001672 -0.42891392 0.258458 -0.06619263 0.013951195 -0.05880748 -0.15773386 0.062244296 0.020001125 0.1628108 0.18695709 0.13193324 0.021216363 -0.029490659 -0.0628608 -0.06727789 -0.069747984 -0.063516304 0.085314974 0.1408629 -0.11263089 0.06290377 0.063088484 -0.12644997 0.018634047 -0.013842319 0.14727375 0.109892845 0.09936632 -0.15891613 0.042753447 0.06546294 -0.1310585 -0.0003450813 0.015690368 0.03781418 -0.17823143 -0.058060113 0.15076487 0.05122962 -0.010748452 0.051138245 0.19567516 0.028941007 -0.08215222 -0.10269053 -0.18214065
178 -0.056490842 -0.0566563 -0.017195815 -0.027924633 -0.0033771514 -0.06935155 -0.054208983 0.07185513 -0.08668601 -0.028834263 -0.0477187 -0.075546585 0.44747594 -0.34522986 -0.1651993 0.5769624 -0.325119 -0.1706912 -0.45274496 0.41842893 0.043824077 -0.044494517 0.051503185 -0.15246937 -0.026870327 -0.22069004 0.08211282 0.09868871 0.104827054 -0.09301513 0.048174433 0.05178147 0.007825508 0.15681084 0.012169594 0.111803435 -0.22776808 0.10019618 -0.097013906 -0.13478452 -0.074787974 -0.013171719 -0.0795778 -0.09598859 0.101831965 -0.011828041 0.10904092 0.038952958 -0.080947064 0.005010817 -0.055420738 -0.0016132112 0.025459798 0.06085819 -0.008214591 -0.115748 -0.06982961 0.03821438 -0.0036183028 0.14607377 0.021757945 0.16405483 0.049993705 0.14336498
185 -0.05593886 -0.00083163794 -0.027867435 -0.09941251 -0.032169357 0.010835948 0.0062200977 -0.091201395 -0.109469235 -0.025862312 -0.10937374 0.15190822 0.56841695 -0.24318057 -0.07096851 0.64907336 -0.25098193 -0.23453346 -0.2828195 0.33531538 -0.026459001 -0.006231584 -0.02699856 -0.054302476 0.0033392638 -0.12615533 0.2693573 0.11898708 0.14658627 -0.04520267 0.014590237 0.068926245 0.058802806 0.11896685 0.01752681 0.18470235 -0.1705817 0.011338908 0.012012755 -0.14856374 -0.2285244 -0.094839394 -0.08288759 0.049796782 0.032962866 -0.027498383 0.19986898 0.06232454 0.0005134625 0.005105973 -0.045648385 -0.08416388 0.004880728 0.01721694 -0.06430465 -0.008977187 -0.105130225 0.009225737 -0.07948464 0.04918178 0.08027044 0.20928071 -0.035245012 0.10352046
15 0.0053917835 0.10961155 -0.038514383 -0.09505347 -0.18210362 0.10329243 0.09734996 0.014623281 0.012296775 -0.0040618656 -0.1532718 0.07070156 0.6218422 -0.3242857 -0.17420267 0.3815385 -0.17508975 -0.20267875 -0.413776 0.2917354 0.03774969 -0.035734143 -0.015552249 -0.041974813 -0.08090969 -0.13930175 0.15659915 0.12749377 0.13931933 -0.17099349 -0.10392072 0.16327494 0.039190616 -0.11473692 -0.052820895 0.030802906 0.33572266 -0.0910246 0.19615456 0.01663379 -0.11760335 0.03408481 0.09249112 0.08669613 -0.039439548 -0.052676216 -0.11478066 0.056828577 0.23523025 -0.2780915 0.13345855 -0.20284797 0.15369412 0.021447774 -0.16968982 0.35204136 -0.026535543 0.022572847 -0.1373601 0.1605132 -0.0064060423 0.004806048 -0.1337635 -0.22867814
151 0.009348943 -0.10954964 0.028050961 -0.046206757 -0.08589777 -0.04992314 -0.009379045 0.070429504 -0.16563633 -0.0423633 -0.09506412 -0.09921718 0.46574157 -0.27035636 -0.25803727 0.45268315 -0.27886787 -0.2365128 -0.48731858 0.42862642 -0.014224445 0.007857369 0.117294855 -0.14832328 0.08386371 -0.121945925 0.056102898 0.072733626 0.079011075 -0.13782622 -0.07871934 0.0044261287 -0.1042461 0.14578468 -0.013292876 0.08053273 -0.29919866 0.20473352 -0.049922407 0.020080056 -0.019937515 0.021334637 -0.12632298 0.074306555 0.018932505 -0.060276777 0.19059913 -0.05443081 -0.054294772 -0.045076214 0.000109214685 -0.123998046 0.02401169 0.033144362 0.009044519 -0.22401167 0.034641307 0.16003607 0.034275867 -0.12849367 0.08755607 0.112358764 0.1925207 0.14834154
12 -0.066942036 0.1578062 -0.052987427 -0.13490783 -0.11580698 0.061826386 0.037451196 0.031676393 0.039072555 -0.08154494 -0.0864556 0.11008926 0.66106933 -0.28207707 -0.2029248 0.3275222 -0.26252884 -0.20167403 -0.41623512 0.30329365 0.03619179 0.08739926 -0.04991055 0.025276028 -0.10492135 -0.0839425 0.041318923 0.18193574 0.09925234 -0.0011924888 -0.091883495 0.12056693 0.06429503 0.029008737 -0.1747212 -0.051698443 0.26693118 -0.11349744 0.20419751 0.0055788625 -0.15928441 0.0213483 0.04611546 0.026835138 0.05951197 0.07821469 -0.02412085 0.110657796 0.16632095 -0.26320702 0.059491612 -0.15941317 0.09427153 -0.2534288 -0.16066404 0.23690845 0.031141572 0.0936068 -0.13761868 0.10112185 0.043822035 0.054669928 -0.18670407 -0.25851008
53 0.001210563 0.09554268 0.009546659 -0.04527742 -0.03223826 -0.08559288 0.06991074 -0.04800919 -0.07363238 0.027694995 0.021142008 0.14280443 0.65231645 -0.2442157 -0.072122805 0.4810379 -0.30054605 -0.2158217 -0.39143404 0.31527558 0.08761536 0.0591064 -0.045951452 0.0036655464 -0.0055092666 -0.07085573 0.055908933 0.23555832 0.065038 -0.0041316636 0.0052199196 0.13547093 0.022474827 -0.025950022 -0.13562506 0.20643456 0.05163562 -0.03022854 0.111699514 -0.14298333 -0.22098427 -0.0033644785 -0.07226578 -0.12737046 0.017689751 0.028914612 0.01981682 0.044506077 0.095109515 -0.23158947 -0.027387235 -0.08146653 0.15902229 -0.08824088 -0.093418814 0.14263026 0.010343397 -0.10931569 0.06541379 0.12605919 0.02245963 0.0016832687 -0.09366091 -0.02203184
213 0.0053711226 0.004444141 -0.052622117 -0.045629762 0.020520119 0.011503154 -0.030002976 -0.030553458 0.0019940827 -0.21847177 -0.09888007 -0.06441869 0.49894387 -0.4445948 -0.30897316 0.37435013 -0.15370093 -0.1361377 -0.42232054 0.47140083 -0.06450595 0.040275533 0.04086545 -0.14057058 -0.0066160327 -0.18930364 0.053561397 0.022367585 -0.03762252 -0.063019074 -0.04509824 -0.03092014 -0.0056046066 0.026824618 -0.002883462 0.12542094 -0.21073025 0.3509432 -0.11162755 0.04406301 0.12939845 -0.08236767 -0.18183264 0.046406396 -0.068297915 0.025281642 -0.10085015 -0.020166887 0.012467241 0.15638115 -0.021912666 -0.08011408 0.023925686 0.081792966 0.27550656 -0.23041192 0.13981895 0.11515843 -0.03280762 -0.19699007 -0.029838819 -0.0075026993 0.2956315 0.09513638
173 -0.029106667 0.024236055 -0.038750082 0.04788823 -0.082104474 0.1234799 -0.21098301 -0.04447173 0.018765654 -0.013957111 0.051235847 0.04297602 0.534504 -0.22633317 -0.26189268 0.4708183 -0.12329873 -0.37670636 -0.40926507 0.4330243 -0.06940657 -0.23202299 0.013451047 -0.055832718 0.061300363 0.0837608 0.0046204124 0.005843223 -0.026102081 0.075145505 0.017699217 -0.22361314 0.009497385 0.020933006 0.0629909 -0.05259622 0.0054460093 0.11205008 -0.21960828 0.07681231 0.016369862 -0.13610274 0.070474796 0.0075626425 -0.21774319 0.092527606 -0.25931194 -0.09045612 -0.19057415 0.09366947 -0.006949161 0.06821835 -0.097066164 0.002396778 0.18582502 -0.15811628 0.15592678 0.18186627 -0.032731853 -0.20985706 -0.125383 0.046356734 0.15967894 -0.0038676586
143 0.1669296 0.19439436 -0.10335026 0.004053372 -0.25135687 0.10465108 0.022538733 0.016863042 0.012788129 -0.12011232 -0.0015246145 0.06943656 0.6405491 -0.1699331 -0.0936631 0.46424037 -0.15658964 -0.25332096 -0.38126466 0.2675411 -0.053088617 0.044520073 -0.0051414086 -0.11141191 0.030271228 -0.020295635 0.13279402 0.11557837 0.13532151 -0.08100778 -0.038022056 0.049759846 0.09433743 -0.12179387 -0.1312668 0.037933763 0.238429 -0.16945474 0.02655553 0.031288113 -0.16974552 -0.034119513 0.029691327 0.05760618 -0.045765076 0.10015038 -0.031981885 0.09301467 0.22151327 -0.14624174 0.014054894 -0.1255027 0.008235281 -0.15471615 -0.08446506 0.14570265 0.011940649 -0.006208835 -0.04506709 0.29562488 0.0024236836 -0.098075695 -0.122907124 -0.24692701
217 -0.01916639 0.09051395 0.05256215 -0.09361523 -0.026676841 -0.12772413 0.040875807 0.008486397 -0.017408801 -0.0048641693 -0.13798809 0.09042445 0.6726336 -0.32800192 -0.09009491 0.40328962 -0.25331187 -0.22566876 -0.37217078 0.28044593 -0.0012233944 -0.022422567 0.02802946 -0.010912449 -0.0854214 -0.18456396 0.0756687 0.14687164 0.09347722 -0.13328217 -0.052575488 0.1342934 -0.011552688 -0.014556035 -0.085273884 0.1265719 0.20913512 -0.13144729 0.17411363 0.011980808 -0.2864396 0.0065972176 -0.060942803 -0.082663685 0.01195563 0.12339248 -0.12959722 0.12014899 0.13887668 -0.18621883 0.025105359 -0.1323227 0.07579932 -0.12708274 -0.16866876 0.3291349 -0.014801018 0.053259227 -0.11223149 0.13898353 -0.052150257 -0.029739242 -0.14997259 -0.14601445
134 -0.12395692 -0.11821001 0.027289046 0.044595566 0.020798381 -0.016690047 -0.19550449 -0.055882208 -0.15087608 -0.043495942 -0.136722 0.058098648 0.49870256 -0.14171515 -0.24536552 0.5534739 -0.24297303 -0.23439462 -0.46366477 0.4036105 0.0069372426 -0.027262684 0.044564966 -0.15660907 0.040059317 -0.15324558 0.14309958 0.09820223 0.009833948 -0.085792765 -0.08057684 -0.06819737 -0.06512929 0.052374315 -0.14820755 0.17393151 -0.2713766 0.1295659 -0.01721693 -0.13204908 -0.011775298 -0.10593348 -0.14339761 0.011843625 0.088352636 0.0069370163 0.2607178 -0.03996654 0.04767438 0.011934108 -0.17050858 -0.10315581 -0.029277822 0.03281632 0.0013670234 -0.07355648 -0.028667426 0.0071100798 0.00017297108 0.022624033 -0.03358077 0.14674957 0.10195491 0.1427234
228 -0.009412892 0.0775103 -0.11027122 -0.097040586 -0.13539416 -0.013369152 0.18589649 0.0028650472 0.002379568 -0.03851612 -0.045733728 0.13858865 0.6408954 -0.38456258 -0.005359274 0.3642229 -0.24030821 -0.20238423 -0.43596336 0.3279979 -0.06545695 0.072544105 0.010223159 0.025861692 -0.037259288 -0.0735727 0.092590414 0.22186579 0.089153625 -0.1295671 -0.03837186 0.27209705 0.06722229 0.05467968 -0.04193735 -0.014749192 0.13364728 -0.15460148 0.088254005 -0.06117111 -0.19868186 0.014045033 0.008196203 -0.03157633 0.060393605 0.066234276 -0.046763755 0.14380763 0.13731879 -0.22199555 -0.04338957 -0.15534529 0.0631981 -0.14618252 -0.18291366 0.17927837 -0.04010699 0.058258522 -0.13013525 0.14977479 -0.046266794 0.1305261 -0.07557695 -0.09711842
106 0.044069055 0.20548919 0.008773591 -0.092103295 -0.26217654 0.08739881 0.019820793 0.006674956 0.08044347 -0.078541115 -0.13102803 0.03121011 0.7213256 -0.25707382 -0.21520959 0.22412892 -0.2542824 -0.15612006 -0.39509782 0.26567224 -0.0077061206 -0.06383987 -0.00039210136 -0.026060903 0.022849677 0.018543646 0.09216298 0.28146797 0.17486452 -0.14193292 -0.0635625 0.11004031 -0.033732686 -0.037471715 -0.20815977 -0.024802048 0.22953026 -0.008232814 0.2294134 -0.00013139613 -0.2181876 0.03272466 0.03565356 -0.098911576 -0.084443904 0.1233604 -0.036335114 0.21037504 0.22168256 -0.19178584 0.106743544 -0.25035185 0.17903933 -0.11126298 -0.3121163 0.2646659 -0.04722675 -0.014588148 -0.12368527 0.12407663 0.10823734 -0.07950931 -0.18855529 -0.1615277
123 -0.08697263 -0.16290952 -0.0546138 -0.046492483 -0.050029106 -0.0027311181 -0.0696017 -0.102045625 -0.033665616 -0.124955565 -0.18273535 0.08490398 0.467831 -0.32174966 -0.33481866 0.347748 -0.20000584 -0.18542321 -0.48706195 0.48134518 -0.09809462 -0.014315346 0.11619978 -0.062652186 0.09024413 -0.14103736 0.015973717 0.026032753 0.0046891067 -0.11419366 -0.09878782 -0.08917285 -0.14194958 0.08043428 0.059554067 0.1008391 -0.16026087 0.22752309 -0.052292682 -0.022313774 0.19037375 -0.14703737 -0.051972445 -0.0027278676 -0.02502434 0.030827302 -0.07827606 0.008707924 0.06370643 0.13358292 -0.06434936 -0.11764536 0.11346481 0.018340576 0.22084305 -0.21160153 0.029354187 0.09876843 0.05421557 -0.2291634 0.033540055 -0.053046945 0.22567216 0.29993737
175 -0.016792778 -0.09602535 -0.0099329315 -0.15022138 -0.12508638 0.07958696 -0.23544344 -0.13884607 -0.016459947 -0.07898813 0.038472913 -0.019190805 0.5652577 -0.29858163 -0.27255568 0.4434139 -0.09897818 -0.36259273 -0.3360382 0.37608504 -0.05566684 -0.14851877 -0.024040744 -0.08769636 0.15579773 0.06654902 -0.023142911 0.12841463 -0.049829822 0.011927248 -0.06298692 -0.16185516 0.027503494 0.0070860153 0.10051392 -0.17249227 -0.09994552 0.12256056 -0.024699155 0.052012786 0.027065003 -0.09313278 0.09250581 0.033687115 -0.14559178 0.04152248 -0.32784727 0.06977254 -0.09955707 0.17095068 -0.09600134 0.060668554 -0.15140912 0.016977014 0.1632387 -0.2581895 0.15424092 0.10085796 -0.047193695 -0.33039242 -0.19503218 0.0372844 0.23429291 -0.037519664
117 0.015220713 0.15172905 -0.100980066 -0.044639993 -0.20811719 -0.03786455 -0.13488871 -0.10017777 0.13763244 -0.0045037726 -0.11744854 0.034379713 0.7109478 -0.35090068 -0.2725808 0.2567824 -0.19351524 -0.2301426 -0.3486399 0.22962297 -0.035719622 -0.08772475 -0.012073137 -0.09364001 0.059417147 -0.16905521 0.016948264 0.2268346 0.14649479 -0.15827408 -0.099544585 0.14773399 -0.012325852 -0.036590297 -0.08450682 0.06464352 0.17867762 -0.15990035 0.30576408 0.011115181 -0.13510017 0.06681079 0.014328464 -0.091775164 0.0813866 -0.08136937 -0.15778428 0.17430833 0.20543772 -0.31438127 0.22055826 -0.19756079 0.13840531 -0.10672403 -0.2991988 0.2663555 -0.014867506 0.10026078 -0.24245952 0.09610202 0.09070089 -0.03168719 -0.2774651 -0.2524245
189 -0.042950805 -0.005070669 0.07294367 -0.06126475 -0.105386965 0.077782 -0.049383413 -0.13804704 -0.051164635 -0.054285254 -0.033766452 -0.04294539 0.619135 -0.29167628 -0.32401818 0.36864778 -0.025102995 -0.2853984 -0.3551661 0.4057531 -0.08097256 -0.15082186 0.015878659 -0.12193508 0.20392248 0.11112693 0.02270917 -0.004964837 -0.0028453732 -0.10319575 0.11076873 -0.17471193 0.04557813 0.038820114 0.06279031 -0.058761545 -0.10458043 0.15821952 -0.079968445 0.075131595 0.106646806 -0.18228322 -0.0066815987 -0.07190001 -0.17773293 0.07359411 -0.27574018 0.14833945 -0.020262927 0.16792929 -0.053786192 -0.016303869 -0.1751632 0.05162268 0.25580576 -0.17793955 0.23755328 0.1553729 0.030523365 -0.35891345 -0.22819543 0.037041526 0.29241362 -0.0008282077
205 0.076202266 0.1173722 -0.029177459 -0.12891598 -0.2137605 0.014531022 0.0054512606 0.026084626 -0.13239756 0.0049572317 -0.07703488 -0.0024680693 0.5371598 -0.19336525 -0.033224188 0.5127815 -0.2848364 -0.4651483 -0.3239598 0.30220485 -0.1616207 -0.023709062 -0.058892157 -0.046600197 0.14500009 0.010092523 0.23505177 -0.015215382 -0.015419056 0.17195706 -0.11043475 -0.21591225 0.05466362 0.048891645 -0.051831547 -0.063955165 0.21475 -0.041571442 -0.14089756 0.06270586 -0.07352797 0.05722987 0.07961754 0.19186804 0.03715464 0.20105933 -0.22071464 -0.069482766 -0.008088268 -0.061062615 0.053436186 0.103715815 0.00078839983 -0.0155536635 0.07717325 0.0027971407 -0.05192091 0.040036567 -0.037326653 0.10007857 -0.041953612 0.03538745 -0.041455187 -0.08884957
233 -0.025176413 -0.07207419 0.026829207 -0.06583243 -0.05613234 -0.07845606 0.016768277 0.018491315 0.045532588 -0.21250626 -0.1359317 0.032501686 0.5297263 -0.43983877 -0.41980335 0.327429 -0.012914614 -0.2716629 -0.4099669 0.38835058 -0.17844315 0.039924275 -0.040369548 -0.24136849 0.1557858 0.0939239 0.0070206146 -0.024053805 0.1434014 -0.074603476 0.1308141 -0.01066539 0.03810457 -0.09605664 -0.12185424 -0.032459687 -0.14066312 0.14836147 -0.109414026 0.05444571 0.1349313 -0.11930857 -0.21859291 0.015991548 -0.18740499 0.049933925 -0.19679907 -0.0194806 -0.052291937 0.23605427 -0.07266659 -0.010617759 0.07697032 0.045963973 0.33704656 -0.32918423 0.32009348 0.1715552 0.097853445 -0.30937985 -0.090432025 0.06616513 0.2284658 0.12277529
76 0.12365624 0.0006367288 -0.030068936 0.017200824 -0.091668025 0.16354027 -0.14724754 0.037090596 -0.25660822 -0.032353226 0.060760967 -0.032250356 0.5626321 -0.15628432 -0.1544125 0.45457277 -0.17255872 -0.39722633 -0.34099683 0.3199962 -0.0957617 -0.05150366 -0.11925966 -0.1531943 0.15844043 0.041064397 0.15839022 0.20898956 -0.009111914 0.13020438 -0.018211948 -0.24136285 0.07786709 -0.11156281 0.034022916 -0.12003977 0.009841779 -0.0020749252 -0.048439097 0.11551303 -0.12877703 -0.21144107 0.09624508 0.12906185 -0.13867491 0.19164422 -0.14105637 -0.10857989 -0.056556515 -0.034607727 -0.01490811 0.16860165 -0.049419265 0.093716726 0.09243178 -0.087198325 0.009261657 0.028060557 -0.027477348 -0.09322901 0.009488538 -0.025026008 0.042290583 -0.053668454
82 0.060814943 0.21235025 -0.07473005 -0.0051052324 -0.13802822 0.05620158 -0.045364767 0.07050229 0.21753812 0.027670471 -0.12560162 0.029211093 0.6432046 -0.44892165 -0.26556394 0.23894878 -0.09500114 -0.37248692 -0.35153723 0.2341954 0.05568955 -0.027031852 -0.006418866 -0.10875941 0.041475236 -0.024324208 0.08688109 0.18321589 0.16604602 -0.17234102 -0.021282712 0.04614707 0.01575268 -0.06308655 -0.114061475 0.04140622 0.3047415 -0.015885603 0.2885121 0.037676755 -0.09581752 -0.087049805 0.065150104 -0.01017973 0.038447842 -0.03827844 -0.10453345 0.13524853 0.29947424 -0.28438076 0.16298412 -0.2687098 0.1719969 -0.1101547 -0.1356429 0.18686247 0.007466163 -0.010389868 -0.32643098 0.19821726 0.17180847 -0.04637386 -0.32720163 -0.29824406
85 0.1307621 0.22345938 -0.114615574 -0.05636151 -0.16140266 -0.013357766 -0.008024983 -0.001403244 0.07873982 -0.0357757 0.04271809 0.12377926 0.6635571 -0.28697196 -0.18131493 0.30087256 -0.10214994 -0.2597512 -0.36053327 0.39247167 0.015468942 -0.064470224 -0.06540102 -0.16853434 0.026560541 -0.07173328 0.13829926 0.17096491 0.028441552 -0.05554045 -0.08767004 0.16492684 0.00540596 -0.039558675 -0.23569411 0.014469284 0.32211167 -0.17767537 0.21225926 0.11226551 -0.097815014 0.043350827 0.063649975 0.08291881 0.07689611 0.0031250364 -0.094522 0.083592094 0.26116422 -0.24081917 0.11691962 -0.04789674 0.06222832 -0.16891952 -0.13169964 0.20112208 0.013545627 0.035230137 -0.13893673 0.21334627 0.057419274 -0.0979597 -0.097495124 -0.27293724
125 0.06036264 0.08865291 -0.043879334 0.01893414 -0.15339713 0.100602075 -0.0848785 0.04058005 -0.08145224 -0.040234946 0.06767811 0.09301229 0.6776348 -0.09190781 -0.051136542 0.45713323 -0.20263466 -0.31784573 -0.3875019 0.25129545 -0.17568111 0.029031452 -0.11304539 -0.11023263 0.24418108 -0.025011562 0.11733148 0.17809677 -0.035017982 0.030095637 -0.017999765 -0.014700363 0.038547847 -0.16079316 -0.15378769 0.09968203 0.23243995 -0.025116986 -0.052080743 0.095704205 -0.009151502 0.03981242 0.01211549 0.15602301 0.051469512 0.07425858 -0.10800253 0.046034954 0.160335 -0.0596787 0.1387767 0.034585416 0.01264089 -0.10364508 -0.037795007 0.14930224 -0.011358081 -0.053826906 -0.075722 0.26410523 0.008672051 -0.1501209 -0.07744426 -0.16325444
42 0.021897402 -0.10792749 0.0015828517 0.024979131 -0.00093164516 -0.028225148 0.00886108 -0.020127354 0.045160756 -0.054648742 -0.12923601 0.026502121 0.49016032 -0.25498778 -0.32595685 0.42633763 -0.19961041 -0.21987586 -0.41978368 0.46112368 -0.072186954 0.12538512 0.104539245 -0.18706377 0.08968819 -0.19411509 0.06839879 0.056298807 0.13092253 -0.080672875 -0.22429156 -0.07799497 -0.050698195 0.14762494 -0.14175995 0.099842474 -0.27994648 0.23869857 -0.060206886 -0.049513794 0.03613451 -0.15423605 -0.14278433 0.059205677 0.010613029 0.049249664 0.048153024 -0.086051665 0.019633878 0.05488037 -0.114340544 -0.10610409 0.0505765 0.10212031 0.0718524 -0.2348183 0.0409951 0.09959535 0.070413135 -0.23276971 -0.034044992 -0.06350364 0.20211135 0.20853484
196 -0.028873412 -0.049402494 0.05286211 -0.03232629 0.061346456 0.027180776 -0.03279282 0.03679276 -0.055986505 -0.09169435 -0.19730149 0.000595088 0.6204872 -0.22379524 -0.12124916 0.624483 -0.26445025 -0.123063445 -0.338304 0.3299724 0.031686354 0.026998712 -0.011075658 -0.0029474136 0.15068868 -0.15473028 0.06909952 0.17268047 -0.09144682 -0.10284435 -0.04575193 0.32132196 0.07658187 0.0764181 0.003940317 0.25999394 -0.03938923 0.0022199515 0.034805235 -0.13105705 -0.181297 -0.12153002 -0.19269536 -0.10347786 0.060100053 0.02672027 0.15414704 0.009232614 -0.0078026545 -0.0065706656 -0.008031967 -0.17179471 -0.028562466 -0.02718215 -0.18282951 0.05824411 -0.059361223 -0.013958889 0.06859975 0.12990327 0.05471636 0.23691043 -0.08778171 0.0953703
188 -0.004366413 -0.06797311 -0.0318161 -0.10380206 -0.1928433 -0.053239074 -0.010955255 -0.14057763 0.0033667688 -0.17809363 -0.16140561 0.010124468 0.5802411 -0.465978 -0.43365434 0.2715759 0.08404335 -0.29893038 -0.45673284 0.32649186 -0.110371985 -0.022902772 -0.07181587 -0.12694591 0.10484824 -0.02340657 0.053987753 0.022834651 -0.00048345732 -0.03534598 0.02017373 -0.073729865 0.003923191 -0.03251418 0.055960074 -0.102975525 -0.16114773 0.23034522 -0.21511991 0.008221616 0.15579313 -0.16451108 -0.19038153 0.04173813 -0.24424472 0.04339598 -0.22204088 0.088464245 0.016039548 0.24133094 -0.13684845 0.0370925 0.1535504 -0.017796056 0.34454283 -0.18712915 0.3797189 0.14237888 0.029862713 -0.33373255 -0.23309465 0.121953644 0.18926705 0.12680335
81 0.05664487 0.30064467 -0.0060669626 -0.12570901 -0.18911779 0.03811385 -0.08567615 0.031410597 0.15463723 -0.057718117 -0.20928545 -0.00884885 0.6799615 -0.38441327 -0.35280406 0.33162576 -0.10157535 -0.29370987 -0.3453501 0.23845528 -0.007043501 0.019517023 -0.041401286 -0.08614178 -0.10700727 -0.13276535 0.08764278 0.20215851 0.1999442 -0.22846214 0.011671765 0.08731082 0.09930303 -0.020867057 -0.13629124 -0.036998678 0.32611358 -0.13858992 0.16688105 0.07568463 -0.0054733073 0.0163241 0.05168074 -0.058371887 0.11838465 0.11812203 -0.09853706 0.06719137 0.21793781 -0.22461057 0.13653609 -0.30669492 0.19260399 -0.16062231 -0.29737732 0.14236252 -0.14760853 0.020084962 -0.46906564 0.0771064 0.19286804 -0.06869208 -0.25051582 -0.32449514
222 -0.024656242 0.06321382 -0.03611863 -0.020138858 -0.04206083 0.036828704 0.1041991 -0.042912338 0.04229733 -0.07897348 -0.18731193 0.07664237 0.6352554 -0.50017685 -0.21971323 0.26861364 -0.1595755 -0.2280364 -0.42601517 0.30025265 0.0074386178 -0.034251735 0.015948625 0.08076408 -0.1610325 -0.07562126 0.055480845 0.22297758 0.16055574 -0.08922884 -0.10005748 0.1990841 0.008914337 -0.026536347 -0.14634411 0.16623063 0.23589052 -0.2052594 0.19458945 -0.045403782 -0.29662728 0.044716544 -0.002685284 -0.08600241 -0.009546889 0.08885217 -0.055668652 0.2040434 0.18765426 -0.22260185 0.11459229 -0.37582156 0.07387427 -0.03363544 -0.28426838 0.24654655 0.022649774 0.04211776 -0.2293677 0.041954704 0.0571499 0.014870757 -0.26234448 -0.1629793
153 -0.0072710556 0.20568989 -0.10507727 -0.06689977 -0.16947438 0.01899172 -0.058096256 0.08050424 0.036217626 -0.07518751 -0.11781952 0.012770486 0.58061427 -0.29680046 -0.27488336 0.35519162 -0.096187696 -0.33975965 -0.36540484 0.29122823 0.07970824 -0.034346808 0.0020185057 -0.08871915 0.11166969 -0.023408122 0.13752432 0.1270701 0.06490661 -0.18493222 -0.17101236 0.11271233 0.048381023 -0.102056764 -0.14099725 -0.06610043 0.27716824 -0.15091299 0.16623051 0.096981585 -0.040061325 0.06487594 0.08773883 0.03194514 -0.003492377 -0.010221543 -0.1662426 0.21168393 0.26250425 -0.29001164 0.122080624 -0.074870035 0.10704618 -0.23230177 -0.039495934 0.12343754 -0.0415783 -0.03893273 -0.32143667 0.27461228 0.21649984 -0.07528147 -0.2122227 -0.24745996
94 -0.081433095 -0.06826084 -0.11897849 0.006342381 -0.041467886 0.014513285 0.05039333 0.0776749 0.0034121827 -0.01251689 -0.13134895 0.14568779 0.626619 -0.32662848 -0.16548273 0.4090256 -0.23837939 -0.16023536 -0.38579208 0.3773414 -0.014953794 -0.05663084 0.037592776 0.07956765 -0.028538903 -0.18243885 0.16090874 0.10900269 0.074990235 -0.15784545 0.04222543 0.23359764 0.029665045 -0.037154034 -0.063864924 0.11863737 0.15343499 -0.21797776 0.15181237 -0.05301172 -0.34108636 -0.05021249 -0.08800694 -0.018315382 0.014673793 0.009186673 0.12070752 0.06690567 0.066948764 -0.26019278 0.12430257 -0.12225002 0.13179497 -0.07398444 -0.28179854 0.17046766 0.053473074 -0.05071869 -0.08492014 0.024511067 -0.116458036 0.117667496 -0.18699807 -0.18398206
229 -0.042231984 -0.0818268 -0.037338942 -0.021846475 0.05095085 -0.15470618 0.093887635 0.04467897 -0.006596975 -0.006098543 -0.11252428 0.13621755 0.63735163 -0.238492 -0.09218757 0.4928087 -0.32310864 -0.22363842 -0.39005813 0.36909303 0.10913624 0.021211559 0.075169 0.03689489 -0.06323945 -0.019858975 0.12756406 0.10547147 0.01683182 -0.16531579 0.05252744 0.17978384 0.04866134 -0.06143561 0.017107919 0.18277882 0.0071288 -0.058046676 0.0052314554 -0.19319247 -0.25684452 -0.022093786 -0.047972076 -0.083779454 0.07983982 0.0021063527 0.07224319 0.023146363 0.09983566 -0.18731695 -0.083865434 -0.12243888 0.09777736 0.0010460205 -0.11133071 0.20458215 0.0026513038 -0.07322281 0.008389609 0.0826931 0.04343391 0.28353894 -0.12886003 -0.044975806
130 -0.066699594 -0.08408343 0.020973107 0.05074073 0.020030962 0.006114582 0.02889172 0.008952451 -0.0357651 -0.10423255 -0.109364025 0.046437528 0.5257549 -0.28402364 -0.08755292 0.646571 -0.24995981 -0.2463647 -0.3822658 0.34701276 0.14213502 -0.0305455 -0.05723537 -0.08716957 0.007618401 -0.08972908 0.1618481 0.032074355 -0.025735524 -0.07818459 0.06810767 0.1391337 0.06384094 0.14775212 0.07848565 0.09504554 -0.15459314 0.07104663 0.042651016 -0.18013535 -0.15266746 -0.10189002 -0.14234824 -0.09078055 0.1638488 0.020078389 0.2670713 0.013460391 0.02407902 -0.16191596 0.019135641 -0.11178362 0.12202733 -0.10566038 -0.15289457 0.08132102 -0.0066053607 -0.06465799 0.036365367 0.054869108 -0.0125546 0.25778636 0.02082042 0.12030122
107 0.05941398 -0.05973086 0.022269798 -0.053737402 -0.12653466 0.046314426 -0.15029863 -0.13016088 0.047409695 -0.05928555 0.030263029 0.06334679 0.56830716 -0.36671698 -0.18552409 0.36101452 0.024894834 -0.46647415 -0.30297875 0.5618661 -0.083228774 -0.1810673 -0.078895815 -0.009380864 0.11760014 0.22358464 0.033787347 0.057020973 0.0108574955 -0.022152457 0.007293309 -0.044639673 0.0635515 0.00036077286 -0.0016964031 -0.14709061 -0.1416493 0.10022311 -0.14226878 -0.0034911942 0.06659972 -0.1420445 0.049567673 -0.0038281921 -0.20485458 0.11365831 -0.32070896 -0.029517097 -0.115850195 0.030282507 -0.05938049 0.10014337 -0.17840415 -0.02919996 0.31719512 -0.22247964 0.09630817 0.04553851 0.008856412 -0.3629568 -0.18620528 -0.050889514 0.17365554 -0.08857953
50 -0.0056343 -0.0042248024 -0.06014476 -0.08132154 -0.042409748 -0.010446446 0.08121061 0.046209645 0.11770171 -0.084003024 -0.17397358 0.0373776 0.6085478 -0.3379226 -0.15328422 0.40255442 -0.2830879 -0.14803405 -0.3367725 0.43564278 -0.01002343 -0.013667269 0.020834764 0.0034659265 -0.024217205 -0.22037515 0.14040413 0.119942665 0.0255012 -0.050561782 -0.02578358 0.15908378 0.044513047 -0.046565697 -0.049366497 0.09624447 0.14317465 -0.097628966 0.17083585 -0.08985974 -0.30704397 0.016014716 -0.066353425 -0.09967238 0.007322323 0.046838097 -0.12730147 0.08319434 0.11360658 -0.24893728 0.022784585 -0.21770406 0.0868452 -0.11104852 -0.31597218 0.3852811 0.022294657 -0.0186891 -0.019636078 0.10009581 -0.065748185 0.17605658 -0.18271412 -0.0482961
152 0.07711878 0.16464868 -0.04508931 -0.06703288 -0.1687586 0.073119685 -0.032697234 -0.023758207 -0.06232698 -0.11087845 0.12461192 0.045132387 0.70850885 -0.15167414 0.031011114 0.32268852 -0.23913984 -0.30218786 -0.37996233 0.30513147 -0.1117484 -0.02171122 -0.087022096 -0.17368641 0.16616979 0.027266935 0.16932417 0.20394896 0.04539606 0.03935696 -0.050058935 -0.01636927 0.08938812 -0.049036525 -0.08497203 -0.071123876 0.21924788 -0.07515729 -0.08979087 0.13325688 -0.15263756 0.1061026 0.07699375 0.18067099 0.09939116 0.17478639 -0.10375142 -0.0790211 0.12619804 -0.13446578 0.046111275 0.17197727 -0.03156104 -0.023738682 0.1252633 0.10753904 -0.013008733 -0.09992093 -0.10533316 0.1520149 0.067110084 -0.15790424 -0.06635918 -0.037150472
232 0.01845718 0.012127955 -0.07154303 -0.049367428 -0.19133814 0.024901642 -0.07770855 0.024886394 0.15883514 -0.056672893 -0.15306708 0.15342867 0.69100827 -0.3089774 -0.31268787 0.1346128 -0.1498839 -0.23285924 -0.5670245 0.25399557 -0.06903904 0.0072197323 0.13128829 -0.10107565 -0.24559227 -0.05765661 0.10754009 0.18522303 0.0005599877 -0.22304483 -0.08166824 0.14172184 0.02813254 -0.1370327 -0.14120972 0.06355784 0.29500493 -0.11443986 0.22988777 -0.10626638 -0.19091006 0.05220055 -0.078768745 -0.13802756 0.06075903 0.02362422 -0.09412075 0.23737565 0.09079814 -0.28033504 0.060826622 -0.2579085 0.1344604 -0.04452973 -0.25811967 0.29698256 -0.025670532 -0.034539454 -0.321247 0.035084147 0.103018016 -0.0092827985 -0.2688995 -0.22453184
212 0.055995483 0.09267561 -0.03673719 -0.014196796 -0.22974914 0.16988032 -0.028508237 0.024368072 -0.0044448064 -0.039333027 0.032160014 0.029156199 0.6242968 -0.21287155 -0.09056915 0.4394 -0.2621322 -0.2547657 -0.34204867 0.2954958 -0.03127261 -0.007914308 0.0037627276 -0.116795965 0.20926113 0.06406073 0.12500073 0.07822935 0.13479577 0.07102502 -0.12726994 0.043112062 0.05887642 -0.14311777 -0.074244015 0.022603892 0.2793177 -0.21982393 0.01939826 0.13289832 -0.028629618 0.023282882 0.0018985062 0.21894248 -0.013363975 0.13644776 -0.16102783 0.08054283 0.27340028 -0.071400866 -0.013098464 0.042108353 0.032812968 -0.039495155 0.018875152 0.12649898 0.02240251 -0.010808939 -0.09279967 0.28836 0.110796265 -0.07414566 -0.1994862 -0.14545116
239 -0.13134994 -0.039271288 -0.15959662 -0.111513235 -0.061328474 0.055163287 0.022513626 -0.1804387 0.011405277 -0.037565075 -0.09087178 0.077662066 0.7260124 -0.47543615 -0.5094191 0.24555482 -0.010598807 -0.23064825 -0.26597732 0.32801232 -0.0851873 0.14249307 -0.007302307 -0.09585538 0.1797199 -0.012102458 0.027423548 0.027640123 0.19226676 -0.15945654 0.11129875 -0.058050215 0.024875456 -0.027863167 -0.10215398 -0.06296159 -0.1431197 0.1816877 -0.20133975 0.0006259647 0.13122845 -0.03964354 -0.15355691 0.00211247 -0.15652618 0.125019 -0.13242038 0.0851382 0.15622051 0.27620295 -0.025641602 0.041472442 0.018604985 0.06796988 0.4348346 -0.2571099 0.2655951 0.1623583 0.1255628 -0.3957302 -0.24934177 0.16107118 0.26397115 0.19100206
214 -0.072775975 -0.12985782 0.023731016 -0.060523286 0.16376026 -0.13200119 -0.014246292 -0.04031554 -0.04296021 -0.060789917 -0.1592221 -0.046289213 0.5026292 -0.35075158 -0.14506434 0.59781706 -0.3205948 -0.18136743 -0.44245952 0.37272838 0.0042508333 -0.05949104 -0.05262485 -0.15443556 -0.054806024 -0.15666285 0.16620173 0.1120834 -0.034149095 -0.19344744 -0.11145399 0.14941217 -0.01961056 0.087827615 0.020796964 0.08317196 -0.05048757 0.04279071 0.012234581 -0.21301755 -0.1615878 0.035249196 -0.14071351 -0.086038776 0.1300864 -0.084280565 0.14843291 -0.057408273 -0.14371917 -0.006944686 -0.13508232 -0.11306968 0.0073772613 -0.023898715 -0.014033462 -0.15803152 -0.08705817 -0.06323398 0.10362539 0.12589888 0.08524975 0.31047592 -0.05245184 0.103496656
137 0.00908145 0.10746504 0.028210469 0.036581527 -0.13902807 0.15089123 -0.1384014 -0.043879904 -0.012467896 -0.021442052 0.06791361 -0.062344667 0.6549466 -0.30091423 -0.12877773 0.39107335 -0.084980614 -0.45679545 -0.28602016 0.48474565 -0.0166241 -0.11713663 -0.1470041 -0.042551238 0.08036376 0.10659268 -0.040210593 0.07181497 -0.0794871 0.0936433 0.07464421 -0.26667732 -0.014208626 0.008283115 0.09372973 -0.08959689 0.0013107208 -0.01103905 -0.2997028 0.070561156 0.098683864 -0.075720295 0.07291758 -0.03664677 -0.15376948 0.125317 -0.35455063 -0.017635465 -0.19798282 0.1373607 -0.041275203 -0.004982135 -0.08807631 0.012797024 0.15872718 -0.21703124 0.050162174 0.04242529 0.009361718 -0.33441237 -0.13281879 0.10263931 0.1970787 -0.028964678
238 0.039028123 -0.026224641 -0.04415589 -0.11044062 -0.0049021714 0.008999457 0.038628962 -0.0237879 0.08359817 -0.06432921 -0.17166378 0.13761882 0.5563634 -0.41462338 -0.15294439 0.35500318 -0.27198377 -0.17836943 -0.4591688 0.3517426 0.03125538 -0.03634786 0.025644744 0.065350845 -0.0013395358 -0.07691329 0.07269397 0.25557268 0.11095509 -0.12609586 -0.06138195 0.25633338 0.13286524 -0.07962912 -0.09095842 0.13296092 0.13932352 -0.17476782 0.19390008 -0.22027637 -0.20551562 -0.033106685 -0.02044126 -0.09544536 0.007961879 0.048337758 0.058459003 0.19871445 0.07446766 -0.20067333 0.0029050293 -0.14306624 0.103721835 -0.027227568 -0.2849281 0.2713203 0.06693985 -0.015394639 -0.10586387 0.19406079 -0.052659713 0.0039336863 -0.20916174 -0.12558454
171 0.09290519 0.02111407 0.027512135 -0.016209772 -0.21419403 0.048227143 -0.05202119 -0.18617766 -0.06989012 -0.08379305 0.05569325 -0.05203529 0.67071027 -0.37565356 -0.2626 0.4156986 0.14116709 -0.36234936 -0.321028 0.38413385 -0.009523587 -0.03357073 -0.047318883 -0.04295728 0.16572322 0.11938705 0.035674218 -0.13488813 0.10317447 -0.019004902 -0.10387971 -0.112975754 0.114915855 0.010272751 0.07088236 -0.14483243 -0.13127123 0.12945786 -0.11980762 -0.031227197 0.1360456 -0.22439271 -0.087657295 -0.14527763 -0.23567957 -0.18115847 -0.39966658 0.06267222 -0.039133083 0.20291431 -0.13993123 0.040822566 -0.13377605 -0.05881203 0.33128208 -0.16401479 0.17716877 0.16791785 0.019118557 -0.38376883 -0.25783098 0.027745193 0.16547427 0.03961341
240 -0.015179879 -0.0014376218 -0.008050682 -0.008669732 0.093627974 0.0066423262 0.12512101 -0.052759204 0.06897849 -0.20916109 -0.046979684 0.00066361215 0.48359853 -0.2776872 -0.40322727 0.32410625 -0.17267418 -0.20158216 -0.5846765 0.4639703 -0.09950428 0.028417021 -0.03533891 -0.1735798 0.15244178 -0.17135297 0.06414168 0.02992812 0.051297378 -0.15194485 -0.11470356 -0.032034077 -0.0869424 0.13098514 -0.083595045 0.0868354 -0.22071858 0.24071862 0.019257873 -0.13169612 0.09787181 -0.090766355 -0.041470695 -0.025070079 -0.03161227 0.041913256 0.08130211 -0.09731264 0.028169464 0.16891602 -0.08819195 -0.06176442 0.068915315 0.046223402 0.20067255 -0.2142356 -0.042311877 0.15784769 0.057255495 -0.30197817 0.015867705 -0.0015286827 0.3070075 0.22611777
241 0.011365124 -0.07621122 -0.113393635 0.11331667 0.013411075 -0.0069044996 -0.16715398 -0.11755095 -0.056910083 0.07658307 -0.10188183 -0.1832936 0.54559875 -0.28305703 -0.17457594 0.57340276 -0.20922597 -0.076387055 -0.45749652 0.4281479 0.07317928 -0.08807668 0.036592472 -0.210622 -0.041036166 -0.18568863 0.054858696 0.1586811 0.14826328 -0.12143559 0.011230211 0.101360835 -0.029746788 0.09870206 -0.035684213 0.1368216 -0.3074097 0.17793049 0.06800683 -0.048076533 -0.0677476 -0.10212 -0.11697593 0.025467832 0.053630363 0.011700449 0.26340175 -0.08991819 0.03591274 0.048362684 -0.101416975 -0.01718768 0.13348345 0.0536376 -0.0020327908 -0.07421558 -0.14793006 -0.076654874 0.05700332 -0.046510376 0.087723374 0.2680261 0.0025387711 0.16418634
129 0.09120121 0.14460474 -0.017998494 -0.09496557 -0.20615967 0.042251006 -0.04403643 -0.037253235 0.16867585 0.02551754 -0.19916452 -0.012011307 0.70559263 -0.46361467 -0.40400773 0.17917112 -0.009294903 -0.3462188 -0.37696147 0.2513975 -0.033482578 -0.019608118 0.1402563 0.012321365 -0.1284873 -0.13895077 0.12423908 0.1778248 0.07386209 -0.21724409 -0.13776416 0.076362744 0.078318104 -0.12083397 -0.03419422 0.0123879 0.27132824 -0.2152592 0.30371174 -0.1325194 -0.10838407 -0.054466855 0.043046743 -0.17441355 0.15459818 0.09021872 -0.10283275 0.15845647 0.17224833 -0.3743903 0.21469396 -0.3806099 0.15590684 0.034177575 -0.3327657 0.20009317 -0.08801861 -0.0005382666 -0.37861726 -0.024158342 0.024555955 0.028141337 -0.34576973 -0.14081791
195 -0.0012025642 -0.20227133 -0.05365169 0.06779566 0.0070534097 0.010230824 0.00046195887 -0.10705232 0.0036758468 -0.005871476 -0.18984891 -0.08482786 0.41912082 -0.35734266 -0.31978604 0.4690328 -0.21232018 -0.09432271 -0.48489285 0.50615686 -0.06487908 0.008974822 -0.005893263 -0.19240597 0.033915367 -0.27185538 0.13522536 0.074312314 0.07788537 -0.1942589 -0.121875696 -0.0061225994 -0.081377015 0.06513919 -0.026342923 0.122187994 -0.27748716 0.118565634 -0.05131621 0.008777713 0.06432972 -0.08222962 -0.12127987 0.02848245 0.043100107 0.033297017 0.21727322 -0.07872888 -0.038613703 -0.01844118 -0.1521744 -0.028439458 0.08424119 0.017647833 0.14258304 -0.23109464 -0.0113581475 0.07553798 0.008441837 -0.17955923 0.10375831 0.057875004 0.13267262 0.19743477
159 -0.14722376 0.022742579 -0.0047712624 -0.03459339 -0.22411616 -0.0021974742 -0.116113104 -0.10359908 -0.08078048 -0.12611005 -0.047562223 -0.030463617 0.65404016 -0.48038644 -0.42233253 0.36087516 -0.0006567307 -0.23286808 -0.3391965 0.24306023 -0.010934256 -0.020765945 -0.06152567 -0.1853446 0.16649184 0.17431998 0.1082062 -0.08916533 0.08787748 -0.12842576 0.12634559 -0.08040996 0.01980787 0.01939087 -0.042467326 -0.17630304 -0.05193431 0.15737551 -0.18440549 -0.011847678 0.051977232 -0.13661857 -0.18351439 0.0020981845 -0.20411618 0.0103407325 -0.23979102 0.09578413 -0.08030855 0.28121608 -0.12901852 0.08853908 -0.047883287 -0.007251881 0.27742478 -0.2861572 0.32974455 0.11649052 0.011159052 -0.45814213 -0.29936644 -0.012938903 0.20011231 0.13018225
104 0.024636643 -0.07130048 -0.043241877 -0.07235237 -0.03904276 -0.09463478 0.057833895 -0.08382343 -0.0075534713 -0.12437994 -0.18606578 0.1522817 0.61680174 -0.46482128 -0.5382064 0.26646888 -0.100113265 -0.1674044 -0.3325113 0.34572384 -0.13205424 0.14398922 -0.09379251 -0.115225986 0.18331815 -0.13794133 0.12675409 0.005126712 0.002639043 -0.16731536 -0.06610213 -0.1664944 0.11238638 0.051611863 -0.0868848 -0.033525795 -0.102529615 0.23758863 -0.13906313 0.04365527 -0.0032357797 -0.19497506 -0.10217225 -0.043347657 -0.10703089 -0.0014576667 -0.07730251 0.0075449906 0.16418691 0.33232802 -0.017472066 0.046494253 0.13402423 0.057005994 0.3914627 -0.2953271 0.38963512 0.2065534 0.13974054 -0.39176533 -0.14763246 0.020141425 0.17534778 0.15725078
157 -0.019350162 0.21239841 -0.02637733 -0.12551178 -0.15254402 0.088083565 -0.20672089 -0.010333863 0.081743516 -0.039751973 -0.084631994 -0.00118424 0.6488593 -0.37887612 -0.4267919 0.25084308 -0.05471294 -0.17999937 -0.4388757 0.26032832 0.08543409 -0.107572 -0.094910815 0.09292612 0.00052622665 -0.017328305 0.19865943 0.18191393 0.21746416 -0.1357818 -0.09968798 0.061210293 0.06928527 -0.054773755 -0.027920544 -0.048881516 0.37206474 -0.067924164 0.20441285 0.1937286 -0.035737857 -0.067374736 0.11006519 -0.03154183 0.16686474 -0.014696114 -0.120856486 0.029505052 0.28541443 -0.19116907 0.14954026 -0.21108405 0.17548428 -0.16776365 -0.14051062 0.13199173 0.040854797 -0.06940679 -0.42790976 0.32540017 0.17473263 -0.18373421 -0.23914936 -0.28614432
182 -0.0078073028 0.2345458 -0.049221758 -0.024251644 -0.27726543 0.032427 -0.12386917 0.045015734 0.19743013 -0.089728616 -0.19699995 0.10406773 0.7220255 -0.5572757 -0.45352414 0.21187483 0.024456898 -0.27818543 -0.32887208 0.21788497 -0.14542075 0.01091332 0.033682983 -0.073743895 -0.08357072 -0.11089767 0.11707385 0.14456065 0.12391126 -0.22780658 -0.027419036 0.054971907 0.0565865 -0.07964913 -0.14180665 -0.09562945 0.31846756 -0.18090452 0.23266943 -0.05495264 -0.18366563 0.00894151 0.10389427 -0.1837397 0.19987069 0.071689144 -0.06833174 0.10894404 0.038689375 -0.33779323 0.22478758 -0.4477533 0.14717157 -0.007854175 -0.31667495 0.1627616 -0.082338005 0.037807312 -0.5814787 0.11031525 0.112185 -0.010834592 -0.3096328 -0.1855365
167 0.15507457 -0.009928231 0.008596228 -0.017822022 -0.112314396 0.009783136 -0.18690695 0.0025738203 -0.14714284 0.024367562 0.09478504 -0.036596354 0.59480196 -0.2260639 -0.083943136 0.4758006 -0.12555352 -0.5120832 -0.32949883 0.30602783 -0.29989058 0.014511255 -0.005620466 0.0034911982 0.036838487 0.04233217 0.10089795 0.03844962 -0.032131113 0.1641065 -0.042245716 -0.21328796 0.00083551684 -0.049369436 -0.06558617 -0.010117743 0.16899872 -0.07255019 -0.16022784 0.076799564 0.0027493949 -0.20572546 0.10636117 0.1619279 -0.07569034 0.20298539 -0.338408 -0.06871342 0.0012388278 0.051087316 0.07001046 0.2518076 -0.14060472 0.014808346 0.01944553 0.014908758 -0.065685876 -0.024190918 -0.012324809 -0.08126878 0.0377407 -0.03990646 0.13352528 0.0175639
186 0.01177779 -0.0044496194 -0.026691673 -0.041353058 -0.08111305 -0.050362322 0.1046419 -0.0181125 0.08837327 -0.18024017 -0.19708209 0.06531741 0.6303988 -0.439855 -0.46327943 0.3264097 -0.06165772 -0.04664039 -0.42876577 0.2916171 -0.04079632 0.06794073 -0.023293257 -0.07964218 0.24942644 -0.21233784 0.09703106 -0.052177466 -0.031336796 -0.19436426 0.030748283 -0.16700777 -0.1841838 0.07810004 -0.14923783 0.007922079 -0.1431399 0.26570827 -0.23543538 -0.03669071 0.0028820648 -0.17266937 -0.048835814 -0.019505225 -0.23999703 0.027195537 -0.118261866 -0.020384992 0.0773184 0.1562509 0.029627709 0.08928635 0.15995464 0.021237874 0.3801633 -0.34265265 0.24460115 0.13064769 0.17798936 -0.31598035 -0.008924089 0.1685392 0.14167254 0.2588837
132 -0.022455003 0.115935326 -0.034045648 -0.14018309 -0.12281952 -0.02862877 -0.11012304 -0.029438816 0.21058396 -0.0290254 -0.178275 0.14182769 0.78659546 -0.3213771 -0.34765944 0.115650415 -0.20107423 -0.29625475 -0.3124381 0.25731498 0.012831925 -0.0828159 0.09002454 0.012591194 -0.077166416 -0.18174285 0.19972537 0.30961788 0.13335653 -0.16013682 -0.14868823 0.06080612 0.04547958 -0.047477994 -0.16067019 0.025101554 0.27421397 -0.16045052 0.3797974 -0.18017365 -0.16082327 -0.0012765485 -0.07745112 -0.16855243 0.084805414 0.03420227 -0.03755538 0.19932553 0.10934414 -0.3107041 0.17059547 -0.3914282 0.092507884 0.018539462 -0.33685234 0.1997463 0.0025374787 -0.041307032 -0.25623178 0.014721333 -0.03383285 -0.06567188 -0.26645914 -0.101962015
103 -0.08591066 0.07254131 0.05937695 -0.1165129 -0.09499072 -0.060491517 -0.12097324 -0.106029935 0.07758971 -0.135222 -0.119165376 0.0040922826 0.6297144 -0.4917377 -0.4538737 0.3826475 0.10443164 -0.25544217 -0.33159053 0.28500417 -0.081463866 0.0002572069 -0.0995074 -0.1866149 0.17538773 0.09264535 0.10562996 -0.0024197318 0.1217286 -0.006453149 0.030732054 -0.14984772 0.075225644 -0.041074894 -0.017096402 -0.13784277 -0.24523336 0.1627785 -0.229901 0.084671184 0.16556309 -0.12434019 -0.08832013 -0.048091687 -0.230285 0.14755833 -0.2279848 0.23340274 0.042388286 0.25179356 -0.1959197 0.04410268 0.027116407 -0.021750975 0.36265993 -0.080502264 0.34441057 0.22223654 0.1266108 -0.40055028 -0.25356787 0.216117 0.15851794 0.015835384
38 -0.0015922108 0.010752321 0.0044752136 -0.11164588 -0.10644924 -0.025330253 -0.15321143 -0.13763691 0.10191977 -0.0046794084 0.0045785196 -0.022927646 0.6987148 -0.39807394 -0.42353958 0.37385067 0.06140723 -0.28081545 -0.34967294 0.35409784 0.00284591 -0.057337932 -0.10112572 -0.11643813 0.18128529 0.19078559 0.14830978 -0.06058442 0.07878884 -0.023260215 0.17439078 -0.102586195 0.006755482 -0.045451887 0.0030858323 -0.24508685 -0.2676884 0.081405506 -0.1903604 0.02630878 0.18693581 -0.115690395 -0.029109856 -0.09589578 -0.18899311 0.029119214 -0.32912266 0.124265656 -0.07466587 0.36542785 -0.21628726 0.07319375 0.10415117 -0.03683251 0.28237692 -0.1944302 0.27689254 0.22670741 0.018141381 -0.34609705 -0.35419604 0.057558626 0.11375124 0.10303074
70 -0.075498685 0.2989833 -0.015314822 -0.11567246 -0.30894482 0.034962207 -0.088325046 0.028813556 0.27497825 -0.16767332 -0.12052861 -0.012436582 0.7619978 -0.48791423 -0.5372478 0.16442208 -0.019845158 -0.16014022 -0.4233367 0.10744225 -0.06021982 0.0037704953 0.123354435 -0.16921937 -0.08475932 0.059194177 0.011906065 0.20176807 0.12193694 -0.21562028 -0.13762116 -0.17869215 0.08224486 -0.02624537 -0.031299 0.11422553 0.25504068 -0.14044912 0.18496227 -0.064276956 -0.26437783 -0.07112237 0.13629551 -0.13799752 0.25399196 0.014278819 -0.08937897 0.011521771 0.103492536 -0.33002117 0.27348018 -0.40777493 0.17103961 0.1483553 -0.29818565 0.19447099 -0.021198148 -0.14981945 -0.531255 0.05671037 0.18818548 -0.001014215 -0.2930192 -0.26451874
54 -0.120511614 -0.043275416 -0.120984495 -0.09567841 -0.19741872 -0.13277611 0.012139948 -0.035266954 -0.06569082 -0.17223583 -0.16073504 0.045954198 0.7324536 -0.5297376 -0.7442196 0.30041957 0.05276157 -0.21274115 -0.29967257 0.16525099 -0.029634368 0.13379963 -0.005224355 -0.09561089 0.119678564 -0.049099587 0.18855484 0.05119165 0.17981124 -0.14391762 0.11939181 -0.15263818 0.06718164 -0.019849468 -0.14346045 0.027850773 -0.049502674 0.18648537 -0.27655858 -0.053040944 0.05359027 -0.07278321 -0.16926393 0.044962987 -0.19802237 0.07974555 -0.17596506 -0.0010368999 0.17562577 0.3370309 -0.10364346 0.13630885 0.014968532 -0.15554924 0.5128125 -0.22363584 0.28358948 0.2218863 0.19375232 -0.39511442 -0.20017092 0.19416328 0.192577 0.24935097
133 -0.015109987 0.4058361 -0.04701011 0.051903166 -0.17410456 0.07824155 -0.20381404 -0.13655137 0.21869765 -0.007950918 -0.2873865 0.101513684 0.68358076 -0.4604981 -0.60881203 0.3029155 -0.02958256 -0.20754567 -0.32460868 0.25092214 0.06585798 0.05875673 0.059184372 -0.18459663 -0.11252225 0.039121058 0.034677286 0.09579013 0.17729527 -0.12145951 -0.051094133 -0.041133303 0.14806208 0.00055841706 -0.04665391 -0.007398327 0.36184636 -0.09698653 0.26522103 0.01634924 -0.11695072 -0.110476255 0.13764276 -0.13705572 0.102667086 0.05672647 -0.11423041 0.046839602 0.13567583 -0.39939612 0.25066313 -0.3156346 0.065165825 -0.10677872 -0.3265286 0.20758638 0.041098084 -0.008038681 -0.49580866 0.17895864 0.27117988 -0.15631567 -0.3506696 -0.1889803
164 -0.02030172 0.07869741 -0.06302891 0.042802185 -0.014317893 0.07050472 -0.017805535 -0.06190962 0.16945858 0.04517146 -0.24776739 0.07940163 0.7720639 -0.35535473 -0.21310061 0.19017659 -0.31589687 -0.33638313 -0.4137187 0.24398917 0.11409669 -0.11982903 0.059528627 0.05863537 -0.08036686 -0.13918798 0.013854461 0.19498876 0.056718368 -0.3112697 -0.07115553 0.13690722 0.07057909 -0.13071993 -0.03669678 0.07716405 0.2789895 -0.1653104 0.23326333 -0.08700249 -0.2167699 0.19304915 -0.1617834 -0.048861474 -0.03857046 0.19047405 -0.02491271 0.17883377 0.025782559 -0.27447397 0.09039672 -0.47763556 0.14213273 0.048171554 -0.28457156 0.26199248 -0.016291646 -0.055277895 -0.25413853 -0.0040559373 -0.10430905 -0.0540781 -0.37527755 -0.086135074
249 0.06875394 0.2224621 -0.058539573 -0.05853017 -0.12790655 0.013147237 -0.090831965 -0.11102761 0.09697103 -0.10391911 -0.1521437 -0.017738968 0.6357012 -0.28440613 -0.2995174 0.41028252 -0.069467984 -0.29279023 -0.27147794 0.3239669 0.0889307 -0.024656756 -0.114709176 0.0045547504 0.1632283 0.012573062 0.13952039 0.08676057 0.21259303 -0.19529481 -0.07211637 -0.02676533 -0.060030624 -0.00014007417 -0.13051108 -0.1692792 0.3850654 -0.13941517 0.025904886 0.1061734 -0.018807566 0.019158559 0.11269979 0.10530928 0.068196625 0.021035235 -0.20811133 0.0008611363 0.38143793 -0.21954675 0.1460693 -0.25580186 0.086256884 -0.17382877 -0.09358446 0.08546177 -0.013524 -0.086374335 -0.30772072 0.3588804 0.20901723 -0.26161513 -0.21218598 -0.24165203
126 -0.043080978 0.35837522 -0.054461315 0.024282204 -0.2625188 -0.012854474 -0.15408878 0.036399577 0.24891376 -0.15182583 -0.21465273 0.042153314 0.6476227 -0.3850493 -0.44180092 0.24002619 -0.028690662 -0.31476954 -0.4235 0.24864678 0.06670212 0.1059952 0.0708034 -0.002687197 0.13093477 0.12279872 -0.019400734 0.14632298 0.11477574 -0.20100127 -0.05056063 0.035849005 0.020864345 0.0103005245 -0.10187257 -0.13776155 0.3925608 -0.080172 0.15904702 0.041537732 0.05280522 -0.16291957 0.07141979 0.0019137092 0.094447255 -0.03261695 -0.11077412 0.01406108 0.19606107 -0.34456727 0.11574456 -0.32602444 0.15363325 -0.18040937 -0.17994691 0.17661685 -0.02466579 -0.06864096 -0.5485433 0.309939 0.2548428 -0.1340295 -0.23960733 -0.17315714
79 -0.0054380693 -0.034971967 -0.053080186 0.01616185 -0.20901774 -0.026988003 0.15384261 -0.12570289 -0.048719056 -0.19842127 -0.19157884 -0.00035432295 0.68303806 -0.6121629 -0.7455043 0.2211519 0.06799128 -0.057413064 -0.37210673 0.27776107 0.0666924 0.21736747 -0.05669979 -0.24033605 0.24097918 -0.13588783 0.11138456 0.070526645 0.08870588 -0.12625061 0.21134928 -0.10140885 0.19749987 0.078152396 -0.10373275 0.029501462 -0.0307227 0.13352336 -0.24604703 -0.074088395 0.029361943 -0.063149355 -0.0876391 0.08614208 -0.17625871 0.098916695 -0.1360541 -0.08648995 0.10754573 0.25235805 -0.016739378 0.013214512 0.1137089 -0.12765746 0.5294016 -0.22447504 0.3649332 0.21680786 0.2734376 -0.29980692 -0.27950755 0.23796603 0.33122241 0.2061828
160 -0.069441356 0.1993867 -0.0032866916 -0.1148998 -0.15941018 0.1545043 -0.21271859 -0.12844405 0.1964764 0.0130725205 -0.15786606 -0.009930687 0.77695495 -0.46361274 -0.52111006 0.06090015 -0.12453209 -0.33519015 -0.4403189 0.13415654 -0.11052837 -0.09576298 0.10516649 -0.15133268 -0.18496302 -0.060683716 0.118807614 0.10168923 0.08944613 -0.22179903 -0.019242 0.035295796 0.12488294 -0.07367819 0.012305491 0.11806648 0.27687857 -0.17723615 0.32949686 -0.084196225 -0.19825178 -0.0477618 -0.035304774 -0.17109065 0.20851739 0.11380179 -0.0102504445 0.15463601 0.13108943 -0.2873298 0.18232968 -0.43766764 0.1465851 0.17961338 -0.21226205 0.2737291 -0.11315742 0.060312122 -0.45356733 0.0849737 0.1648777 -0.03131741 -0.4355793 -0.17182365
166 -0.018701158 -0.036557075 0.018692471 0.06717284 -0.0039170124 -0.02580274 -0.0065657427 -0.08723558 0.11550991 -0.02119754 -0.18007204 0.121337615 0.67127275 -0.22245921 -0.137741 0.38741487 -0.26649165 -0.22081439 -0.4716251 0.27679735 0.04095323 -0.11069983 0.18949622 -0.054080352 0.03498936 -0.07344682 0.022762 0.14150275 0.036181487 -0.1076484 -0.0026733566 0.16246037 -0.110145755 -0.059388764 0.037513655 0.16041017 0.13151349 -0.08455698 0.29577863 -0.15784474 -0.35757458 0.020738058 -0.1774495 0.016596414 -0.048172273 0.041466974 0.18157017 0.17735171 0.06298917 -0.18530656 0.13221544 -0.028147748 0.21993467 -0.0775132 -0.3549776 0.2307723 0.035314158 -0.016020516 -0.06970865 0.002645567 -0.19375393 0.08343703 -0.25364423 -0.014597033
218 -0.00045735366 0.036312506 0.039107125 0.028922813 -0.19613804 0.17656095 -0.18508965 -0.080055796 0.059371892 0.042168975 -0.0070611984 -0.03451277 0.60623366 -0.31855854 -0.060813133 0.4205048 -0.091065206 -0.30153677 -0.39561152 0.4280648 -0.035146978 0.035766475 -0.06302464 -0.020760586 0.10732288 0.18085311 0.06897849 0.11007082 0.028913187 0.28765926 -0.13035728 -0.28008974 0.15529682 -0.027133873 -0.015561795 -0.13324413 0.17764764 0.06922691 -0.10172616 0.11696726 0.02578059 -0.045418058 0.11436493 0.023996178 -0.20211385 0.14257084 -0.21504657 0.019896917 -0.16807126 0.052897036 0.05143705 0.19471423 -0.24775581 0.037275072 0.15207343 -0.16897602 -0.0051232167 0.047760896 -0.07444867 -0.21666686 -0.07253373 -0.0017977665 0.2381126 -0.032270018
111 0.06875862 0.3400098 0.08233229 -0.18114913 -0.18512097 0.022477545 -0.06926042 -0.025549803 0.20106126 -0.12734595 -0.15365972 -0.07450676 0.5839793 -0.25754473 -0.26500705 0.35006735 -0.08430201 -0.37582862 -0.36428925 0.30420187 0.08006068 -0.0017054818 -0.052192543 -0.12500723 0.19080223 0.1197763 0.15902239 0.07414941 0.03234394 -0.19088732 -0.12599024 0.023860408 0.06664965 0.025417434 -0.09283818 -0.03214499 0.29970935 -0.16034552 0.029463667 0.11702721 -0.09265236 0.0070902426 0.1116701 0.096982256 0.11978189 -0.004020408 -0.13711151 0.071340695 0.36005017 -0.1954965 0.06793714 -0.081317894 0.12860543 -0.21251634 -0.04317312 0.23138453 0.021631138 -0.08042813 -0.36529353 0.31955263 0.24840955 -0.30865234 -0.18601954 -0.20197156
215 0.067660235 -0.14295979 0.06246678 0.005375027 0.11095818 -0.031221565 -0.026612515 -0.054343123 0.031907044 -0.23735966 -0.14685354 0.13757418 0.5084922 -0.44110024 -0.50249225 0.42689875 0.016081272 -0.078055 -0.38780227 0.4129138 -0.0036763668 0.11250813 0.09631851 -0.08281877 0.15825188 -0.3481764 0.09234938 0.0048933453 0.060804863 -0.24618416 -0.13631098 -0.26408836 -0.054974616 -0.047736917 -0.077844225 0.12008305 -0.12447514 0.15438509 -0.035699993 -0.21922958 0.16751072 -0.0042440835 -0.042517528 0.026780855 -0.08974914 0.09043833 0.075382166 -0.0030428963 0.1289632 0.2561442 0.05999632 0.100370325 0.040464494 0.11319627 0.37100038 -0.2410215 0.17898257 0.24741755 0.044174 -0.3198785 -0.10904203 0.087821804 0.20629482 0.13900413
183 0.048534308 0.21620548 -0.1144232 0.012801963 0.0046541486 0.13044074 -0.08879515 0.058864586 0.1776615 -0.011949615 -0.24059275 -0.023082605 0.72968245 -0.492289 -0.44494197 0.08245484 -0.07015665 -0.41658714 -0.41907218 0.18187545 -0.11887155 -0.06251727 0.05570269 -0.0027865476 -0.21411021 -0.13901788 0.15161806 0.22042237 0.11413666 -0.14410874 -0.12991361 0.03266313 0.008610975 -0.02717923 -0.05925322 0.07013515 0.30716747 -0.17064887 0.24613848 -0.1367199 -0.26050735 0.01714004 0.029712867 -0.09603445 0.14227222 0.05487533 -0.09461622 0.23797014 0.10290232 -0.3653657 0.13641821 -0.582361 0.15847024 0.044130925 -0.291256 0.29854894 -0.058400873 -0.04679949 -0.31465438 0.001644225 0.0427998 0.04100772 -0.27818483 -0.051045172
113 0.14416197 0.123056695 0.00043791995 -0.055232435 -0.2575854 0.25445595 -0.09579828 0.030455854 0.022933768 -0.10570594 0.15811153 -0.07203978 0.58321387 -0.16021682 -0.07101237 0.42450285 -0.114985324 -0.4399635 -0.35557088 0.2824936 -0.15377235 0.015975608 -0.018443365 -0.10630588 0.28467932 -0.034521874 0.16033566 0.05812233 0.052803993 0.034492526 -0.046904758 0.0017515417 0.030454863 -0.054771334 -0.09482886 -0.08023188 0.25530028 -0.21684255 -0.0668167 0.09199592 -0.053334124 0.002302883 0.08005754 0.1873088 0.06848505 0.09811033 -0.12610638 0.011228645 0.20467566 -0.14093831 0.27356854 0.20080926 0.062138226 -0.05113628 0.07348169 0.12980464 0.19515845 -0.029725036 -0.075164534 0.31800902 0.10920593 -0.10134192 -0.05957449 -0.05573389
72 -0.09851018 -0.10120667 -0.10774188 -0.05574679 0.019369004 -0.06492472 0.15127008 -0.20246714 0.057540435 -0.14027742 -0.20687379 -0.02416804 0.73464537 -0.48465025 -0.62805814 0.1364672 -0.00078406604 -0.19270043 -0.41138902 0.2160957 -0.032091483 0.11300456 -0.07949749 -0.21945469 0.08092787 -0.1512276 0.1445935 0.020516142 0.1748771 -0.24616452 0.052949186 -0.1249098 -0.009574149 0.11188466 -0.16820481 0.04891498 -0.107252456 0.19876423 -0.21431255 0.0037188344 0.04762536 -0.17827664 -0.2035885 0.14161445 -0.12998007 0.08355472 -0.14186527 0.09703576 0.12803063 0.21479256 0.018393189 0.14255731 0.13314204 -0.09205381 0.46684036 -0.21401583 0.20847431 0.18779507 0.22129983 -0.4470432 -0.10648906 0.17180881 0.27773347 0.21776028
68 0.00492385 0.3451811 -0.1543787 -0.08212745 -0.18784069 0.07086657 -0.20113985 -0.09670695 0.2426742 -0.091144554 -0.1879613 -0.070133746 0.7982876 -0.5323409 -0.6012726 0.19741307 -0.075190976 -0.32667089 -0.2895066 0.11146699 -0.08517699 -0.09184693 -0.0047555794 -0.15795988 -0.13392708 -0.11070608 0.011596827 0.09423878 0.094834246 -0.25600964 -0.060852844 0.047651436 0.09334786 -0.16612439 -0.124542825 0.02030301 0.31480944 -0.15323953 0.31091127 -0.11133364 -0.11271991 -0.0984388 0.17580466 -0.07149732 0.22490607 0.0593111 -0.08393582 -0.01877991 -0.04940168 -0.4194244 0.19038264 -0.2916547 0.25128895 0.0649416 -0.33824453 0.175107 -0.01861336 -0.052714333 -0.5601169 0.13792087 0.273542 0.0052659255 -0.34555063 -0.11699478
121 0.00067910965 0.22775498 -0.16290261 -0.03727184 -0.13687621 0.08650155 -0.11218579 -0.17112973 0.17851402 -0.07215193 -0.24070255 0.078660175 0.8558693 -0.4623466 -0.5940607 0.08560445 -0.11434208 -0.32183173 -0.2941976 0.11974137 -0.121425636 -0.029530765 0.009243785 -0.065949045 -0.06885295 -0.16421156 0.076745905 0.18892111 0.13649702 -0.2084541 -0.09933992 -0.032527816 0.08616906 -0.025274772 0.046104915 0.053339988 0.26341757 -0.1956328 0.34634122 -0.0911644 -0.05561155 -0.098743275 0.109562956 -0.15370959 0.42797852 0.06582549 -0.13993514 0.173027 -0.02395052 -0.3801038 0.27309564 -0.35109568 0.14012225 0.031340364 -0.31668505 0.12252678 -0.0632656 -0.03956003 -0.5254011 0.103644095 0.19758904 -0.039694145 -0.38002184 -0.12938097
208 -0.024347914 -0.18458955 0.036456916 -0.02664264 -0.05081252 -0.037448116 0.097368896 0.008422709 -0.05445971 0.04884298 -0.2150636 -0.07970651 0.60193056 -0.26011613 -0.09705414 0.55604327 -0.18372539 -0.13402146 -0.45166004 0.49478996 0.050692722 0.020118633 -0.11769143 -0.041795883 -0.07187571 -0.13139623 -0.04021073 0.12543124 -0.005152006 -0.18922776 -0.012449823 0.201239 0.06305635 0.11039872 0.15799299 0.12525754 -0.024130752 -0.010516561 0.10080282 -0.19907762 -0.19517064 0.019684697 -0.20706376 -0.18480264 0.1064544 -0.043086275 0.19523925 0.11837818 -0.11501277 -0.060713667 0.05500064 -0.19283994 0.050053045 -0.15236086 -0.06907851 0.0019432723 0.005621957 -0.12955342 0.11542059 0.13580418 0.08701627 0.32456976 -0.1047273 0.12760952
216 0.034725763 0.07130054 0.040186968 0.059039153 -0.15504333 0.08469962 -0.18136334 0.017678116 0.08784954 0.05261816 0.071519345 -0.1452727 0.6486954 -0.47672862 -0.16359745 0.384287 0.03554014 -0.41119754 -0.3479835 0.42582542 -0.027901296 -0.15372624 -0.17890672 0.034548555 0.15437238 0.18011248 0.023937361 -0.08186734 -0.041455034 0.030232646 0.016629769 -0.087258816 0.016822092 -0.16768548 0.069351755 -0.14329213 -0.079532824 0.13528048 -0.11597933 -0.07772796 0.13296871 -0.1937598 0.024235299 -0.060965303 -0.24347423 -0.016507702 -0.39535466 -0.026703795 -0.2174083 0.20182434 -0.045054145 0.14113985 -0.1308886 -0.052711874 0.26451418 -0.16599017 0.16950214 0.0029662745 0.010014652 -0.35801917 -0.20319434 0.028273491 0.19419959 -0.0720404
147 -0.058926467 0.016050246 -0.017903792 -0.05900026 -0.16781387 -0.07996966 -0.18556185 -0.11298678 -0.025628816 -0.0072385594 -0.16660728 0.13528125 0.6938754 -0.5074148 -0.5097891 0.2871179 0.13368627 -0.27113268 -0.38382033 0.2693192 0.019667158 0.102274016 -0.1579038 -0.1872342 0.287795 -0.01865411 0.09942117 0.028916111 0.1721056 -0.0015310149 0.1670813 -0.0065937997 0.12618381 0.024405006 0.0609195 -0.2534406 -0.1424897 0.08822283 -0.27286962 -0.030899316 0.14755996 -0.06701937 -0.20788573 -0.0803581 -0.18911691 0.06755409 -0.20471482 0.13720274 0.013045955 0.33844367 -0.17051654 0.042329904 0.04345563 -0.031213123 0.49021637 -0.26173574 0.2239553 0.16782646 0.10767544 -0.3787908 -0.43149078 0.058248498 0.09596285 0.08564254
168 0.08723069 0.099186614 -0.08086571 0.021297319 -0.24703616 0.14976504 -0.20183884 -0.11882327 -0.11289315 -0.10985685 -0.07073308 -0.05864663 0.54979944 -0.07799067 -0.13827598 0.41061348 -0.15577687 -0.5089383 -0.29529536 0.37268466 -0.1021539 0.04612765 -0.095449485 -0.091917075 0.21979356 0.0075173103 0.17321266 0.19674578 0.052429073 0.3079647 -0.041429363 -0.034678467 -0.00657373 -0.14747718 -0.07939522 -0.07515888 0.29706103 -0.1439848 -0.20313793 0.114836514 -0.1174206 -0.047774747 0.08807581 0.21826167 -0.04136748 0.23923318 -0.20165157 -0.09199766 -0.00019836452 0.045948714 0.12469179 0.17066734 -0.11755408 0.04953108 -0.020384097 -0.08879825 -0.0335258 0.020969108 -0.0122327125 0.07120246 0.040080573 -0.098691106 -0.005111047 -0.08098112
44 0.035198264 -0.15737358 -0.08018174 0.025241965 -0.008968314 0.037885122 0.031064386 0.07462829 -0.082477406 -0.028007597 -0.17291355 -0.032393623 0.43190715 -0.33239964 -0.3771558 0.47370175 -0.2745436 -0.017703103 -0.5182843 0.5117394 0.034574073 -0.15598367 0.027510894 -0.22225578 -0.05021822 -0.098383166 0.07321591 0.05134743 0.12394468 -0.03829382 -0.21845064 -0.023979682 -0.08622653 0.017340973 -0.032033782 0.10731493 -0.25381428 0.15143253 0.035858337 -0.11176888 0.07389061 -0.11186866 -0.21406525 -0.050541583 0.11569678 -0.04101832 0.30519217 -0.050243646 0.09526651 0.07623494 -0.08354801 -0.104541704 0.011668897 0.10760159 0.12683484 -0.24163164 -0.052536976 0.105482295 0.06302689 -0.035410818 0.03833359 0.18891262 0.13411818 0.16124669
177 -0.049824327 -0.17372093 -0.0052873306 -0.05708101 -0.056058567 -0.06395503 0.02286675 0.046527367 0.06588638 0.06151442 -0.016134478 0.006117925 0.63727087 -0.31454045 -0.14476624 0.67931026 -0.15668993 0.004919743 -0.36815298 0.43790174 0.0800391 0.01207354 0.0935248 -0.14879829 -0.13666244 -0.09463356 0.15732571 0.106828734 0.10159075 -0.06667397 -0.05842192 0.08589426 0.025855312 0.16453646 0.16611631 0.0115426 -0.1624167 0.029324876 0.13446738 -0.19250146 -0.2180461 -0.044986896 -0.13856806 -0.053702883 0.17110468 -0.018305121 0.36178014 -0.00877666 -0.09892106 0.040464982 0.017684447 -0.22392298 0.06768114 -0.17553678 -0.055404514 -0.05218727 -0.14415143 -0.08871528 0.1363417 0.058016174 0.06696499 0.16497742 -0.09953406 0.15074638
120 -0.04394852 0.03365362 0.033982106 -0.16436689 -0.12171332 -0.06404788 0.033933632 -0.027129527 -0.0024551204 -0.05237905 -0.13397695 0.118872926 0.6733515 -0.5451599 -0.757887 0.21756466 0.09605337 -0.25049043 -0.36345574 0.22176394 -0.0876324 0.04833498 -0.06253748 -0.3018386 0.261379 0.07847246 0.1280524 0.07103822 0.07497566 0.01653889 0.22798452 0.028075168 0.16945209 0.1313253 -0.10131873 -0.095715344 -0.04770101 0.13074055 -0.21421528 -0.046772983 0.12956491 -0.13007736 -0.1214747 -0.03478011 -0.16576123 -0.0109545635 -0.28007326 0.17438518 0.16347785 0.3172919 -0.17131765 0.13366619 0.046516277 -0.0869739 0.46322414 -0.21418995 0.21167858 0.17311314 0.1580104 -0.42486745 -0.36571437 0.24749428 0.17835283 0.28262547
22 -0.12874775 -0.08590233 0.0384145 -0.034240082 -0.18466143 -0.011880411 -0.08064008 -0.061636858 -0.06742109 -0.07431563 0.06083121 0.015850004 0.664904 -0.4598934 -0.5674561 0.3398868 0.14557624 -0.27302527 -0.40259612 0.21167095 -0.17738266 -0.05866948 -0.018669173 -0.073679656 0.33369786 0.19109541 0.13410544 0.122016676 0.097308934 -0.05222591 0.124739625 0.0076825195 0.08093768 0.064490676 0.0035153907 -0.13456471 -0.17558259 0.10969531 -0.19356285 -0.018609041 0.19494265 -0.22862561 -0.19025908 -0.03153093 -0.12344801 -0.040982664 -0.30975547 0.09683653 0.046507493 0.3547238 -0.21595247 0.023501344 -0.13196175 -0.034606118 0.41245133 -0.16629224 0.33289638 0.2170504 0.083811976 -0.39226776 -0.3691337 0.044441745 0.024265792 -0.0027089668
138 0.18928006 0.11064966 0.14962468 -0.01121479 -0.20805152 -0.0183315 -0.108537756 0.091257975 -0.10000861 -0.035586007 0.10165744 -0.009437319 0.6728849 -0.22533311 -0.060227424 0.310691 -0.10249724 -0.46325234 -0.39673236 0.3677367 -0.074314564 -0.18642405 -0.10524484 0.016584707 0.08599639 0.18031535 0.19534025 0.18142419 -0.06408909 0.14757246 -0.092379846 -0.21255827 0.048331697 -0.11258032 0.061573673 -0.1719295 0.11531707 0.030097177 -0.21056792 0.16484603 0.0410531 -0.12529194 0.15602507 0.1923813 -0.18296464 0.10779948 -0.16847254 -0.12965512 -0.12136838 -0.008538677 0.08140785 0.11403808 -0.25372425 0.09564469 0.14175743 -0.17878291 0.049508423 0.109995395 -0.019774998 -0.071747534 -0.011693175 0.09017778 0.0820682 0.06539602
41 -0.03934037 -0.03437662 0.09560496 0.07609597 0.015096412 -0.075138204 -0.015567848 -0.018087314 0.04336171 -0.028752184 -0.19889127 -0.04905619 0.48469406 -0.36919597 -0.18349193 0.64235353 -0.25917682 -0.16887806 -0.3415873 0.4799695 -0.027093917 -0.10310324 -0.050688643 -0.036853608 -0.08163679 -0.15573592 0.041030727 0.1202852 0.14070293 -0.13371567 -0.008362957 0.24623255 0.020234326 0.14419788 0.053378504 0.04832813 -0.23777172 0.062043175 0.17668821 -0.27841598 -0.13940074 -0.05713699 -0.38452208 0.11798861 0.19932978 0.068914965 0.20521036 -0.03325391 0.024387447 -0.074426 -0.09110407 -0.011136393 0.020019848 -0.04490722 -0.042859364 -0.08100894 -0.12184227 -0.08466275 0.03980859 0.016724965 0.09983822 0.3620759 -0.0045524603 0.18318473
206 -0.009793627 0.4478751 0.053502742 -0.16304503 -0.13611585 0.0007489459 -0.1275826 -0.13956055 0.18087026 0.070110954 -0.095534526 0.031646628 0.7627414 -0.44198963 -0.5465592 0.2545363 -0.015524929 -0.27315664 -0.31227493 0.12074844 0.06471321 0.068578 0.017170973 -0.16174984 0.17755517 0.0038824882 0.06042863 0.17808944 0.11486122 -0.28755692 -0.09486206 -0.084446676 0.14495617 -0.025108263 -0.12690866 -0.083944514 0.39026293 -0.061680738 0.17060953 -0.011824917 0.055790547 -0.05602284 0.062681876 -0.028521316 0.032094877 -0.13854967 0.0044263946 0.016322419 0.13958912 -0.28781524 0.14259428 -0.3323815 0.037911076 -0.06817444 -0.31886163 0.09541698 0.032259025 -0.11368755 -0.59100497 0.15134422 0.41990465 -0.09203222 -0.3890614 -0.24890557
77 0.08232638 -0.0010631821 -0.075695366 -0.04525375 -0.104523666 0.06468071 -0.090500735 -0.03525933 0.22479755 -0.10807701 -0.24307892 -0.008577741 0.6887296 -0.37572044 -0.38902938 0.1646665 -0.197212 -0.24855138 -0.5242685 0.1830051 -0.048420034 -0.12554616 0.08828914 -0.051586308 -0.095246546 -0.1947579 0.19170299 0.14935985 0.059298962 -0.043600425 -0.016835524 0.078487426 0.05038994 -0.049683206 -0.098042265 0.040998146 0.20830026 -0.19661675 0.20461199 -0.20608035 -0.24670815 0.0049652597 -0.053494163 -0.30734965 0.04402581 0.08115548 -0.108986095 0.19304502 0.046730675 -0.35359183 0.2022236 -0.3733307 0.11930335 0.0077982508 -0.38129315 0.32128602 -0.062135667 0.007906426 -0.29956937 -0.038432635 0.001540722 0.0121718645 -0.45972714 -0.084505685
176 -0.23870844 -0.20949562 0.13789608 0.11918293 0.08032369 -0.032567166 0.068493515 -0.017980233 -0.028689025 0.0048316945 -0.14143929 -0.12001314 0.4616813 -0.26106548 -0.3363901 0.5888954 -0.28794885 -0.10485402 -0.4199457 0.50488406 -0.025758527 -0.08674305 0.09288091 -0.09697614 0.09028707 -0.07327234 0.19218002 0.08602435 0.16327335 -0.08830783 -0.09539902 0.056067806 -0.0414305 0.13462698 0.06729248 0.11684564 -0.19581504 0.16254146 0.09888471 -0.122287534 -0.050658617 -0.07444206 -0.2739058 -0.09231191 0.13720678 -0.048340846 0.2916536 -0.1362053 -0.0091597345 -0.07146902 0.012798115 -0.06626228 0.092085205 -0.038817436 0.072357595 -0.08959931 -0.2107619 -0.024745751 0.121115156 0.031929247 0.018475004 0.2131835 0.027265703 0.14843711
74 -0.025710698 -0.092927165 0.027277602 -0.07948672 -0.20474534 -0.008132287 -0.10620496 -0.058186084 -0.06737215 -0.11680603 -0.18053885 0.038624242 0.77628297 -0.59563786 -0.7659894 0.09978764 -0.011560126 -0.3162071 -0.36065963 0.093395725 0.06806739 0.058688942 -0.15682691 -0.17991379 0.2798873 -0.09266023 -0.0050598723 0.120638944 0.07702049 -0.17244563 0.1835675 -0.05696463 0.1862241 0.100664094 -0.12833288 -0.041538093 -0.014464508 0.28797475 -0.38394636 -0.084420286 0.06351919 -0.12696528 -0.17967455 -0.015775621 -0.14879185 0.13922893 -0.18395092 0.06403396 0.20041743 0.26676095 -0.13851987 0.105497904 0.07213432 -0.18470228 0.5744755 -0.052325048 0.20926489 0.11400326 0.27503806 -0.43674466 -0.2968357 0.16528116 0.16830343 0.3652124
29 0.036390014 -0.11925457 -0.089578755 0.004236991 -0.07639658 0.05111035 0.17183562 -0.022780897 -0.006300269 -0.18495214 -0.34446785 0.09426457 0.7272003 -0.63229936 -0.8451603 0.14608943 -0.0855844 -0.2506525 -0.37582728 0.12599827 -0.0320225 0.14760014 -0.016124185 -0.2301801 0.20996854 -0.08361047 0.14817372 0.15507701 0.10036763 -0.25194186 0.14303946 -0.052679416 0.08721313 0.021000894 -0.27350155 0.10976449 -0.08178216 0.12827821 -0.2549954 -0.14890558 -0.09006014 -0.12839866 -0.14696148 0.11758935 -0.14215106 0.0435846 -0.12612085 0.06426461 0.16216287 0.48358542 0.113807656 0.16813044 0.11317881 -0.22321373 0.6742046 -0.19298147 0.17251706 0.18238388 0.15426116 -0.33094358 -0.2552705 0.23467167 0.3099215 0.19632468
144 -0.13448985 0.2894893 -0.089681216 -0.061910797 -0.23816462 0.08058297 -0.066122495 0.028043527 0.10182219 -0.11364407 -0.2401413 0.08639732 0.881191 -0.57964206 -0.59520984 0.12834504 0.023139467 -0.27402553 -0.2964595 0.17497194 -0.09977296 -0.026340779 0.14183398 -0.18212855 -0.040479403 -0.10955149 -0.09330509 0.04094098 0.096928895 -0.25645238 -0.081605956 -0.030715186 0.21957672 -0.14164911 -0.024702918 -0.061851643 0.43297958 -0.17123072 0.2522712 0.009704717 -0.09548673 -0.23901886 0.13443363 -0.17725974 0.39551294 0.14865622 -0.08204529 0.039138976 -0.070113085 -0.4126245 0.100394554 -0.30626544 0.17077042 0.15290734 -0.30496508 0.22422019 -0.08839566 -0.101158135 -0.4820165 0.09711613 0.3120118 -0.022631757 -0.45121795 -0.13523501
33 0.060138673 -0.119783126 -0.06738862 0.0009990075 -0.17105304 -0.013073784 0.034983024 -0.113161854 -0.050031718 -0.22830203 -0.2334327 0.06711032 0.70821774 -0.71309894 -0.8818831 0.16265376 0.059718955 -0.27550718 -0.38217834 0.03376124 0.05925776 0.06775587 -0.058823973 -0.23656462 0.22491467 -0.061026186 0.14592217 0.16352001 0.13813119 -0.19654661 0.123012654 -0.051098954 0.22627117 0.081477754 -0.11024512 0.0012798829 -0.05265462 0.27971217 -0.31331322 -0.038721036 0.030652331 -0.07599059 -0.06336089 0.18743874 -0.22783487 0.12967081 -0.11765213 -0.006794723 0.18630531 0.3850298 -0.041938998 0.17862122 0.09888745 -0.24643162 0.57662284 -0.19724914 0.22907662 0.26342067 0.17276849 -0.248258 -0.37095606 0.32771972 0.19686474 0.17508605
19 -0.09516323 0.25263193 -0.04418815 -0.080968656 -0.08920531 0.08538185 -0.120636925 -0.025861474 0.12283505 -0.060104113 -0.19334932 -0.106470056 0.81889355 -0.52834433 -0.60863435 0.029271046 -0.18033811 -0.33659104 -0.39854255 0.07062538 -0.1808807 -0.058036365 0.12210506 -0.11418189 -0.101064995 0.0785555 0.1317163 0.05036066 0.044501107 -0.2421388 -0.039865687 -0.026365172 0.13972631 -0.16029945 -0.028854923 0.11127241 0.2568845 -0.16234863 0.31549823 -0.094264776 -0.1517016 -0.044369698 0.042266045 -0.13856429 0.29146895 0.20337267 -0.08499078 0.16098538 0.041648068 -0.49692738 0.20385511 -0.5233781 0.17788896 0.12718318 -0.31801027 0.14045997 -0.025858901 -0.08676135 -0.4032375 0.04492772 0.16860372 0.0533683 -0.36851272 -0.13557169
52 0.046221845 -0.09717974 -0.1047954 0.03172182 -0.15445659 0.0041227527 0.168281 -0.0651368 0.030632403 -0.02225362 -0.3926441 0.21385387 0.8033507 -0.53153265 -0.8135685 0.1341716 0.11236354 -0.15612079 -0.39281338 0.23658448 0.1373709 0.056435917 -0.072994225 -0.12307943 0.24962011 -0.08408681 0.107041664 0.09065393 0.04019669 -0.18687779 0.053273655 -0.15594424 0.15954305 0.028285503 -0.2559027 0.13279958 -0.11734093 0.19328181 -0.14659747 -0.20780514 0.027543282 -0.08062786 -0.10684504 0.25176096 -0.10989577 0.10812768 -0.02760902 -0.09738517 0.18110554 0.29478666 -0.012282013 0.14562705 0.12971333 -0.19638388 0.63777053 -0.083877675 0.29707834 0.2540331 0.20587507 -0.32384065 -0.23216422 0.14291489 0.374136 0.26704252
226 0.037307456 0.3125646 0.10626851 -0.054876458 -0.16708758 -0.05436225 -0.16231911 0.057155944 0.09279352 -0.017090853 -0.043069012 -0.0053023957 0.6153103 -0.377155 -0.49306312 0.2470686 0.02236474 -0.2934742 -0.33262274 0.3832906 0.100838006 -0.06274107 -0.009449431 -0.15509832 0.2709411 0.013511011 0.051707413 0.15696824 0.20192626 -0.23973098 -0.043539897 -0.011768679 0.039586753 0.022982804 -0.18957567 -0.1477362 0.40449858 -0.15557854 0.13461427 0.053081878 -0.041239798 -0.07224455 0.138253 -0.012716269 0.034767013 -0.009824841 -0.10529029 -0.0310822 0.2710118 -0.22285208 0.17894234 -0.21791473 0.132644 -0.16740046 -0.16900045 0.07305688 0.046019115 -0.21785945 -0.5340009 0.3689984 0.29234108 -0.17748564 -0.2172846 -0.27000928
57 -0.0062745656 -0.01824454 -0.0978174 0.02541577 -0.002079312 -0.026173584 0.1058695 0.008759023 0.07115307 -0.06738101 -0.20924775 0.104322486 0.643696 -0.5387767 -0.5341607 0.27442276 -0.11842023 0.061461266 -0.50370485 0.19133775 0.04806318 0.15035212 0.031920955 -0.12057123 0.17188834 -0.2370028 0.16802843 0.019035699 0.1813294 -0.21764037 -0.047877274 -0.006706707 -0.010529786 0.015086221 -0.12202722 0.1340347 -0.15179706 0.06817649 -0.22332002 -0.14176692 0.0876847 -0.04410056 -0.12365723 0.12225234 -0.14806275 0.17119989 -0.04425329 -0.04785276 0.20141317 0.23010735 -0.029872032 0.11107174 -0.020974776 0.011291107 0.43736464 -0.27540562 0.17274475 0.115815885 0.093312465 -0.3791107 -0.0060415813 0.12223118 0.35770485 0.27121246
163 0.16986346 0.2730416 0.10517253 0.086985104 -0.118458614 0.053809814 -0.13831772 -0.0402111 0.11277685 -0.15203086 0.012975878 0.024414465 0.6601715 -0.11128451 -0.28011295 0.4254894 0.05999857 -0.28311756 -0.4287556 0.29413193 -0.016313786 0.008922728 -0.18015791 -0.13415138 0.27111593 -0.05117907 0.068380676 0.105360486 0.04355407 0.1198069 -0.05497777 0.0021426023 0.09689464 0.04065376 -0.15412691 -0.22235155 0.21130732 -0.1374014 0.0012245503 0.13541546 -0.04862883 0.035452526 0.08770993 0.18322788 0.041734103 0.13596177 -0.10395088 0.05402227 0.4587357 -0.1791029 0.11372321 -0.06695917 0.12361725 -0.20966248 -0.11546748 0.13816623 0.024309462 -0.11658931 -0.33688664 0.32818875 0.1341815 -0.26615104 -0.12140932 -0.25914377
11 0.16017655 -0.09805827 0.016194038 -0.054096032 -0.008560018 0.009398725 0.05699743 -0.12143685 0.0037357025 -0.1965095 -0.37872592 0.17176501 0.80651546 -0.7095292 -0.8893381 0.043390717 -0.08139492 -0.25426552 -0.39971766 0.11456759 0.16676456 0.059997912 -0.12652338 -0.2822088 0.1267701 0.033520095 0.11325668 0.19570152 0.037671316 -0.19207378 0.20842654 -0.18663646 0.2753971 0.074925 -0.17591505 0.059740644 -0.061894774 0.2208896 -0.28143197 -0.19158891 -0.09115905 -0.035174202 -0.16869591 0.30083835 -0.06587766 -0.09753762 -0.19894145 0.0005725364 0.22154453 0.4099629 -0.054038383 0.17674436 0.13791811 -0.20559362 0.5683695 -0.17480196 0.061317362 0.20539457 0.20170502 -0.31288293 -0.36610273 0.20874152 0.3690923 0.3138856
194 0.028755177 -0.09516581 -0.015179296 0.037975974 -0.22780415 -0.041918285 -0.28441665 -0.15908675 0.093345046 -0.013526055 0.08841023 -0.120613374 0.6870093 -0.36248064 -0.17036803 0.42612258 -0.07678175 -0.41454384 -0.32779524 0.23060918 -0.019961135 -0.16678599 -0.1704029 0.0027501252 0.108751245 0.11625906 0.013425488 0.20716678 0.003923638 0.1592335 -0.05850592 -0.21337219 -0.019471945 -0.1649327 0.14470465 -0.099879 -0.049190193 -0.026529906 -0.18351147 0.05335219 0.16425505 -0.28783697 0.06736638 -0.047297157 -0.23775232 0.09011931 -0.2699684 0.094945736 -0.094690055 0.23506634 -0.010428833 0.13434298 -0.30441806 -0.044825234 0.12613337 -0.14215569 0.14475162 0.11262286 -0.11935545 -0.4028943 -0.21839747 -0.07781975 0.27867755 -0.104651175
140 -0.06983772 -0.09429414 -0.037748482 0.15844317 0.043397665 0.022159643 -0.009029951 -0.024354598 -0.032655198 -0.114432074 -0.15444925 -0.23488012 0.48652747 -0.39774367 -0.24228516 0.57825977 -0.20958921 -0.018933734 -0.4964855 0.4218641 -0.010235199 0.070970654 -0.06983056 -0.12997815 0.02606408 -0.17312235 0.20143828 0.08967063 -0.032806195 -0.28150815 -0.21554373 -0.019287135 0.015968047 0.06875755 0.013590406 0.034321174 -0.33946997 0.12158047 0.04173398 -0.21389072 0.060961198 -0.0067104492 -0.21705022 -0.048703488 0.26909176 -0.027013903 0.26269826 -0.07850155 0.04461645 0.012085489 -0.045079704 -0.050915387 0.13828981 -0.029807847 0.07107548 -0.20415646 -0.18445426 0.10584784 0.044341076 -0.11804158 0.041703958 0.104728654 0.14952129 0.24202907
136 0.08401795 0.10204961 0.105370454 0.049800824 -0.14794806 0.076640956 -0.16723137 -0.09791962 0.0688804 -0.05280239 0.03811552 -0.08117412 0.52339953 -0.3018948 -0.19381148 0.28342018 -0.19320485 -0.58469343 -0.2870366 0.51381797 -0.17993663 -0.029926868 -0.09986541 -0.03170698 0.14694376 0.14535333 0.08943254 0.1541813 -0.06053175 0.23542693 -0.071533814 -0.2688032 0.02449469 -0.10502557 0.07839759 -0.23041484 -0.051225685 -0.10569687 -0.10924725 0.03856504 0.10663225 -0.23140873 0.0883807 -0.030680856 -0.19720167 0.11119492 -0.2585777 0.037260212 -0.0929374 0.09841229 -0.004320698 0.13825107 -0.31441686 -0.114940904 0.09588088 -0.21954566 0.1055716 -0.10497735 0.0380064 -0.30830997 -0.18241169 0.109269805 0.23978585 -0.1472118
49 -0.03569107 -0.026763067 -0.0582703 -0.0072939573 -0.060029857 -0.010125933 0.14085871 -0.081083 0.059860613 -0.25518936 -0.20591192 -0.0054389564 0.6519939 -0.54078114 -0.75947696 0.16732433 -0.10975338 -0.09794411 -0.42040312 0.24536808 -0.014776757 -0.0066543254 -0.024405802 -0.13430224 0.16503884 -0.23648313 0.14526518 0.05476494 0.13497737 -0.07144074 0.12651275 -0.11776199 -0.0005484437 0.013930921 -0.12617181 0.07032491 0.019347567 0.1395423 -0.23379977 -0.32981327 0.07326284 -0.15139267 -0.036658745 0.2649078 -0.1544468 0.033490054 0.07453222 0.07898952 0.16200553 0.22990257 -0.016092654 0.13609423 0.17039233 -0.107576065 0.40840682 -0.28091833 0.2346591 0.18718767 0.2431619 -0.3792121 -0.048396192 0.12955055 0.43575966 0.33629918
148 -0.1594878 0.4852984 0.0026187208 -0.09273379 -0.1796437 -0.0044555035 -0.19931439 -0.0679593 0.18703872 -0.046325248 -0.24022134 0.078285925 0.79856235 -0.45603472 -0.64506066 0.13903701 0.049717452 -0.19069265 -0.43690917 0.2068003 0.013010216 0.09474689 0.06973488 -0.24080911 0.0672512 -0.0027187548 0.06286473 -0.015079019 0.1703668 -0.2004109 0.00344958 -0.21339923 0.002293192 -0.05917239 0.006141805 -0.004279288 0.28659 -0.056539603 0.21068682 0.01589908 -0.1259611 -0.15065564 0.09959657 -0.09174077 0.28751346 0.033179224 -0.12424822 -0.08942452 -0.00037433772 -0.34357113 0.19797787 -0.31361654 0.11860293 -0.11322352 -0.4809765 0.1438276 0.046164826 0.0029413342 -0.5625706 0.2520953 0.30257845 -0.07865738 -0.393713 -0.2373189
32 -0.09659458 0.3646611 -0.013295619 0.024507182 -0.1968363 -0.1405653 -0.16358069 -0.09853195 0.1746303 0.010745191 -0.13353088 0.028256776 0.7741896 -0.46395645 -0.53863317 0.17951736 0.084571846 -0.29889506 -0.34837946 0.30013716 0.058046468 0.16621162 0.042085398 -0.08379034 0.2031668 0.041521907 0.1101992 0.06311393 0.16830227 -0.21142271 -0.059468858 -0.047530595 0.083501145 -0.019422196 0.053907365 -0.14246085 0.32012218 -0.025946738 0.14129649 0.023833608 -0.080308944 -0.08663748 0.15727839 -0.09973447 0.106109366 -0.003420256 -0.08442898 -0.107923955 0.09570592 -0.21395826 0.16465463 -0.20387597 0.26163334 -0.21881299 -0.36827004 0.1274832 0.06818838 -0.11915144 -0.78309053 0.38946745 0.3465241 -0.13475427 -0.27554202 -0.22911498
201 -0.046306085 0.3609135 -0.019713003 -0.12485147 -0.31352508 0.115507714 -0.13588579 0.044866048 0.29168108 -0.042374585 -0.28583223 0.13654159 0.9321262 -0.6195484 -0.6282063 0.09747269 0.04856553 -0.24175094 -0.327689 0.14035241 -0.051906735 0.08476787 0.02053477 -0.11919956 -0.08119964 -0.03776982 0.02083344 -0.011255342 0.08812109 -0.21856499 -0.07170355 -0.039891962 0.13838857 0.0018761988 -0.0063907583 0.052035972 0.33158877 -0.16703914 0.37598395 0.006561425 -0.15555987 -0.23645522 0.16353819 -0.076731 0.3158857 0.21122521 -0.12436022 0.09625614 -0.11353964 -0.46281484 0.10212954 -0.3803331 0.0282903 0.13026755 -0.45195493 0.0835954 -0.067287594 -0.14105564 -0.38499266 0.11256949 0.3988337 -0.083199434 -0.38911873 -0.08902287
