250 64
202 -0.19082351 -0.035065245 0.14185637 0.08551304 -0.05392175 4.951627e-05 -0.016463213 -0.05101027 -0.01363248 -0.1969157 0.22441468 0.10664099 -0.018855134 0.055933803 0.04196536 0.12979937 0.11652766 0.014774268 0.06694787 -0.085522726 0.016198067 0.09543877 -0.081922166 -0.045334335 -0.11561965 -0.017810037 0.071063995 -0.097119555 0.011641681 0.007841171 0.15736517 -0.08207875 -0.22632605 0.29629362 0.10911112 0.23282962 0.043230765 0.12253882 -0.024575317 -0.03471176 -0.03066758 0.19620697 -0.08744099 0.13384289 0.23815106 0.12723015 -0.013541004 -0.17619668 0.025958842 -0.26602814 -0.19811915 0.2531806 -0.037925012 0.14644442 -0.015598378 0.33916983 0.012162691 0.10889142 -0.13095516 -0.022150107 -0.52328986 0.07417746 0.068722054 -0.09630332
93 -0.2751166 -0.039192036 0.11085327 -0.013910755 -0.029876994 -0.027037535 0.022867475 0.023072053 0.15898068 -0.19532801 0.22903514 0.05883616 0.01109904 -0.008310698 -0.124207124 0.033408754 0.10255707 0.03051191 0.078062974 0.022523215 -0.053257763 0.031009054 -0.018758945 -0.056891225 -0.08974426 0.02359724 0.15460512 -0.17374256 -0.106167674 0.061052397 0.047129374 -0.107603185 -0.19722956 0.13779223 0.088003956 0.25650573 0.0022003779 0.1036893 -0.03460566 -0.020864166 0.03578807 0.24193001 -0.05727787 0.0036265373 0.12608269 0.08987699 -0.009481102 -0.13733096 0.07720595 -0.25349832 -0.12716413 0.30426568 -0.045227468 0.13941933 -0.07007192 0.41034383 -0.03330085 0.17563084 -0.066390686 0.030187476 -0.5962652 0.063130215 0.050792694 0.0003255899
225 -0.2962522 -0.09598009 0.039163176 0.050267547 0.015049487 -0.033310074 -0.031752445 -0.099196084 0.091325395 -0.18008013 0.1996911 0.028282823 -0.08661195 -0.03228016 -0.06708062 0.05532325 0.128622 0.087387584 0.07828177 0.015720384 0.065333575 0.1369901 -0.07767784 -0.03271052 -0.17958263 -0.017190723 0.10746648 -0.10929008 -0.046200715 0.0057934 0.16138291 -0.090645224 -0.2026782 0.2647434 -0.06661518 0.23796432 -0.003987981 0.14555007 0.006397251 0.02423536 0.094112225 0.17655359 -0.12443455 0.07790839 0.11445607 0.021721398 -0.032522235 -0.11818766 -0.006483456 -0.24205002 -0.059824303 0.39796036 -0.11437572 0.21989459 0.0029157083 0.39572898 -0.04704915 0.07488384 -0.029845297 0.05682714 -0.5662394 -0.0020311906 -0.05344588 -0.013818647
60 -0.37065914 -0.02777239 0.09206523 0.07236761 -0.11623455 0.038292866 -0.07309989 0.012845602 0.095538445 -0.17071612 0.2276928 0.0992723 0.033607785 -0.06478531 -0.033891004 0.020087885 0.036717385 -0.025899295 0.13897401 0.023233674 0.011378505 0.051051524 -0.06921475 -0.014434801 -0.1953756 -0.16579324 0.042607255 -0.24587692 -0.21413773 -0.08680853 0.12579742 -0.12717138 -0.09481763 0.2574676 0.08496049 0.2103148 -0.013401209 0.13462287 -0.048813485 -0.17620197 0.027352048 0.19458315 -0.06787815 0.11949406 0.15785772 0.02935217 0.050083354 -0.160364 -0.002603491 -0.265154 -0.16388692 0.3182191 -0.07385005 0.25826907 -0.076131515 0.3263161 -0.038796443 0.086801335 -0.065353274 0.013051048 -0.55644745 0.006535308 -0.0401329 -0.028644778
80 -0.5227969 -0.054180164 0.096197724 0.007115788 -0.1626674 0.0011398161 -0.0273929 -0.05027209 0.042644557 -0.11973679 0.19167541 0.12686142 -0.07991468 -0.07982808 -0.04715235 0.11400186 0.032350883 0.10196528 0.15629083 0.086739026 0.06853106 0.043101955 -0.013454316 -0.11205996 -0.19014029 -0.08867635 0.09076646 -0.2074794 -0.11779514 -0.06551098 0.18545263 -0.10198565 -0.16197346 0.13154668 -0.02313416 0.1548889 -0.11642757 0.20635241 -0.0068855435 -0.107488886 0.07604646 0.13328502 0.011834846 0.08814805 0.18904135 0.06312881 0.008751599 -0.10521503 -0.029043613 -0.1806748 -0.21607319 0.303052 0.036963318 0.2230108 -0.0017158033 0.38992488 0.030469969 -0.0029068762 -0.12668267 -0.10124388 -0.5554405 -0.05920836 -0.037273284 -0.010904959
237 -0.31859654 -0.09819862 0.07532476 -0.028089004 0.044611704 -0.17833416 -0.053371437 -0.015082323 0.049578227 -0.18593375 0.24476014 -0.0031014697 -0.060163926 0.04593363 -0.07409147 0.022543535 0.029381441 0.01946918 0.12411699 0.07578638 -0.0053357794 0.095093995 -0.042439207 -0.07088929 -0.15628138 -0.083305314 0.19851851 -0.11719968 -0.03574631 0.035679363 0.17871612 -0.032638118 -0.18731524 0.15848482 0.054628804 0.21857055 0.005648645 0.10223116 -0.050581217 -0.049123146 -0.018279996 0.12979509 -0.08831725 0.05160476 0.19510695 0.11485773 0.06675187 -0.14341712 0.099130854 -0.12518336 -0.21970305 0.31675044 -0.027807062 0.16223216 0.04470354 0.3823331 -0.016192717 0.08539551 -0.100601345 -0.066196896 -0.5756066 0.017384231 -0.041939728 -0.027899811
246 -0.2352849 -0.076044984 0.027839297 -0.0156180635 -0.019986728 -0.11375678 0.037661657 -0.09738316 0.18229382 -0.27754202 0.087356165 0.07954401 0.019992884 0.06777771 -0.10121487 0.022184607 -0.012614349 0.035422318 0.15059696 0.028414698 0.07494746 0.18583886 0.020057132 0.0088100815 -0.12747477 -0.0163456 0.106130324 -0.16573101 0.034461983 -0.078873985 0.109272785 -0.031291097 -0.19880876 0.20994566 0.08431202 0.2687821 0.039600085 0.029706836 0.03471062 0.039788425 -1.5145036e-05 0.13875833 -0.009379796 0.03387471 0.19832598 0.06655797 0.01061659 -0.2071198 0.11304577 -0.17535499 -0.13725047 0.32402083 -0.16036546 0.20063466 0.00506443 0.4182381 -0.13305639 0.031751167 0.018249841 0.015166744 -0.5476438 -0.01732138 -0.014235643 -0.052654605
27 -0.41714886 -0.060475737 0.03320413 0.08208907 0.062420435 -0.034058966 -0.1284457 0.026577847 0.14670172 -0.20425875 0.15286514 0.08607618 -0.10010852 0.014581773 -0.11891803 0.05121901 0.1332389 0.019714897 0.12592144 0.0114799505 0.15306854 0.22200468 -0.04594574 -0.06296342 -0.122510485 -0.14480153 0.1950862 -0.16288725 -0.135261 -0.0073573636 0.05527067 -0.044137992 -0.13073604 0.12136315 -0.0100677805 0.14166975 -0.021912226 0.13018286 -0.048166987 0.0010051796 -0.00037048516 0.23654464 -0.058169086 0.20618986 0.26627168 0.08563743 0.0101807015 -0.039611563 0.07850952 -0.19190596 -0.15386343 0.3359502 -0.006794233 0.22106963 -0.013134075 0.36239028 -0.048758686 0.005977094 -0.14786859 -0.012632514 -0.56846493 -0.009171704 -0.031176543 -0.013915912
149 -0.29177174 -0.1051514 0.087625585 -0.05787869 -0.19100277 -0.044938613 -0.0049389885 -0.010702869 0.0818497 -0.21090098 0.12871277 0.16668074 0.048092663 -0.16954915 -0.047284637 0.010450704 0.14761405 0.082908414 0.12787832 -0.052018896 -0.017162684 -0.079840764 -0.019792255 -0.061084636 0.005274891 -0.0076872716 -0.013081613 -0.115321435 0.03946247 -0.0057299947 0.058152806 -0.12989657 -0.21063636 0.13297267 0.03184203 0.22606494 -0.027195528 0.052724175 -0.013790503 -0.0066237603 -0.04716398 0.24514416 -0.122819014 0.04030431 0.18787055 0.1086392 0.0071379994 -0.06396999 0.030576088 -0.29856962 -0.121755324 0.41649184 -0.08506032 0.24253349 -0.08427557 0.35337415 0.12248444 0.06966736 -0.16147248 -0.027382376 -0.5785002 0.06359864 0.033251606 0.07653225
193 -0.33973232 -0.08652247 0.08795334 0.1295211 0.20677626 0.035722136 -0.063640624 -0.045404904 0.13751109 -0.18079984 0.26334715 0.013502541 -0.10189719 0.07593322 -0.17975299 -0.027181044 0.14312579 0.07914878 0.116430104 0.13742203 0.08342289 0.16463274 -0.08567842 0.004097955 -0.2052346 -0.2706769 0.16409577 -0.22268786 -0.041942853 0.017281879 0.014066356 -0.016717665 -0.10926745 0.11744087 0.05791417 0.22453147 0.023428388 0.090756096 -0.045565896 -0.13801868 -0.011421065 0.17453484 -0.09667269 0.10746198 0.1626404 0.008447126 0.031717964 -0.08343828 0.057419065 -0.09186217 -0.13560468 0.29453093 0.093094945 0.087095834 0.037106555 0.46371403 -0.06330045 0.08530521 -0.05740627 -0.097536 -0.5764347 -0.015462369 -0.08819446 -0.11125246
227 -0.113016225 -0.05116683 0.023038164 -0.08042979 -0.06499401 -0.019814175 0.07390308 -0.026672466 0.14102499 -0.1702148 0.121007554 0.11748749 -0.006642596 0.02560762 -0.0055220844 0.13457042 0.17880389 0.00028278198 0.069195785 -0.13083188 -0.025819847 -0.015372532 -0.0813064 -0.022291584 -0.08306553 -0.054403808 -0.03915941 -0.09876268 0.059737302 -0.06973626 -0.0041156528 -0.08938573 -0.12064911 0.2185907 0.16986242 0.17830232 -0.007109251 0.07599987 0.055717148 -0.019506156 0.008053576 0.1586933 -0.06635083 0.10897375 0.19450082 0.2130461 -0.07801326 -0.094258755 -0.055196047 -0.21734712 -0.21428727 0.33977252 -0.052302968 0.10745734 -0.04886029 0.4648937 0.057119068 0.13265072 0.0055490322 0.012470619 -0.56077814 0.046001427 0.1378023 0.03634107
244 -0.5093317 -0.06017019 0.11515286 0.14238559 0.05911164 -0.037803996 -0.06296454 -0.07889189 0.13052894 -0.21471843 0.19206057 0.0021991397 -0.07829688 0.017220695 -0.077105895 0.0051928624 0.11839516 0.061648265 0.014539249 0.12402515 0.05296638 0.17826913 -0.11020738 -0.026704224 -0.02087793 -0.109548315 0.12149607 -0.119850926 -0.15818909 -0.0128213465 0.14237693 -0.021125726 -0.14610197 0.10844239 -0.07105327 0.235314 -0.07300255 0.2283209 -0.050782196 -0.04532077 -0.03494226 0.11158389 0.052259017 0.062742434 0.123673074 0.036059484 0.057341732 -0.072470024 0.08919377 -0.20939274 -0.16942075 0.33038163 0.01891393 0.17916018 0.16060978 0.3520253 -0.0526289 -0.065570414 -0.120382346 -0.06240985 -0.5933462 -0.09683039 0.05074552 -0.09352632
39 -0.3340166 -0.098828845 0.04974634 -0.13312478 0.04295691 -0.059254866 0.014890695 0.026376806 0.06843585 -0.123175375 0.22344056 0.03186238 -0.04158206 -0.1672625 -0.108605996 0.009510466 0.028753994 -0.055898715 0.13219103 0.057836987 -0.062639676 -0.10950066 0.042711485 -0.09432074 -0.16064358 -0.12234366 0.01696137 -0.12390041 -0.0654454 -0.041645065 0.010924239 -0.17971468 -0.19798121 0.1828476 0.008467277 0.10299768 -0.06693878 0.12573095 -0.03433679 0.007436287 -0.041126646 0.18295264 -0.13944085 0.014879645 0.17296295 0.059560888 -0.04421244 -0.17023253 0.007386849 -0.29997545 -0.12493207 0.36675274 -0.0061809397 0.2762315 -0.05247198 0.40232375 -0.0016763106 0.053049777 -0.18761583 -0.016580876 -0.60534066 0.044308428 0.079793036 0.08502979
247 0.025051503 0.008488952 0.035557568 0.007838213 -0.014578953 -0.058336135 0.0072749783 -0.089943565 -0.0056499513 -0.14677942 0.14426343 0.12405724 0.108902395 0.044154577 0.07858702 0.07959338 0.14771308 0.045840275 0.17845011 -0.17781112 0.009924164 0.16703928 -0.1489947 0.015153196 -0.15612341 -0.058062904 0.07669331 -0.1481242 0.14943057 -0.019011881 0.027574971 -0.02441845 -0.21907772 0.18904765 0.07045277 0.30932158 0.053734194 0.04853127 -0.08341607 -0.090323575 -0.042122677 0.23012652 -0.004549605 0.105396025 0.2246718 0.12041882 -0.13740934 -0.13834932 0.19567117 -0.13154365 -0.15635449 0.35603002 0.035564665 0.14918351 0.06927222 0.36150926 -0.04877903 0.11774738 -0.032861013 -0.00031395626 -0.45429555 -0.033612408 0.00194008 -0.110987015
245 0.05355448 -0.076788135 0.02635997 -0.06649833 -0.04007709 0.0050249654 -0.015736215 -0.07978056 0.008321335 -0.07258773 0.08568288 0.20732898 -0.03775371 0.0029609615 -0.013982853 -0.028001484 0.14547487 0.031191846 0.060011256 -0.18910217 -0.116684265 0.0041560805 -0.043514986 -0.00016794672 -0.02005703 -0.057128515 0.008202893 -0.07956519 0.071078464 -0.07413194 -0.019981362 -0.10325393 -0.1567548 0.31201798 0.15994126 0.2907635 0.045746624 0.14154372 0.09483069 -0.06823794 -0.07605181 0.23681481 0.009822796 0.07463677 0.12099357 0.10853451 -0.070428096 -0.20363088 0.06280198 -0.2474096 -0.22325088 0.34033498 -0.12903005 0.19394441 -0.047074392 0.46621126 0.08967529 0.10688158 -0.11497065 0.054178867 -0.39852864 0.025331609 0.05599303 0.080613434
235 0.11975457 -0.09062157 -0.016642148 -0.020231728 0.043449435 -0.06182153 0.01597369 0.03746759 0.10129946 -0.10184304 0.11229067 0.08759244 0.12984827 0.12189619 -0.02649546 0.11708586 0.12675056 0.12520306 0.17927524 -0.11929237 -0.021286584 0.12461613 -0.10287176 -0.025765492 -0.11096257 -0.0032311094 0.07156776 -0.03186725 0.2065475 0.016162533 0.030645512 -0.054208063 -0.11175229 0.24134782 0.11661524 0.29650134 -0.026150418 0.079918765 0.0026977756 -0.04858187 0.026279785 0.25752023 -0.00027538266 0.067556635 0.21627545 0.11165019 -0.20897053 -0.21545383 -0.018617325 -0.11383777 -0.3149878 0.22574112 -0.1419366 0.117811464 0.10835627 0.35201138 -0.087940425 0.17059325 -0.1047538 -0.06585928 -0.44888628 -0.014531498 0.014735588 -0.08889244
122 -0.6092743 -0.03370633 0.1342254 0.04409805 -0.07223465 -0.05841056 -0.16367456 0.03865421 0.15420686 -0.33036026 0.18352556 -0.013726012 -0.030600833 -0.051469427 -0.05512954 -0.014803033 0.003293244 0.15543666 0.05084754 0.10515324 0.12037012 0.13439135 -0.09677787 -0.036459584 -0.08201789 -0.1311511 0.012005626 -0.157718 -0.15964389 -0.062184293 0.10972962 -0.029015439 -0.16658248 0.07475147 0.004376569 0.25271705 0.028850792 0.37268388 -0.020567864 -0.14077339 -0.04351904 0.21908855 -0.05656511 0.12995316 0.06653322 0.05373024 -0.003981036 -0.15080008 0.10406953 -0.088429116 -0.1820487 0.27878925 0.0388616 0.19813801 0.030677268 0.34463754 0.012159777 0.06649379 -0.08426836 -0.11495582 -0.49955267 0.07350248 0.0628165 -0.0034797932
118 -0.28945872 0.09218897 -0.034350667 0.046659723 0.07853348 -0.06168671 0.00901129 -0.18261191 0.092469096 -0.27456442 0.20934226 0.029544847 -0.10697479 0.07265251 -0.030659309 -0.021220874 0.12038288 0.07975242 0.063754626 -0.019563854 0.11375513 0.13462907 -0.11970246 -0.14764348 -0.15279734 -0.10292321 0.15911494 -0.14003344 -0.020814592 0.086916484 0.14806958 -0.047911886 -0.118305236 0.2248878 0.097480215 0.33009157 0.095851906 0.11823487 -0.0832882 0.005360838 -0.042056754 0.254674 -0.07272876 0.060800947 0.27940398 0.13146012 -0.0488849 -0.06576807 0.069445066 -0.14787285 -0.0770405 0.29184702 -0.03347074 0.13123117 0.08756901 0.36905608 -0.03411287 0.060344856 0.0064158784 -0.16535373 -0.473004 0.058010176 -0.067825966 -0.13263808
199 0.22317539 -0.029357726 -0.017719464 -0.09740136 0.08676417 -0.06212499 -0.035593275 0.01680081 0.08080588 -0.15369388 0.051474344 0.29992402 0.076030366 0.09253692 -0.007376005 -0.006346853 0.13860951 0.11799851 0.08127716 -0.215847 -0.08769966 -0.00931833 -0.11221566 0.020306507 -0.006220193 -0.06561135 0.14284687 0.0994872 0.090699375 0.040840458 0.053536657 -0.15998632 -0.11377078 0.27393726 0.12411885 0.21869476 0.014638558 0.15585245 -0.011834442 0.04649029 0.005052698 0.23782931 0.084407754 0.029877711 0.22510692 0.1347162 -0.1693297 -0.09627203 0.08819856 -0.074142374 -0.1826355 0.34487402 -0.0541509 0.29790246 -0.057394046 0.3797319 -0.09039168 0.07318373 -0.15023729 -0.061717067 -0.39159676 -0.00074351515 0.16831651 -0.08996624
96 -0.10787577 0.042000636 0.062211473 0.06201863 0.12593721 -0.09888722 0.08703747 -0.054740764 0.022143941 -0.13267596 0.10112749 0.050072 0.0069315275 0.13434465 -0.090443075 0.030967554 0.23495868 0.15781684 0.010206975 -0.08408911 0.06433004 0.14581117 -0.15579462 -0.053751454 -0.12443696 -0.0778728 0.1679785 -0.13069783 0.13619962 -0.020561323 0.14816439 -0.08774048 -0.26393157 0.2046867 0.03819103 0.31974292 0.03627069 0.1452603 -0.2061115 -0.041623194 -0.11373122 0.24729934 0.047974482 0.08628845 0.25949055 0.1241754 -0.12363147 -0.17453237 -0.02006547 -0.195165 -0.1310356 0.25817478 -0.058659963 0.1296918 0.040758155 0.31906053 -0.07394972 0.048479572 -0.02989877 -0.042587414 -0.48849204 -0.00031409555 -0.0244933 -0.07037999
110 -0.58961654 -0.1254625 0.22563975 0.08846819 0.058025107 -0.040435363 -0.030953133 -0.0833235 0.18938221 -0.26085255 0.15806474 -0.024339153 -0.18116438 0.110402994 -0.12355677 -0.021530256 0.13180228 0.13359714 -0.0105604865 0.13001981 0.14259577 0.15402023 -0.1217015 -0.031583626 -0.0896225 -0.06789338 0.007587041 -0.18945204 -0.07944618 0.08368193 0.20517275 -0.008698486 -0.025065722 0.050956197 -0.07825386 0.23790857 -0.00074226584 0.28966996 -0.038609557 -0.05106877 0.07145488 0.21283759 0.12383752 0.12047971 0.1156392 0.033668127 0.073917806 -0.089379 0.07904613 -0.07787912 -0.18376261 0.25252616 0.063665934 0.1435412 0.035699066 0.39874947 0.033255 0.06407323 -0.0068442705 -0.10052005 -0.59634215 -0.034667764 0.106491126 -0.10727279
161 -0.25516203 -0.049189772 0.014213435 0.08630286 0.08654174 -0.064913966 -0.047688514 -0.076361194 0.12978458 -0.22067828 0.17453983 0.02568979 -0.025858115 0.137534 -0.101226985 0.040337984 0.13969024 0.084951304 0.044867564 0.084154606 0.028479677 0.29155853 -0.009124693 -0.11300993 -0.05170342 -0.006607137 0.2891871 -0.21321219 0.033466242 0.017561838 0.15711676 0.021778142 -0.18993486 0.10156743 0.090947635 0.25606617 0.119186744 0.170089 -0.05806804 0.01861172 0.0529319 0.31413832 -0.019711938 0.17416613 0.18235752 0.1403734 -0.024360182 -0.1223085 0.0739904 -0.10694472 -0.0773085 0.24719666 0.07291895 0.16681841 0.029982118 0.42130715 -0.021103222 0.023525404 0.03591926 -0.03725656 -0.54954594 0.13917778 -0.13842842 -0.08856163
92 -0.4944046 -0.06472678 0.09189045 -0.027812792 -0.0820562 0.042441826 0.0018140535 0.058261696 0.08668108 -0.16900586 0.2576647 0.043914154 -0.039526142 -0.22009137 -0.022103466 0.0082099065 0.055568725 0.14287674 0.115641914 0.040273335 0.027121177 -0.04587865 -0.045740586 0.031613026 -0.17351608 -0.077352606 -0.04726701 -0.13800183 -0.15574113 0.018201908 0.053965215 -0.108923204 -0.1654354 0.15754922 0.109679274 0.15979853 -0.119481705 0.1957434 -0.091273814 -0.07476272 -0.024476452 0.19480963 -0.07540768 -0.018378569 0.12326686 0.05767626 -0.021653945 -0.14582424 0.110973164 -0.2320534 -0.11070247 0.32733634 -0.108596824 0.35748172 -0.09939563 0.36616924 0.042895988 -0.003970587 -0.114578746 -0.07105475 -0.5545839 -0.06774582 0.12744309 0.035123065
224 -0.68182075 -0.014983533 0.1983571 0.084480874 -0.0091625 -0.063774005 -0.13880304 0.01806047 0.16919644 -0.1418785 0.16778181 0.044447187 -0.05524861 0.0035874473 -0.006048451 -0.13004054 0.12124878 0.10727452 0.022638874 0.075816624 0.1090662 0.11093018 -0.07933199 -0.042438775 -0.2365623 -0.10312309 0.102160156 -0.06992387 -0.17281702 -0.05160225 -0.004271827 0.04338486 -0.08455936 0.11145511 -0.01662435 0.077329546 -0.04873093 0.3625896 0.0049953256 -0.11462869 -0.012164086 0.24912935 0.0054545254 0.0700148 0.19105637 -0.0027782097 0.040709823 -0.042227935 -0.013954862 -0.15542142 -0.22871949 0.19816807 0.14827399 0.19766064 0.11117534 0.3364272 0.051230565 -0.022496942 -0.11645488 -0.09444229 -0.6219604 0.019885445 0.09077096 -0.09536433
172 0.46698067 -0.13700452 -0.063590534 -0.14981657 -0.07170654 -0.10455464 0.058253754 0.024665145 0.16628952 -0.12203216 0.025771067 0.22326823 0.13403644 -0.09468209 0.075856246 0.034433514 0.020655634 0.03084846 0.08315663 -0.08434284 -0.103238404 0.19030654 -0.13361123 0.008411834 -0.12403108 -0.020996356 0.072006114 0.03881626 0.106698476 -0.11657038 0.09679006 -0.045894418 -0.09157804 0.18807864 0.027423063 0.35140356 0.049245384 0.35570702 0.124609016 0.067219585 0.060460676 0.2594807 0.1919908 0.07623378 0.18346348 0.16205576 -0.07994523 -0.036598463 -0.058842126 -0.027498433 -0.25228736 0.15173692 -0.0864806 0.1712289 0.12084089 0.47221032 -0.08835319 0.2381087 -0.10393405 -0.06301615 -0.30873308 -0.03454881 0.08768578 -0.08935125
155 0.12129673 -0.01931826 0.047638435 0.07962408 0.072686784 -0.097749986 0.062470045 -0.1313933 0.0947237 -0.091642596 0.017357675 0.14709218 -0.015786797 0.05965969 0.010079894 0.061961964 0.11797979 0.09984938 0.07689754 -0.045257915 -0.01529046 0.21833415 -0.07735251 -0.019843183 -0.19024567 -0.079885304 0.16071413 -0.076842315 0.25790232 0.044818055 0.096586905 -0.12601288 -0.2191179 0.18397541 0.052727044 0.31984958 0.13821621 0.16340855 -0.09560873 -0.117639385 0.051607456 0.07630909 0.063753285 0.05580691 0.21350071 0.25995022 -0.106949404 -0.28399143 0.08006759 -0.07411169 -0.16999434 0.29533467 -0.12709214 0.2220548 0.16975418 0.37471855 -0.013956221 0.13580236 -0.016769893 -0.028100356 -0.37840858 0.008193329 -0.032202184 -0.09586972
12 0.6246958 -0.06498092 0.019640971 -0.11648901 -0.088519484 -0.13285682 -0.035691325 0.043687556 0.13623369 -0.16630465 -0.031693254 0.11961152 0.16358677 0.027602864 0.1643328 -0.050806344 -0.014692139 0.19980784 0.007577608 -0.0333446 -0.09681339 0.1792663 -0.15974109 -0.060600318 -0.07880221 -0.15417282 0.17706858 0.11799899 0.04572346 -0.18829837 -0.00085845403 -0.07423132 -0.0626378 0.12773685 0.07473859 0.2137315 -0.02831756 0.26297054 0.15896009 -0.065431274 0.058729563 0.20207869 0.23318592 0.021442238 0.13861822 0.10133518 -0.09108372 -0.036300335 -0.046648454 -0.09453098 -0.23699296 0.050170287 -0.07284279 0.37722716 0.07823445 0.5015214 -0.04814184 0.07082413 -0.049290404 -0.1636539 -0.38623884 -0.07865969 0.21915919 -0.071162164
170 0.38934702 -0.08204604 0.026749916 -0.093785435 0.01675789 -0.08392055 0.0820501 0.022629483 0.17579816 -0.026887264 0.041380104 0.33305365 0.08586293 0.020110805 -0.081283234 -0.07848924 0.09510132 0.14780283 0.09436559 -0.16019061 -0.03617028 0.18267724 -0.14013302 0.018259652 -0.1226162 -0.13879678 0.12870991 0.05565719 0.2660942 0.03420412 0.007308332 -0.08096765 -0.14090438 0.18140365 0.11713144 0.29432282 0.0047470774 0.20145519 0.17265424 -0.035056356 -0.042318027 0.15976547 0.046211366 0.022389416 0.29713738 0.06583665 -0.13386732 -0.1148139 0.0629939 -0.09097933 -0.17900269 0.26746145 -0.061615784 0.27614233 0.094110824 0.30657905 -0.09765896 0.13526216 -0.11745185 -0.14973447 -0.3546644 0.10126771 0.15642107 -0.047160953
53 0.28774533 -0.11364063 -0.03689248 -0.21989536 -0.10758731 -0.08161896 0.13166533 0.060172223 0.020925717 -0.16095746 0.03997618 0.2472318 -0.024419105 0.021342082 -0.010560417 0.09908137 0.083231114 0.068568304 0.052427173 -0.16608058 -0.09951569 0.037259366 -0.14006087 0.021341182 -0.100950025 -0.11753248 -0.05083468 -0.06011412 0.15255755 -0.0016465043 0.027624367 -0.11763147 -0.16246723 0.2888556 0.20953073 0.22260831 -0.024492482 0.27487028 0.2882321 -0.025892045 -0.05109612 0.23392658 0.1402152 0.076510735 0.31398857 0.10183415 -0.039399326 -0.12371559 -0.08783273 -0.10486229 -0.17886578 0.35288224 -0.043615118 0.20226239 0.087426335 0.2719832 -0.21135458 0.21682945 -0.12673335 -0.07259894 -0.29698497 -0.05480819 0.24708594 -0.029416507
178 -0.1623066 -0.075158484 0.048773993 -0.14057763 -0.08977964 -0.13588344 0.0784141 0.01574527 -0.07418182 -0.21525618 0.14796749 0.06926017 0.012201401 -0.11002079 0.10452904 0.047763202 0.062110793 -0.14064255 0.12825094 -0.09210158 -0.065010644 -0.10414045 -0.009129641 0.012944419 -0.15398991 -0.036829613 -0.01902932 -0.15010543 0.038299117 0.0020907596 0.04240935 -0.035627533 -0.083146304 0.265942 0.20572053 0.06541435 -0.0037527988 0.11144149 0.14709958 -0.07617202 -0.026891757 0.251383 0.023999508 0.110569134 0.19241549 0.06336588 -0.10137035 -0.10798743 0.070257165 -0.16713212 -0.1897591 0.36527333 -0.11462804 0.23479725 -0.10548777 0.37686464 0.09415486 0.1897724 -0.08737942 0.057000976 -0.59473974 0.006913445 0.20182261 0.19860558
162 0.20428899 -0.14733587 0.014695478 -0.21786344 -0.078800924 -0.1680292 0.055659354 0.09730022 0.024412442 -0.15650377 -0.045000117 0.23295157 -0.012615185 -0.08614459 0.016743455 0.026705027 0.13522963 -0.025071388 0.0040302454 -0.201298 -0.0860021 0.084014416 -0.036072604 0.010674821 0.046419412 0.039765228 0.002981016 -0.10179231 0.111571334 -0.07553956 -0.049770337 -0.09697123 -0.09700371 0.31184062 0.19796872 0.15615307 -0.07074023 0.09448716 0.22315298 -0.027093941 0.010241094 0.2644431 0.0102930255 0.059658196 0.19443746 0.12191888 -0.068147905 -0.07954801 -0.0016895572 -0.181707 -0.2872911 0.29061317 -0.07759759 0.20486942 -0.03458796 0.47204056 -0.04939476 0.19534162 -0.1340629 -0.08669085 -0.39095172 0.078996085 0.20647722 -0.08358354
217 0.5064447 -0.13376458 -0.052701008 -0.10325494 -0.13585117 -0.04284664 0.058720015 0.011583056 0.07774373 -0.19000186 -0.061386187 0.09902826 0.0058565876 -0.057480123 0.052554037 -0.034528714 -0.04002332 0.12430579 0.028147848 -0.10290805 -0.033122502 0.18599056 -0.14636692 0.097170845 -0.06560959 -0.088326626 0.047616307 -0.021726342 0.07134856 -0.06869027 -0.06616339 -0.1633129 -0.17388071 0.14316398 0.217686 0.12711085 -0.1270733 0.23514694 0.29274315 -0.00835466 0.09454179 0.34728107 0.18961006 0.046726786 0.24570563 0.11866702 -0.15496644 -0.014709326 -0.21312112 -0.097407974 -0.25684595 0.18229163 -0.15966333 0.13614061 0.14571112 0.43920964 -0.10117692 0.2961309 -0.12286355 -0.015765669 -0.37430117 -0.0577924 0.1706325 -0.11373565
228 0.481619 -0.12380963 0.035309255 -0.20919253 -0.13086091 -0.07738784 -0.021602072 0.019033795 -0.047773328 -0.11108002 0.033888046 0.3228366 0.08406901 -0.12866639 0.09685242 0.058886286 0.07770837 0.19548267 -0.010594022 -0.1074816 -0.046835415 0.08430545 -0.13546443 0.052685723 -0.09948721 -0.039211582 0.09888025 0.12664749 0.09814063 -0.02379638 0.01576128 -0.052869517 -0.100998305 0.19030458 0.1637733 0.24351965 -0.02375939 0.24486014 0.17018358 -0.015180221 -0.03224231 0.25446346 0.0905836 0.1190442 0.1879727 0.16734092 -0.10989016 0.028691709 -0.14836957 -0.011416328 -0.23171458 0.26374686 -0.092540555 0.13799608 0.16147323 0.48214772 0.0179449 0.31519204 -0.026470209 -0.053200502 -0.36472362 -0.020896293 0.17523988 -0.08587313
134 -0.17448607 -0.028752893 0.110081345 0.020065073 -0.086277395 -0.13686723 0.025961353 0.16297925 0.06473607 -0.058484267 0.09568092 0.110628754 -0.06700557 -0.1239953 0.026390757 0.111476876 0.008410802 0.037394382 0.11767524 0.0018377855 -0.08407498 -0.16568068 -0.060853392 0.11357742 -0.019004729 -0.007016878 0.010242037 -0.17012821 -0.111361824 0.06559905 0.05145066 -0.051775742 -0.28184664 0.25539327 0.13917623 0.107839815 -0.016996752 0.050447475 0.10487147 -0.1833783 -0.010534208 0.27629045 -0.0771609 0.04707677 0.23078488 0.14697549 -0.14213157 -0.10165188 0.039561387 -0.34409297 -0.13592556 0.45574293 -0.00338759 0.24966426 -0.12302256 0.40542337 0.08721708 0.17475884 -0.15108308 0.05551214 -0.4717607 0.063338384 0.14304443 0.16096038
169 0.3360248 -0.059679005 0.025421737 -0.031464186 -0.030344773 -0.029028088 0.055821832 -0.18020996 0.09296294 -0.17777991 -0.08233131 0.14447531 0.023619965 -0.009901723 0.01968743 0.041598137 -0.008498491 0.20420925 0.12119666 -0.10614297 -0.11600949 0.25384733 -0.18022907 0.039762087 -0.095625296 -0.123751394 0.11993031 -0.011782806 0.26209125 -0.0025802657 0.043851882 0.0719777 -0.2757565 0.1540648 0.14519578 0.2401872 -0.039587583 0.17859629 -0.0032832094 -0.11361853 -0.036578726 0.18892673 0.066291705 0.012756106 0.24055849 0.20269592 -0.21389382 -0.08119996 -0.017327959 -0.07763482 -0.18031637 0.2424915 0.010350729 0.2410017 0.051937323 0.419323 -0.07003252 0.11296908 -0.10978454 -0.06969568 -0.34904307 0.008721666 0.024484923 -0.045818266
143 0.4979669 -0.033668853 -0.110995725 -0.015731566 0.04804874 -0.054858055 0.066149734 -0.007198915 0.1914928 -0.026811613 -0.0948455 0.11834193 0.07435878 0.08831009 0.06341363 -0.0075325402 0.016502803 0.2251083 0.09979628 -0.027295694 -0.06744837 0.20022534 -0.10787616 -0.032106034 -0.13807422 0.015728833 0.10010023 -0.0148042375 0.14658183 0.007653577 -0.05326122 -0.030037018 -0.20221592 0.22238173 0.06980706 0.23167366 -0.11399965 0.26496822 0.080847606 -0.121937715 -0.051596887 0.20981048 0.16918482 0.07647192 0.26478118 0.176261 -0.20426492 -0.04311517 0.06336209 -0.039819993 -0.2858095 0.07864997 0.019508548 0.34462896 0.15845744 0.4446577 -0.18179247 0.15819398 0.042987105 -0.14142953 -0.36168906 -0.008388467 0.0061170696 -0.13312225
185 0.026900198 -0.189309 0.02376119 -0.1277473 -0.24028306 -0.032049622 -0.0021018933 -0.043450758 -0.02265852 -0.10643714 0.101999834 0.11668815 0.12084347 0.06079991 -0.057271007 0.04611398 0.13127345 0.053307805 -0.028577363 -0.108180195 -0.13013476 -0.11166305 0.008059946 0.03494017 -0.07517035 0.03671769 -0.017623013 -0.026702533 0.09517044 0.042442307 -0.010022723 -0.09806949 -0.18487982 0.34686977 0.18432184 0.092511885 0.04220067 0.14977422 0.19011359 -0.11565638 -0.08428085 0.18938215 0.04225804 0.08812128 0.1476134 0.054645423 -0.14307827 -0.16923471 0.03775599 -0.21031597 -0.13051209 0.43685812 -0.09091198 0.2117941 0.0051028654 0.48909 0.0006097885 0.14044866 -0.11079057 0.10691888 -0.46962047 0.090074785 0.25016114 0.047226828
151 -0.39585933 -0.040154368 0.036090754 -0.042739674 -0.22561128 0.013070915 0.0075973733 0.08418386 0.1261442 -0.15639912 0.093079366 0.122486696 0.033233467 -0.16160804 0.041187722 0.028097013 0.03183086 0.020597268 0.14785303 0.12566169 -0.13860124 -0.1296949 0.023498189 0.017562719 -0.060562145 -0.042871695 0.033549793 -0.15207121 -0.11453018 0.0029975048 0.14464222 -0.14679305 -0.19352959 0.28975928 0.033652462 0.17067856 0.03376438 0.12804027 0.061886292 -0.10306184 -0.079424486 0.15236272 -0.13211632 0.019509938 0.23452108 0.079374805 -0.08880974 -0.09066662 0.06161908 -0.24058655 -0.0928375 0.40719882 0.0011896946 0.18152273 -0.040421557 0.428618 0.12535113 0.13777982 -0.05386054 -0.12332042 -0.5496805 0.0630784 0.15754487 0.20262673
106 0.71153325 -0.067012526 -0.05437797 -0.18093807 -0.14538676 0.016149884 -0.12192415 -0.018576633 0.13406613 -0.09927109 0.0014796612 0.109756164 0.0938959 -0.09477151 0.06739289 0.023464097 0.08181935 0.12775636 -0.038595688 0.041761674 -0.038308598 0.21450646 -0.13111758 0.013986872 -0.14232767 -0.12237154 0.11926534 0.17248952 0.017124278 0.036545344 0.055689633 -0.049897995 -0.110207066 0.02673742 0.06324146 0.244104 -0.09571852 0.30359304 0.1134892 -0.05372712 -0.101446696 0.24347152 0.23279124 0.10922634 0.22264698 0.008680781 -0.2374525 -0.008203294 -0.12658101 -0.004834454 -0.18296756 0.10348021 -0.099834114 0.39036074 0.08828756 0.51539284 -0.10835276 0.2437631 -0.06736052 -0.030057155 -0.3398725 -0.13482404 0.18949376 -0.06593598
213 -0.65083736 -0.071543485 0.15870784 0.061297655 -0.1494509 0.0982934 -0.10377547 0.054809995 0.098955765 -0.20801848 0.121546604 0.06484821 0.013732883 -0.10174927 -0.09610848 -0.063998364 0.11240647 0.084174134 0.10003594 0.13195254 0.0026318615 0.04584836 -0.07309817 -0.12502095 -0.20788282 -0.08184528 0.13266823 -0.17466038 -0.18721044 0.0549741 0.030086407 -0.06280612 -0.15667836 0.007192276 0.07169964 0.17774948 -0.1499351 0.34800112 0.013296956 -0.18799676 -0.0011788971 0.09369612 -0.04351505 0.1597369 0.10733631 0.125692 -0.09681682 -0.05246804 0.0382642 -0.18394697 -0.17737664 0.3730177 0.09055876 0.31780365 -0.006789628 0.26980275 0.105248086 0.11023872 -0.08259956 -0.050364934 -0.48894393 -0.037521746 0.111670755 0.054001052
204 0.46922114 -0.083855964 -0.011090131 -0.19569837 -0.13545783 -0.053835586 0.107399285 0.022466717 0.14795594 -0.1545314 -0.01714799 0.14765094 0.07419052 -0.025386004 0.058755495 -0.007975601 -0.09486967 0.07865413 0.06787241 -0.1902658 0.02110315 0.21927097 -0.21488896 0.00056093343 -0.024077341 -0.105710536 0.089684635 0.08249645 0.06995265 -0.038964722 0.065580025 -0.14011692 -0.118434645 0.16916555 0.038391713 0.21547689 -0.04845425 0.1620039 0.21412891 -0.1251893 0.066680886 0.3179387 0.15724155 0.004122342 0.18734844 0.20658024 -0.26983902 -0.024554873 -0.095361374 0.014758129 -0.2414558 0.2155649 -0.10579386 0.3080803 0.14441541 0.4523233 -0.15978642 0.17764567 0.009129929 -0.12495418 -0.3137994 -0.036885858 0.08124279 -0.1441808
173 -0.4960703 -0.010223472 0.0045771063 0.17684722 0.18894339 -0.060326956 -0.025619866 0.002646075 0.09126984 -0.27044785 0.22867283 -0.04450474 -0.16067433 0.09589023 -0.10792468 -0.056110144 0.21086136 0.1829094 -0.058249053 0.07024751 0.10427581 0.29796174 -0.08017757 -0.066546194 -0.025116337 -0.060210533 0.21223663 -0.15608257 -0.039243218 0.040375717 0.038499277 0.11074426 -0.122935906 0.09649982 0.051844552 0.27448314 0.012058951 0.25486585 0.07392081 -0.08853029 0.036307666 0.15354246 0.024161717 0.19053683 0.17025925 0.09846458 0.12147044 -0.08546744 0.09045047 -0.11150702 -0.10327421 0.32924673 0.071834005 0.06221302 0.19504315 0.28414544 0.03437387 0.08286938 -0.037569858 -0.21179344 -0.64983666 -0.1257703 -0.011805487 -0.1554439
123 -0.5837543 -0.013088792 0.14192896 0.06281183 -0.18150803 -0.002209977 -0.12548207 0.16554736 0.114591874 -0.15756708 0.08798643 0.08027783 -0.10122322 -0.17837198 -0.073698014 0.04333834 0.1056463 0.1008654 0.1926044 0.082271256 -0.025017655 -0.026027005 0.08207152 -0.16850945 -0.12020262 0.011132425 0.07321586 -0.2162947 -0.15697661 -0.01808105 0.1261254 -0.1921131 -0.09702059 0.093742765 0.14080869 0.21779296 -0.08695683 0.28195298 0.051971618 -0.116252445 -0.09263884 0.22268926 0.07477334 0.11654815 0.099248745 0.10045101 -0.0031430302 -0.09862655 -0.040213466 -0.18704607 -0.19213895 0.24575214 0.06746306 0.25403863 -0.012455741 0.36830795 0.018182617 -0.0030310948 -0.11520661 -0.044981513 -0.5725557 0.056339562 0.12798268 0.07532468
15 0.6549025 -0.064992614 -0.018034654 -0.21701625 -0.13626961 -0.032007273 -0.065986924 0.026187016 0.18105008 -0.12173659 -0.055525 0.17035784 0.12950973 -0.047257066 -0.053530473 0.012956568 -0.0023629884 0.18020353 0.045381937 -0.002682454 -0.060893834 0.15142304 -0.26834255 -0.033696797 -0.10145761 -0.04919418 -0.014384918 0.113470964 0.050235294 0.029752383 0.051429838 -0.08464138 -0.21410505 0.025617953 0.12105061 0.2592415 -0.07454017 0.3391221 0.14151724 -0.077768974 0.01291498 0.34764394 0.12675917 0.020873636 0.24677677 -0.01318576 -0.055962946 -0.05522015 -0.13980086 -0.0012940582 -0.23440066 0.16611883 -0.10209654 0.26821926 0.15516716 0.42563188 -0.13799572 0.11183464 -0.069373906 -0.06707349 -0.3331552 -0.044918653 0.11555001 -0.04745245
233 -0.8054463 -0.084923744 0.32981083 0.07196318 -0.04598678 0.016820693 -0.12137765 0.042930145 0.21623503 -0.15397328 0.2109668 0.11197138 -0.19841498 -0.13089806 -0.09654732 -0.15395586 0.068483844 0.1365001 0.010373474 0.1063589 0.16927941 0.009203853 -0.17672974 -0.029820167 -0.120326586 -0.038161702 0.02113948 -0.10168496 -0.08350696 -0.0072520385 0.02582522 -0.019768022 -0.13333094 0.020370716 -0.021618007 0.26976174 -0.027062746 0.41860688 0.13454045 -0.14054321 -0.028527664 0.23539636 0.053633466 0.05128136 0.25016046 0.012723882 0.038476076 -0.034857947 0.08455502 -0.0842005 -0.22652425 0.1442427 0.09090899 0.30934367 0.17057939 0.37787804 0.06322476 0.013295961 -0.049702346 -0.16765882 -0.37855637 0.007066876 0.16762216 -0.10919792
117 0.81397647 -0.11748846 -0.08580348 -0.23529525 -0.11670693 0.06351817 -0.017563296 0.1023793 0.1306859 -0.09610249 -0.05164591 0.16442682 0.19678934 -0.09293859 -0.010040821 -0.07206922 -0.021110239 0.05807212 -0.010314628 0.08567486 0.002469534 0.15731412 -0.1742388 -0.06228683 -0.086241156 -0.155205 0.02684276 0.12430128 -0.013402803 0.019545823 0.0844114 -0.02163786 -0.17511816 -0.11260071 0.11803384 0.22982557 -0.10133442 0.3325218 0.14288804 0.017107595 -0.07034719 0.22104701 0.121759355 0.056755967 0.24545129 0.022672936 -0.15386853 0.036048092 -0.1599391 -0.08581194 -0.25649667 0.20597194 -0.049514182 0.27320218 0.31064722 0.42413622 0.028201995 0.16919954 -0.098542266 -0.15061085 -0.47035605 -0.18053152 0.120450065 -0.14152746
76 -0.20093459 -0.071333826 0.0032762536 0.13192526 -0.02796461 -0.14212918 0.019505478 -0.1002683 -0.017945843 -0.17089677 0.09993481 -0.04759888 -0.011355538 0.19750074 0.012256323 0.017054236 0.08620401 0.117226236 0.038124584 0.045259494 0.06066034 0.20855336 -0.10994859 0.036202107 -0.22644751 0.002334149 0.21220505 -0.09531499 0.1977231 0.04800916 0.2611429 -0.011316879 -0.210661 0.16527283 -0.017383609 0.40024763 0.12749669 0.15599705 -0.1299053 0.001708908 -0.018720191 0.25330612 -0.03113896 0.023595933 0.22680336 0.16652225 -0.06437446 -0.11402941 0.15584028 -0.08358714 -0.1746123 0.22309186 -0.07376344 0.12490699 0.1346256 0.29092294 -0.062718384 0.023456512 -0.027347598 -0.110766895 -0.58515775 -0.077547304 -0.13143247 -0.19790098
205 0.05243075 0.008092793 -0.052782428 0.06280611 0.21072562 -0.10560778 0.006913095 -0.08484664 0.1932451 -0.22803363 -0.009327806 -0.029528 0.04174724 0.13428359 -0.12405225 0.012897406 0.08994566 0.18976815 0.03799411 -0.10229217 -0.02037767 0.13905352 -0.12126674 0.025286198 -0.23692186 -0.10062169 0.24928495 -0.02868889 0.3183887 -0.024503957 0.1770959 -0.07353546 -0.19433665 0.06923027 0.01345958 0.33494774 -0.027340835 0.10535827 -0.020716581 -0.04534305 -0.01804188 0.12400052 -0.070766136 0.018954957 0.34489223 0.23615246 -0.06480272 -0.21802199 -0.0022790423 -0.038596693 -0.15068468 0.2743221 -0.08919838 0.22321932 0.02583995 0.32978418 -0.12298104 0.18092515 -0.041892238 -0.12377513 -0.41835454 0.083340645 -0.09892702 -0.09344514
189 -0.7141899 -0.041523166 0.15807687 0.049148478 0.06408733 -0.060291026 -0.075725794 -0.048344713 0.18886396 -0.21152653 0.20733945 -0.11404059 -0.1511726 -0.02931661 -0.11639729 -0.12872635 0.11136561 0.13753742 -0.03187772 0.13540086 0.19537234 0.22953594 -0.17188399 -0.13718854 -0.026284272 -0.047792926 0.17263779 -0.2061734 0.005389149 -0.0287265 0.063115 -0.04149304 -0.08044061 0.039038304 0.056207936 0.2344312 -0.040168375 0.29971546 0.04465421 -0.1193314 0.056675084 0.18745328 0.006635604 0.104694635 0.12579627 -0.098427825 0.14486042 -0.04095669 0.031695686 -0.011272577 -0.19115502 0.3328791 0.069415726 0.1162432 0.12326466 0.38072264 0.048779488 0.08477745 -0.12477231 -0.21910208 -0.5208565 -0.029549556 0.17965761 -0.17795564
42 -0.50208074 -0.15306522 0.06421629 -0.013946521 -0.12343714 -0.033695105 -0.09842529 0.20296228 0.055274203 -0.16367957 0.16719201 0.094651066 0.029304398 -0.23693486 0.061414246 0.014224915 0.13904454 0.054979574 0.19818817 0.15739825 -0.06050204 0.0037332815 0.13121855 -0.087607995 -0.17687346 -0.018992873 -0.009894422 -0.1962413 -0.137475 0.05642824 0.057347182 -0.16519608 -0.1057097 0.14137322 0.101588465 0.11525056 -0.05192344 0.3127611 0.005150538 -0.085894756 0.0739385 0.20146997 -0.21738088 0.045749765 0.1775982 0.070873655 0.026201619 -0.100713804 0.057719994 -0.24830975 -0.08650338 0.2705896 -0.005852428 0.26209056 -0.09619653 0.44308844 0.04022322 0.0700544 -0.05947183 -0.068911344 -0.53070813 0.020380365 0.13923992 0.06341758
175 -0.59208196 -0.11702466 -0.0005766356 -0.025443261 0.12585293 -0.06263333 -0.26689187 -0.20171991 0.12091265 -0.21613324 0.19321816 -0.03187393 -0.21507731 0.11462778 -0.037270896 0.029525511 0.12805738 0.13510025 -0.04920682 0.15804605 0.11101499 0.13430965 -0.08753678 -0.15858644 -0.0336497 -0.05087501 0.15989636 -0.17663597 -0.07018138 0.09555307 0.10089723 0.040484577 -0.101982675 0.03903473 -0.15552115 0.30204841 -0.011929071 0.32441396 -0.015113176 -0.12661174 0.01855104 0.25826082 0.021986691 0.13889253 0.27781942 0.009411026 0.10230371 -0.11537223 0.07334821 -0.01806038 -0.07096412 0.27080888 0.07688854 0.1397206 0.07246324 0.4488452 -0.050131373 0.053399134 -0.07028303 -0.067573614 -0.4842523 -0.0281576 -0.03958464 -0.17799668
82 0.8670099 -0.092867196 -0.15089577 -0.06422561 -0.10136529 0.070156105 -0.00032479738 0.0060159136 0.17844154 -0.20449577 -0.059722956 0.09175993 0.08639804 -0.15319274 0.08283772 -0.08365847 0.01781929 0.17479965 0.105174 0.08231297 0.061018646 0.16691402 -0.1493843 -0.12519069 -0.10735307 -0.26316977 0.15183023 0.02438283 0.048589487 -0.08499859 0.05397976 -0.00744211 -0.11924797 -0.13639554 0.051264517 0.2445434 -0.13021117 0.36877522 0.09269031 -0.022661882 -0.13652699 0.29537156 0.1853559 0.12336817 0.25791243 0.0083355075 -0.08978107 -0.039443407 -0.09147846 -0.13541515 -0.19337252 0.13995071 0.08409259 0.37752634 0.14530082 0.46927854 0.13413873 0.14940901 -0.02138787 -0.033248678 -0.30133173 -0.08506209 0.2945305 -0.1810641
85 0.64613885 -0.1285351 -0.18267542 -0.15375602 -0.019118035 -0.03498406 0.0153421005 0.049078118 0.25372732 -0.22042777 -0.11527373 0.16060147 0.10820272 -0.100571856 0.049672995 0.06357101 -0.034979984 0.19553971 0.05098037 0.07657191 -0.03610899 0.2249312 -0.15605728 -0.011565415 -0.16699448 -0.046758488 0.072016925 0.0012523435 0.24307361 -0.0064367135 0.04315076 -0.042262115 -0.09177604 0.021229059 0.04984419 0.2722686 -0.1711538 0.2897525 0.14795698 -0.1101426 -0.069076955 0.1947731 0.16754322 0.0039803563 0.1851304 0.14719008 -0.09374215 -0.06458272 0.01332977 -0.004394729 -0.28157112 0.064970635 -0.060548723 0.38047382 0.21537007 0.38057742 0.0043677217 0.14079344 -0.025054492 -0.017569505 -0.4199821 -0.077971995 0.012868827 -0.24698216
188 -0.8212673 -0.13914101 0.31324527 0.22656313 0.034549505 -0.13896768 -0.17883101 -0.027333073 0.20034842 -0.22495985 0.15999779 0.012874116 -0.11777238 -0.07034468 -0.10798894 -0.16080098 0.111094676 0.06385013 0.1370516 0.08834851 0.065371744 0.06927215 -0.21245083 0.03664711 -0.05942367 -0.08180124 0.037782036 -0.11589362 -0.06504084 -0.03011984 0.14967413 0.015753943 0.012708781 0.015564032 -0.10447612 0.2968497 -0.13807279 0.4872442 0.01797196 -0.19074757 -0.012122053 0.24362954 0.024104726 0.0026928766 0.13088162 -0.06599145 -0.12778546 -0.07364187 -0.026863145 -0.09842308 -0.25294688 0.22259784 0.10708699 0.29036587 0.08590813 0.4221996 0.03124845 0.04469811 -0.13032505 -0.015707415 -0.279302 -0.056529105 0.2620731 -0.2382993
153 0.7553163 -0.10519496 -0.06650813 -0.12174716 0.054632846 0.07635274 0.017795144 0.034924712 0.21718368 -0.020940855 -0.050878186 0.048538625 0.075160265 -0.11005746 0.13548906 0.022703577 0.019304864 0.22234665 0.08848611 0.12756309 -0.022026066 0.1474425 -0.1810556 -0.028930636 -0.16555513 -0.1249039 0.06522751 0.018713117 0.14019403 -0.025995042 0.14203623 -0.04197332 -0.11000083 0.018280325 -0.03837044 0.21568918 -0.1368294 0.30755267 0.08134726 -0.10817555 -0.04143101 0.26926407 0.1210432 -0.030949118 0.32759807 -0.0047334917 -0.037382547 -0.0658454 0.014517393 -0.029950336 -0.23764431 0.10573484 0.07901585 0.40028328 0.29528004 0.45943007 -0.0654808 0.12651137 -0.06789744 -0.04406062 -0.34614784 0.083427906 0.06623618 -0.21919045
222 0.8069156 -0.16067754 0.06555324 -0.20021011 -0.06262469 0.00085141294 -0.015711347 0.08960721 0.024810385 -0.13679776 0.059458558 0.13065474 -0.026652098 -0.034503773 -0.0043823863 -0.004744906 0.044936124 0.15993291 -0.07240741 -0.054190174 -0.16873965 0.087262355 -0.17844737 -0.052023325 -0.035769224 -0.19017497 -0.10109224 -0.011468838 -0.047399174 0.05187644 -0.05110331 -0.20285296 -0.12283025 -0.032222543 -0.008691894 0.2870597 -0.07140389 0.31668344 0.22320682 -0.05914755 0.02976488 0.25494596 0.15685178 0.13862048 0.20759386 -0.054707553 -0.1055848 0.041183453 -0.28487638 -0.07082684 -0.20603243 0.16891873 -0.13933629 0.2602116 0.118015334 0.48078007 -0.018652719 0.07077684 -0.0026537708 -0.15551695 -0.42739728 -0.17420186 0.25011316 -0.17576961
130 0.03599799 -0.14828621 0.06807097 -0.21766359 -0.10524064 -0.11771783 0.025588406 0.0086874245 -0.037646033 -0.09376491 0.11527991 0.22913778 0.03524819 -0.20955332 -0.05687727 0.07055408 0.12194148 -0.09046544 -0.030046519 -0.11041134 -0.16423392 -0.190203 -0.09662143 -0.024296384 -0.04684974 0.0014030699 0.06544317 -0.08274884 0.047526892 -0.0046341773 -0.09408437 -0.09566227 -0.027134877 0.29001814 0.26117936 0.095058285 0.08835832 0.023521842 0.19933006 -0.11507113 -0.048382778 0.3393181 -0.039745055 0.07094296 0.25826216 -0.0010128452 -0.20742649 -0.11329131 0.08028519 -0.16227935 -0.1665414 0.453837 -0.12590186 0.29150027 -0.04962534 0.42048296 0.101104975 0.1346875 -0.10179824 -0.031283475 -0.4485557 0.07812208 0.17398988 0.046591345
81 0.89072436 -0.11038964 -0.07767399 -0.15320392 -0.069987126 0.12907425 -0.068333305 0.18817632 0.1792929 -0.18267666 -0.025496215 -0.011072181 0.059032697 -0.07781245 0.0882404 -0.1329638 -0.11088846 0.17257103 0.0036879908 0.028662182 0.13406684 0.16557814 -0.15714474 0.048399854 -0.14550242 -0.08602123 0.10026261 -0.015740912 -0.0011409177 -0.02171047 0.20021114 0.05787904 -0.14711958 -0.05344575 -0.030815946 0.21139766 -0.064606495 0.30699837 0.11208431 -0.09371045 -0.117102146 0.33865896 0.12381813 0.0584273 0.16749528 -0.11219093 -0.04622321 -0.06288889 -0.1308379 -0.10216952 -0.25522006 0.24760756 0.0011203887 0.44252202 0.25378174 0.43507156 0.11762937 0.1252944 0.013998799 -0.061546076 -0.34255725 -0.12258857 0.15040617 -0.18530306
125 0.28590527 -0.040039785 -0.023639845 0.031531546 0.054137226 -0.07270501 0.10994269 -0.016927421 0.21248868 -0.12267248 -0.15318488 0.11489507 0.05641646 -0.050906833 0.09662249 0.060209986 0.04247376 0.15626797 0.019424262 -0.116492525 0.067016535 0.31896693 -0.2267672 -0.08612335 -0.20466626 -0.14261904 0.113531396 0.014654504 0.32442906 0.013037834 0.09286192 -0.0026473878 -0.0015756213 0.11226401 0.064533606 0.37123576 0.09032043 0.14929155 -0.078983806 -0.081153356 0.1161515 0.25242084 0.026161568 0.04476666 0.18525827 0.11805333 -0.19464171 -0.1673144 0.05068297 -0.11820486 -0.19551687 0.112025626 -0.14486818 0.24927896 0.08457377 0.3608814 -0.118335426 0.101486064 -0.02960148 -0.048301704 -0.4532409 0.080543995 -0.0053102886 -0.20767114
107 -0.5862212 -0.0980914 0.09520589 0.08802961 0.08151542 -0.21533194 -0.09940795 -0.22394404 0.22068025 -0.25225767 0.101992555 -0.012248342 -0.08417077 0.1528814 -0.031177105 -0.11766091 0.064432 0.18970592 -0.12693258 0.14178194 0.15381062 0.26301095 -0.112338535 0.03580611 -0.0023520961 -0.12535475 0.16044608 -0.120575435 0.043920185 0.06287698 0.15461087 0.011687657 -0.0776031 0.088965684 -0.014198811 0.059836224 -0.030647282 0.26040196 -0.06699729 -0.20561363 -0.017941495 0.26956922 -0.002097648 0.11167352 0.1204539 -0.010718919 0.17803945 -0.17896196 0.15684386 -0.12980528 -0.07932028 0.30789024 0.060251754 0.12486701 0.20876385 0.4334374 0.07377491 0.03694433 0.030702027 -0.14120275 -0.5766971 -0.21098821 -0.012357295 -0.23618124
232 0.8334109 -0.053312164 0.06787614 -0.1260467 -0.17488545 -0.0011662474 -0.06947716 0.07874888 0.10822288 -0.1837608 0.1087176 0.17498405 0.07243915 -0.08053713 -0.008709666 -0.09304717 -0.02475845 0.030216597 -0.13292317 0.011742625 -0.007947103 0.06364956 -0.085004896 -0.01869368 -0.10899341 -0.28090394 0.018515136 0.073992565 0.047732208 -0.04444948 0.12044808 -0.13139957 -0.14081576 -0.06892862 0.124431945 0.24927734 -0.062384974 0.3346321 0.20610458 0.01755649 -0.117036976 0.21335365 0.09103111 0.10381391 0.31251884 -0.010847352 -0.07869761 0.04610707 -0.20089824 -0.14066596 -0.21830852 0.040093027 -0.11394038 0.32449037 0.16126876 0.53617144 -0.015630538 0.029853659 0.028692806 -0.101856016 -0.35008785 -0.11410746 0.4107579 -0.16206633
196 0.111846514 -0.24239036 0.062704004 -0.13052915 -0.16429882 -0.012997065 0.09892505 0.10844157 -0.18484636 -0.10127498 0.054665692 0.19322456 -0.055525906 -0.06730963 -0.002149901 0.12978841 0.12354176 0.01430034 0.040354062 -0.059596594 -0.19730291 -0.10662833 -0.1035849 0.10649935 -0.0728164 -0.0360909 0.06714062 -0.104229644 0.02662756 -0.07384739 -0.07827336 -0.003559414 -0.014797865 0.2591634 0.2823802 0.08043469 0.008880573 0.10875838 0.27084512 0.08806429 -0.044343945 0.2711739 0.14884025 0.0022796395 0.2837801 -0.0018629873 -0.13466527 -0.11270778 0.02608515 -0.22224557 -0.1486388 0.40596285 -0.06265246 0.20342226 -0.095725186 0.5460589 -0.10891261 0.19355668 -0.084357455 -0.058466695 -0.40531734 0.050477143 0.21534215 -0.025933262
239 -0.86811376 -0.22254732 0.3903311 0.18186311 0.068870954 0.041601103 -0.29510128 0.07790611 0.17846873 -0.23865205 0.06368061 -0.0065983287 -0.073373415 -0.08353392 0.084492266 -0.23475061 0.048051503 0.23230846 0.074711144 -0.059072997 -0.009114248 -0.005585259 -0.1877929 -0.06781122 -0.12292283 -0.08717368 -0.14310792 -0.07328767 -0.20321211 0.0406515 0.062300675 -0.02879654 -0.1010319 -0.095866874 -0.017647203 0.16412845 -0.11796574 0.36321446 0.11882041 -0.11506109 0.014505949 0.15221275 -0.00034568505 0.083838925 0.092610486 0.02542349 -0.0009982043 -0.09008513 -0.07066706 -0.0735054 -0.27119604 0.21076946 0.05234082 0.34395808 0.3559164 0.45853254 0.034500178 0.22512174 -0.1350202 -0.0674234 -0.4403882 0.0077648526 0.100408904 -0.15413874
50 0.515073 -0.09124828 0.045412675 -0.32907614 -0.1334213 -0.14278065 0.049927566 0.114427246 -0.0104365535 -0.17119102 0.064087816 0.2970861 -0.034507554 -0.084293604 -0.040681485 -0.043865904 -0.018156517 -0.02181552 -0.15077238 -0.10397375 -0.1360017 0.15718022 -0.14919303 0.044820674 -0.026312212 -0.095187284 -0.015421149 0.00046363185 0.072393686 -0.049348988 -0.023611307 -0.17402907 -0.16807346 0.04864001 0.08852354 0.13903843 -0.03789495 0.3333282 0.2592243 -0.060778044 -0.13147771 0.28546563 0.058588017 0.077868484 0.19823666 -0.015641237 -0.24150085 -0.19652916 -0.085387476 -0.030782988 -0.25365964 0.24807778 -0.16084339 0.2646943 0.018020175 0.42822203 -0.17883651 0.1907096 -0.060654853 -0.10962527 -0.28273052 -0.055916566 0.24590392 -0.12678543
238 0.55506307 -0.21187827 0.118049055 -0.23796554 -0.22779304 -0.053593524 0.00825328 0.11597277 -0.027400019 -0.14106768 -0.10645082 0.18176627 0.0062490474 -0.06327138 0.029361293 0.05597287 -0.01372987 0.096610986 -0.16494413 -0.11256886 -0.15455818 0.166797 -0.10536511 0.12248104 -0.112002775 -0.098915495 0.018567171 -0.06307631 0.04410676 0.05858974 -0.026563523 -0.11348545 -0.013171138 0.12908518 0.19452687 0.1878247 -0.1772233 0.16961858 0.26803178 -0.051881067 -0.1114406 0.27237615 0.16262832 0.06176467 0.12873667 -0.031760864 -0.21412218 0.023169352 -0.14800735 0.023648307 -0.26538444 0.2678554 -0.043916065 0.17698278 0.122365355 0.5141189 -0.051581416 0.13953683 0.08698422 -0.2204977 -0.45128813 -0.06345784 0.25432733 -0.07065479
94 0.5068351 -0.11574591 0.016684536 -0.1922579 -0.12504119 -0.21898769 -0.08067276 0.079170726 0.00026144978 -0.12691782 0.11856772 0.15437546 0.1283659 -0.057873283 -0.029486563 -0.055793606 0.051588517 0.05419722 -0.12232377 -0.0030240277 -0.10310765 0.0640932 -0.19432504 0.18730916 -0.03485855 -0.099448256 -0.00032870733 0.068341084 0.052210208 -0.08522887 -0.07666948 -0.17803605 -0.03339421 0.16312173 0.16607048 0.15607081 -0.090042114 0.1564945 0.2378361 0.021552144 0.09745033 0.19278061 0.07517912 0.055092808 0.28524312 -0.023171034 -0.22467665 0.018736454 -0.091854475 -0.1130002 -0.25164366 0.29752877 -0.08762575 0.26075742 0.044393502 0.5049441 -0.14709641 0.11155085 -0.090433724 -0.1495935 -0.3484891 -0.05115338 0.27961755 -0.16237572
152 0.23570994 0.10230195 -0.13113378 0.03889876 0.13791735 -0.07614803 0.114640154 -0.021352429 0.20657814 -0.17865182 -0.104608744 0.11131025 -0.05928619 0.10471257 0.022598386 -0.08130927 0.17196354 0.19964868 0.08602248 -0.15303825 -0.026016993 0.28218657 -0.25124773 -0.09878663 -0.13263036 -0.03805053 0.1727263 0.086945646 0.2618776 0.028380034 0.14643453 0.010315732 -0.12952855 0.06707343 0.07974969 0.38024333 0.00217305 0.12127649 -0.049558863 -0.22619769 0.007780857 0.13237552 0.013131405 -0.10436188 0.25592038 0.16171773 -0.14871646 -0.03661058 0.1615219 0.045812964 -0.17250085 0.20348929 -0.09637768 0.35616913 0.034110077 0.37211755 -0.080941014 0.16307254 0.016105715 -0.09682977 -0.41439912 0.06486869 -0.12327012 -0.15536802
212 0.3603188 0.041727606 -0.13971059 0.025527019 0.19103879 -0.09081657 0.05541141 -0.05474191 0.13290402 -0.16672799 -0.18868652 -0.037637427 0.15733185 -0.112694025 0.0806289 -0.02323199 -0.008282626 0.24060489 0.05142239 -0.16906826 -0.029459326 0.3155515 -0.08622175 -0.20506747 -0.1836972 -0.07595281 0.07185584 0.14509118 0.28827775 -0.090584725 0.09766251 -0.034271475 -0.20578344 0.17069183 0.038072485 0.31774956 0.13441609 0.23367918 -0.014559708 -0.17652501 -0.0002384376 0.20794632 0.15159166 0.035495926 0.31108534 0.06660377 -0.07686656 -0.08154558 0.12412817 -0.025902016 -0.21310365 0.14281303 -0.026774822 0.3189443 0.12003229 0.318409 -0.096044384 0.15591022 -0.02157499 -0.12121478 -0.39689952 -0.021771662 0.053806104 -0.17590584
159 -0.7991908 -0.121417865 0.38394737 0.09736891 -0.04193971 -0.09957458 -0.20960525 -0.0812685 0.31736985 -0.10225533 0.021049947 0.03494611 -0.1669903 0.0010663734 -0.06678285 -0.2458834 -0.033261992 0.16176294 0.08935077 0.02070371 0.14788483 0.09018362 -0.20896141 -0.035904936 -0.094348654 -0.110979706 0.031241788 -0.18668811 -0.07613725 0.03584845 0.14652786 0.10127197 0.048564535 -0.039565545 -0.016833846 0.20233007 0.116569355 0.3621892 0.07894815 -0.08399012 -0.0073798117 0.1897735 0.16677503 0.090441234 0.1455046 -0.18829146 0.07250951 0.04199784 0.033573423 0.039761074 -0.17904086 0.3772013 0.123110846 0.2709828 0.1818815 0.46526977 0.037142076 0.02244672 -0.05537704 -0.15549827 -0.4845447 -0.011908388 0.096821964 -0.20058744
104 -0.87236524 -0.17284451 0.28205985 0.105930485 0.042160437 0.018091321 -0.1472393 0.04076819 0.12295571 -0.17787807 0.17387314 0.080116406 0.031764433 -0.2523822 0.056082018 -0.16242571 -0.008493487 0.08771972 0.107145794 -0.01794305 0.057808775 0.052682906 -0.09066189 -0.1250106 -0.15624714 -0.04586304 -0.034423627 -0.0025309625 -0.14961292 0.005939926 0.10846764 0.0025087653 -0.11964573 -0.03267066 0.08073809 0.22906719 -0.10695923 0.53366446 0.06373085 0.014233548 -0.05614894 0.14389694 0.10771623 -0.0977467 0.063005894 -0.009735487 -0.090922564 0.0038390541 -0.07903734 -0.14194784 -0.17355454 0.26557824 0.14528424 0.45330992 0.12199445 0.4839234 -0.03529935 0.12653379 -0.07914808 -0.09370452 -0.3378368 -0.022508433 0.0136498995 -0.07426928
241 -0.17597277 -0.11780564 -0.061226733 -0.010238522 -0.09200907 -0.090573765 0.018556638 0.13790494 -0.043318074 -0.11871598 0.11102313 0.11253964 0.041214794 -0.18412273 0.11175204 0.1744641 0.11666923 -0.03875425 -0.008057284 -0.04944099 -0.14451662 -0.27206135 0.08926164 0.018686706 0.06295897 -0.08938563 -0.095313475 -0.16663766 0.08277231 -0.061211154 0.052311238 -0.16555247 -0.14167312 0.22953899 0.12809132 0.10111666 -0.073916435 0.08038832 0.055463333 -0.03630191 0.043781865 0.34394196 -0.0035292152 0.13662392 0.19618274 0.09116171 -0.105574 -0.05717958 -0.013551454 -0.15923294 -0.20411955 0.5018416 -0.03634151 0.38557464 -0.123452894 0.3020641 0.11724891 0.22337244 -0.21169545 -0.039388537 -0.5708985 -0.0187217 0.13825516 0.1885837
229 0.28507408 -0.11624758 -0.01700106 -0.28110173 -0.17942953 -0.037806574 -0.068271376 0.07819818 -0.13252617 -0.120404534 0.1223235 0.24422877 0.14819695 0.0041665644 0.008160971 0.03215023 0.07498771 0.040082134 -0.06158475 -0.19946958 -0.14588909 -0.009055425 -0.19211078 0.051604364 -0.12887366 -0.0077840164 -0.124037825 -0.04355083 0.060098026 0.015249564 0.096640304 -0.045649085 -0.08935064 0.22787064 0.20074528 0.05847468 0.014270811 0.2244652 0.33078638 0.024489725 -0.026766071 0.26523924 0.00041132412 0.12545678 0.11655971 0.12653238 -0.12939003 -0.052268162 -0.032781005 -0.057065666 -0.1915215 0.30268678 -0.063862376 0.25959197 -0.08025798 0.4681194 -0.031327587 0.21082363 -0.06888157 -0.035630085 -0.41132885 0.043632172 0.30066705 -0.16494063
171 -0.6954784 -0.08399501 0.21112539 0.09361405 0.015039819 -0.087294124 -0.14280467 -0.21487704 0.29411128 -0.13450548 0.15673934 0.04509936 -0.22894129 0.075263225 -0.08891894 -0.18898256 0.20124029 0.12516858 -0.007405232 0.22064285 0.1607812 0.13072295 -0.15969574 -0.056147087 0.0049522873 -0.10566045 0.081027515 -0.06226834 -0.13887517 0.1318568 0.09446203 0.13074256 0.002248476 -0.02607088 -0.020581782 0.15102093 0.04294127 0.32910606 -0.04642411 -0.08244577 0.06539338 0.13175602 0.16536464 0.12857014 0.16655475 0.0016390721 0.09960762 -0.0102217635 0.03223574 -0.0272114 -0.11373115 0.2660306 0.104641125 0.25902048 0.17016952 0.43962547 -0.017795619 0.07543983 -0.1586065 -0.24864317 -0.5652376 -0.006533595 0.10342832 -0.23643869
214 -0.060110845 -0.20788525 -0.031030191 -0.23776014 -0.0012810343 -0.021914816 0.02053896 0.13696742 -0.19262974 -0.01654507 0.09079842 0.077662006 0.0016241451 -0.053512953 0.039030008 -0.016092759 0.017693903 -0.1166824 0.0071746833 -0.09261657 -0.095095575 -0.21779175 -0.013923242 -0.027919926 -0.052795365 -0.10427092 -0.08646371 -0.12750949 -0.0747366 -0.04550433 -0.044147618 0.05960689 -0.15622889 0.33694562 0.29260772 0.059598967 0.06824423 0.11182356 0.3105059 -0.1362303 -0.046906956 0.258454 0.045511898 0.029989114 0.15223707 0.14060196 -0.08620039 -0.1354489 -0.042053588 -0.25164014 -0.14010589 0.53943795 -0.07182597 0.27248698 -0.03256937 0.47014394 0.01698887 0.115874045 -0.19574922 0.016572217 -0.47678003 0.05145499 0.14392786 0.14170453
182 0.96537215 -0.025889715 -0.05671803 -0.26770753 -0.19323164 0.20968764 0.010092153 0.19147153 0.057601888 -0.25183633 -0.01615625 0.011987222 0.11303849 0.01366518 0.020453565 -0.10780544 -0.007321045 0.15419832 -0.00472625 0.24285184 0.11479614 -0.0076212077 -0.060886405 -0.12853664 -0.12150399 -0.21010642 0.20143704 -0.18442038 -0.034334894 0.07359841 0.14129913 0.011060341 -0.1327082 -0.15293111 0.005903016 0.27708498 -0.10350521 0.4019811 0.12755945 0.07044052 -0.10966272 0.21429572 0.07226042 0.06569143 0.28139606 -0.09094974 -0.049266484 -0.043122884 -0.24171962 -0.119498864 -0.22225198 0.17819574 -0.10243737 0.50349736 0.35203806 0.50765675 0.17864144 0.045425642 0.07756177 -0.08780675 -0.32888177 -0.24346131 0.2651554 -0.13739456
137 -0.4979542 -0.05949149 -0.02623073 0.17647773 0.0872407 -0.14348115 -0.1491191 -0.2118054 0.08777423 -0.30301216 0.14410822 -0.0100266095 -0.14653571 0.14053622 0.0041369414 -0.14747821 0.23278034 0.120883524 -0.026962332 0.14573169 0.25348434 0.21652332 -0.08749385 -0.02218437 0.04706399 -0.16814724 0.25506768 -0.22949396 -0.061852295 0.08983625 0.21608329 -0.028995033 -0.15246381 0.05412798 -0.09746714 0.20706178 0.09129145 0.20970039 -0.013015459 -0.12799332 0.008736549 0.33314097 0.07006544 0.15193422 0.20217806 0.08125877 0.05657897 -0.07779625 0.15660441 -0.026481405 -0.18501861 0.35064936 -0.011687842 0.08758079 0.12162356 0.36780536 -0.056514464 0.053483665 -0.0022571178 -0.18645449 -0.44914004 -0.100794606 0.0066783405 -0.24594016
157 0.8514621 -0.069993585 -0.06696707 -0.14966361 0.08831041 0.18202247 0.10842934 0.056475688 0.16246843 -0.21000715 -0.16914806 0.045601223 0.059743438 -0.13565262 0.13240503 -0.065587066 -0.06411103 0.21410067 0.07773454 0.11191044 0.17700298 0.110701986 -0.14298354 -0.09592225 -0.1513043 -0.105910406 0.08587057 -0.034132864 0.09776298 -0.0568069 0.072068274 -0.061347026 -0.052060556 0.030777372 -0.014635663 0.22482195 -0.15642713 0.38544074 0.078139745 -0.05538961 -0.08451804 0.32241946 0.13385253 0.07312284 0.32308263 -0.09163576 -0.06273645 -0.14057176 -0.18413784 0.07693525 -0.31633756 0.14237373 0.082365505 0.3645642 0.21829495 0.41073826 0.09703221 0.09424822 -0.012135733 -0.031503685 -0.42853776 -0.108648784 -0.016373793 -0.18152806
132 0.83444 -0.096197374 0.015420488 -0.29909706 -0.27380258 -0.041272804 -0.12952065 0.14700523 0.036401793 -0.2226535 0.0431255 -0.024620987 0.046370056 -0.01435057 0.04909795 -0.05539251 -0.03789979 0.1368064 -0.21570663 -0.0071075927 -0.090466954 0.2022918 -0.03458065 -0.019538872 -0.024078893 -0.15486611 0.019716132 -0.021300288 0.03802905 -0.011029744 0.11997412 -0.12096563 -0.11882321 -0.10466079 0.028494958 0.24608758 -0.13143158 0.29860166 0.15242669 -0.0059596337 -0.0805376 0.20117967 0.064185075 0.137045 0.30624953 -0.11532367 -0.11845709 0.040574696 -0.21870027 -0.09745612 -0.25210476 0.24217092 -0.017664453 0.34463373 0.13779677 0.5556205 0.04311234 -0.015976943 0.05798355 -0.057371233 -0.3613483 -0.2595326 0.35235426 -0.10519789
195 -0.44642678 -0.032557517 0.019895587 -0.016322838 -0.16464788 -0.02145959 0.016884625 0.2586125 0.025290094 -0.14676584 0.24421093 0.07576622 0.058716595 -0.1995179 0.029461766 0.0043036556 0.06535628 -0.0640596 0.18721028 0.07776646 -0.043677095 -0.20399359 0.082924224 0.026154337 -0.006555751 -0.0664332 -0.124764875 -0.19790694 -0.07959658 0.12314138 0.012827621 -0.15807813 -0.20182198 0.15238017 0.11836883 0.12088964 -0.0864381 0.1936256 -0.0019889448 -0.12034331 -0.026667021 0.34749895 0.01540713 0.008361381 0.19540879 0.12185595 -0.09507501 -0.11455227 0.026474701 -0.23008983 -0.16709405 0.3126763 0.0016077376 0.3224821 -0.18287 0.34096244 0.031665623 0.059354667 -0.010533586 -0.064780064 -0.6067772 0.039473217 0.16783874 0.11096926
240 -0.5882869 -0.037650287 0.17922868 0.13403502 -0.17992902 0.04225627 -0.013165335 0.2248348 0.10950318 -0.19671462 0.23623464 0.071318164 -0.12376898 -0.17657532 0.04505556 -0.04998426 0.018956602 0.12718835 0.08221648 0.1348184 -0.0845713 -0.113972194 0.076614685 -0.07818471 -0.08287946 -0.0696338 -0.043425933 -0.092740856 -0.061921343 -0.069050975 -0.086882524 -0.2059372 -0.30946058 0.020806752 0.05906498 0.21487291 -0.06452293 0.2700368 0.015347875 -0.19002761 -0.022789849 0.1391912 0.0049870103 -0.032763552 0.067199655 0.10003527 -0.081809655 -0.024773756 -0.06281046 -0.19926038 -0.12668157 0.29131943 0.14260958 0.38166583 -0.09924117 0.37516433 -0.002503538 0.14062406 -0.06567866 0.009192387 -0.5873341 0.052460894 0.13562058 0.08616874
129 0.9367945 -0.05438061 0.09433181 -0.15543947 -0.23958705 0.00801687 -0.1481728 0.20848271 0.12001177 -0.26635286 -0.06921295 0.062609784 0.04074555 -0.17136897 -0.056765854 -0.15039521 -0.102713205 0.029491883 -0.16437386 -0.012009645 0.045725685 0.102416225 -0.15642448 -0.06463309 0.0052434523 -0.14160706 0.077007234 0.035917696 -0.05139221 -0.07155141 0.14910802 -0.088149816 -0.20348294 -0.10313594 0.04091801 0.24104461 -0.0398085 0.3133345 0.1606789 -0.015763123 -0.14373522 0.20599793 0.05019451 0.19056143 0.2835091 -0.11234126 -0.065014586 0.031703167 -0.20165767 -0.10907955 -0.22692075 0.18229163 -0.1172995 0.41050482 0.30659515 0.49034888 0.07190319 0.10565215 0.040747184 0.047182996 -0.39544556 -0.3585159 0.25497365 -0.19190982
103 -0.88149995 -0.11391477 0.2990124 0.11683579 0.040291633 -0.003177177 -0.24031408 -0.12528604 0.3260115 -0.08840113 0.060705934 0.04757323 -0.11418047 0.024621218 -0.04119129 -0.1317134 -0.002422858 0.20461158 0.040725898 -0.039464388 0.09422103 0.031516146 -0.24995367 -0.044594184 0.11035843 -0.058039457 0.002325566 -0.22578283 -0.05509148 -0.020309173 -0.0003933325 0.10331911 -0.08533108 -0.053695474 -0.020862559 0.14400181 -0.052023645 0.3699336 -0.01677713 -0.06702857 -0.0085255 0.16008401 0.17355011 0.0933358 0.1658135 -0.12234693 -0.06389631 -0.04466597 -0.093248256 0.0042923666 -0.2396709 0.29670003 0.093764834 0.3019107 0.22184311 0.50382763 -0.042070754 -0.023501221 -0.084584996 -0.036142327 -0.48793802 -0.101210214 0.13784043 -0.3568789
167 -0.17712626 0.045692835 -0.1340547 0.15261318 0.16940813 -0.098845266 0.06851192 -0.08317707 0.076957956 -0.08563527 0.012575811 -0.03584954 -0.04133466 0.14932612 -0.07079414 -0.024594128 0.15195122 0.11805248 -0.015234946 -0.011272821 0.045841083 0.32190824 -0.20437625 -0.097497456 -0.1893252 -0.13649124 0.2933585 -0.045782123 0.07541655 0.10644054 0.12903021 0.021502255 -0.21963759 -0.031822924 0.071435556 0.23881157 0.16464055 0.17463759 -0.10630755 -0.16840279 -0.045646902 0.06129383 -0.0052019465 0.09933784 0.21757895 0.14539857 -0.02316093 -0.15986624 0.061024852 -0.13004428 -0.03954928 0.3944802 -0.16251323 0.13717362 0.058904596 0.38579795 -0.07823134 0.04302912 0.0041692904 -0.06244416 -0.5449856 -0.12765728 -0.19194856 -0.25470757
186 -0.8484027 -0.21310891 0.28770277 0.114851855 -0.06589214 0.040548403 -0.21902978 0.14054021 0.08873631 -0.24966036 0.06274021 0.07997608 0.012467034 -0.17251931 -0.029422773 -0.13762832 -0.075583 0.14485359 0.13294968 0.07860585 0.10765205 -0.010917823 -0.05979394 -0.048940945 -0.079413116 -0.03669805 -0.14076927 -0.022148194 -0.1315509 0.07393608 0.0014827361 -0.17030625 -0.14026284 -0.07059614 0.099643804 0.24363312 -0.11263339 0.3413406 0.05141771 -0.034811135 -0.09433128 0.2229062 0.12681119 -0.045210537 0.08396623 0.045627445 -0.14843726 -0.057066374 -0.030593557 -0.16989371 -0.21345823 0.18135259 0.1829386 0.4289703 0.053119455 0.44530764 0.08565383 0.004654161 -0.04377484 -0.14122152 -0.4500444 -0.00431538 0.13234055 -0.08511096
72 -0.9235368 -0.20863283 0.43781835 0.21155639 -0.009319825 0.01186508 -0.19632338 0.06856559 0.1468913 -0.25475895 0.068926886 0.18929511 -0.10077882 -0.21768892 0.20492607 -0.24246444 -0.01923314 0.24348827 0.08687144 0.017651787 -0.052326012 0.077990726 -0.059929214 -0.035087094 -0.22616296 -0.0097206095 -0.042817388 -0.12801892 -0.1100737 0.10831075 0.058393516 -0.09907776 -0.14418632 -0.09371196 0.16045234 0.21527228 -0.12095074 0.40973213 0.12350511 -0.010397981 -0.07950271 0.15574056 0.054601017 -0.040992294 0.19485116 -0.077749945 -0.18888581 -0.12998874 -0.08178548 -0.09633546 -0.31069443 0.16017602 0.23828568 0.53745383 0.2538206 0.43474403 0.13917586 -0.004592827 -0.031422224 -0.01725931 -0.28232527 -0.05635872 0.074606955 -0.09214604
38 -0.77101505 -0.13182113 0.27936155 0.16492799 0.1715532 -0.020488251 -0.25397328 -0.11598657 0.31310514 -0.23262964 0.17741482 -0.012783791 -0.20578113 0.048279613 -0.00983141 -0.17717072 -0.012762421 0.13388075 0.013272118 0.11649941 0.16459952 0.12588423 -0.25201714 -0.03870449 0.09160825 -0.15928079 0.08952814 -0.23177183 0.08260364 0.08269714 0.12622927 0.05766538 -0.02628727 -0.04967481 -0.09255938 -0.009793991 -0.060592987 0.47014025 0.0016286052 -0.14683817 0.1491537 0.22374217 0.11328578 0.044287525 0.1508771 -0.12484892 0.06950195 -0.08176879 -0.07366516 0.0017939775 -0.23189266 0.42438158 0.11792707 0.2379853 0.23866947 0.40221417 0.011375736 0.13839267 -0.10813794 -0.09845057 -0.4205548 0.023257839 0.1765351 -0.20841284
54 -0.99001855 -0.32136843 0.3679658 0.15749753 0.23944446 0.059813496 -0.27221298 0.09621575 0.1765228 -0.2539711 0.0755376 0.14782149 0.03796014 -0.11577264 -0.004129536 -0.2709643 -0.03594901 0.037685126 0.12457569 0.01076775 -0.039287627 -0.012312341 -0.18649165 -0.061893087 -0.13023043 -0.009060221 -0.07015691 -0.112606324 -0.050208613 0.01712999 0.08813493 -0.020201374 0.014102326 -0.11884724 0.07741069 0.2551035 -0.052690558 0.4318755 0.042440165 -0.12193898 -0.0855437 0.04003672 0.088649295 -0.025964119 0.35894254 -0.17415412 -0.174705 -0.07660331 -0.19721343 -0.16533409 -0.388036 0.20112671 0.13913098 0.48216996 0.2945527 0.288142 0.07552469 0.058174096 -0.00768933 -0.11123581 -0.39437088 -0.016501544 0.24194132 -0.23312862
70 1.0011235 0.08837454 0.07625959 -0.2402018 -0.15394118 0.15406896 -0.011713626 0.26389822 0.09480255 -0.2827738 0.015911115 0.048864555 0.10255928 -0.0061199307 -0.0917729 -0.15338248 -0.058342937 -0.02262789 -0.16786577 0.16517565 0.14283186 0.0052643763 -0.09707822 -0.12131106 -0.042142164 -0.1932084 0.21622923 -0.114034116 -0.0734209 0.059120998 0.22929901 0.044356078 -0.15224922 -0.068438105 0.034818456 0.22397259 0.048986487 0.34218198 0.08381285 -0.084613696 -0.09252122 0.21014543 0.06406304 -0.008431197 0.1487912 -0.107331425 -0.043898303 -0.0025621215 -0.2647402 -0.15081257 -0.27665368 0.13480255 -0.081253536 0.6330311 0.3072826 0.518702 0.17663157 0.20817302 0.079604544 0.050482284 -0.38663542 -0.21121852 0.122011386 -0.23302299
79 -0.99794865 -0.27899072 0.34837905 0.30147892 0.09163115 0.01704465 -0.2052955 0.053971384 0.2394134 -0.2481255 -0.0059998943 0.21242993 0.030895116 -0.23260225 0.017538073 -0.23265646 -0.10122099 0.0092153745 0.09219698 0.01577447 -0.06981268 0.05569253 -0.26547536 -0.04335224 -0.12398853 0.041874085 -0.16263205 0.070403144 -0.05534358 0.21666692 0.034317408 -0.10881235 -0.16327597 -0.1324706 0.18281758 0.30745888 -0.015413342 0.40338808 0.13129997 -0.10977311 -0.079464585 0.15802024 -0.029036915 -0.03547994 0.24592897 -0.12107075 -0.13470496 0.009673264 -0.18555683 -0.05235518 -0.3170587 0.2999846 0.22962123 0.5371952 0.2931507 0.43731207 0.13405803 0.015129823 -0.13972947 0.017984442 -0.2949213 -0.09315689 0.16101238 -0.054221705
133 0.96727186 0.0014318204 -0.070787095 -0.29903048 -0.1277595 0.16080986 -0.12780075 0.286493 0.095262125 -0.2893806 -0.07645791 -0.05397173 0.049159653 -0.07478888 0.018225724 -0.026912758 0.17504781 0.03313169 0.039809674 0.2043117 0.23615822 0.03913701 -0.18400462 -0.18638614 -0.100737266 -0.27902964 0.11289051 -0.037246484 0.08667482 0.22242363 0.2251369 0.016566046 -0.14488238 -0.03012433 0.016215272 0.17620622 0.040778436 0.30853176 0.113882855 0.0052012545 -0.23278496 0.22661857 0.09825895 -0.012788743 0.26950076 -0.10178879 -0.012075252 0.051367413 -0.18550497 -0.049040936 -0.3213209 0.11008858 0.08262157 0.5622065 0.31397465 0.5298937 0.14397003 0.07548813 0.08869683 0.11914214 -0.39909482 -0.14559788 0.20730296 -0.19193064
160 0.96842945 -0.09265472 0.08150771 -0.25212762 -0.27796417 0.08530273 -0.0037932966 0.26467985 -0.008929844 -0.2802503 0.00088414847 -0.08314395 0.08933528 0.007068973 0.0070042587 -0.07231749 0.1121681 0.056364093 -0.11646657 0.052645884 0.06430675 0.14900395 -0.07606971 -0.16010226 -0.09096429 -0.18560424 -0.000499386 0.006632951 -0.070882164 0.0322932 0.26835856 0.09571076 -0.16749994 -0.22264142 -0.021707311 0.22250922 -0.06702613 0.4798266 0.21698265 0.0005766417 0.024297785 0.075681314 -0.024657575 0.091196775 0.19657049 -0.12293903 -0.08388622 0.0015781425 -0.20530659 -0.25179622 -0.3030518 0.2766992 -0.14200597 0.57997173 0.20547187 0.5264639 0.08457152 0.1516285 0.07262749 0.018527366 -0.3031189 -0.38920927 0.21623065 -0.1717622
126 0.866333 -0.010880808 -0.20384666 -0.08093292 0.0066791354 0.16499573 0.03250617 0.18809289 0.24092957 -0.23531258 -0.15193805 -0.055739775 0.116776496 -0.05825663 0.11120347 -0.066353075 0.03700725 0.07946887 -0.047127504 0.21213843 0.18578787 0.055370335 -0.3320107 -0.1273701 -0.013931477 -0.09924008 0.10822431 0.03866673 0.060149334 0.045509823 0.043589905 -0.06099605 -0.2834946 -0.018689027 0.0057127145 0.28837442 -0.08874111 0.39393654 0.043331023 -0.015119777 -0.21146281 0.22902504 0.12425547 -0.08045334 0.21968485 -0.107308276 0.009135962 -0.14455622 -0.09375439 -0.123911515 -0.30215672 0.08342231 0.038061745 0.40015712 0.2636015 0.47759655 0.2767453 0.18116495 0.06932748 0.06176215 -0.34896404 -0.051894806 0.16100651 -0.36203197
111 0.72054493 -0.19590253 -0.16422725 0.033025227 0.07304081 0.17986977 0.017805943 0.075485975 0.20883745 -0.18711132 -0.19898818 -0.059593607 0.10050651 -0.08511473 0.05816563 0.00040359926 -0.08712055 0.20167986 0.050621986 0.14492802 0.096750304 0.20137571 -0.31329608 -0.06562989 -0.16544834 -0.15209445 0.16732709 0.107800215 0.14322475 -0.0074563916 -0.0017361027 0.10866251 -0.10475707 0.08105766 -0.04049135 0.35140112 -0.15650862 0.2633193 -0.0033118764 -0.116299726 -0.02305996 0.2595248 0.01977852 -0.1573713 0.26597217 0.12152662 -0.026996488 -0.20055419 -0.042556923 0.11847099 -0.28651962 0.09525211 0.12498741 0.40216392 0.11118937 0.44212508 0.09693382 0.08822638 0.024262028 -0.07087167 -0.4154669 0.010082904 0.03423067 -0.15666002
166 0.47471178 -0.071825095 0.024886208 -0.25328642 -0.20755576 -0.13842873 -0.053677365 0.09407697 -0.06288904 -0.055829965 0.033182394 0.13840052 -0.070529975 -0.095212385 -0.020304091 0.11404952 0.123028666 0.03532917 -0.12683702 -0.12461619 -0.23276691 0.01577925 -0.11375065 0.09679106 -0.050789222 -0.08936268 -0.08943262 -0.03825868 -0.010469174 -0.13946413 0.03209474 -0.17925714 -0.10298525 0.11243044 0.24029475 0.20912215 -0.10693904 0.2614587 0.335922 0.060441025 -0.10246696 0.20047732 0.102490924 0.14634027 0.1641196 0.035252005 -0.17590529 -0.025658308 -0.2558595 -0.081360646 -0.18602695 0.4139741 -0.069538906 0.3079884 0.07101858 0.47754183 -0.14508414 0.08983795 -0.17103744 -0.2407734 -0.28254828 -0.037834182 0.21093093 -0.14429624
249 0.72847474 -0.012593119 -0.23712748 -0.09211163 0.058163755 0.18964371 0.001581613 0.030522682 0.32537046 -0.16238119 -0.1738547 0.030834947 0.08301595 -0.14212473 0.07292752 0.010730951 -0.0035237574 0.14787811 0.059765704 0.1572388 0.10323533 0.24007781 -0.2422502 0.014422309 -0.24224226 -0.041851535 0.06422404 -0.0034599765 0.14366 -0.06967514 0.08252873 0.060983606 -0.17571855 -0.038691916 0.021067856 0.3468224 -0.03696001 0.33546478 0.046754405 -0.2754417 -0.02692605 0.27645394 0.14617607 -0.04900291 0.24622789 0.027648844 -0.09876599 -0.19147348 0.009340573 0.050858896 -0.28396434 0.12940744 0.20291293 0.3293685 0.1982664 0.41708443 0.03765514 0.07466458 -0.013289291 0.03269105 -0.35074216 0.06847996 0.0943352 -0.2194232
215 -0.7107506 -0.11817803 0.36273515 0.13541204 -0.13519214 -0.014236074 -0.12564883 0.19424404 0.13589327 -0.15529215 0.1647235 0.051529482 0.010812488 -0.18581115 0.09823298 -0.22645463 0.023819027 0.09358025 0.1094047 0.123306885 -0.010793008 -0.11493329 0.038692098 -0.09275806 -0.16390574 0.034580514 -0.052072227 -0.13456538 -0.15032536 0.08592968 -0.12838212 -0.3180589 -0.15050074 -0.046226323 0.0483658 0.23547165 -0.14588597 0.4018886 0.02662222 -0.03790623 -0.04084457 0.19680206 -0.035777338 -0.0063107554 0.25746503 0.060488746 -0.10291979 -0.09359844 0.025776992 -0.17601879 -0.2110796 0.21018496 0.13337623 0.34200886 0.05319613 0.48130393 0.073338516 0.07871581 -0.085240796 -0.00967106 -0.39413023 0.08180539 0.085335515 0.044439316
164 0.79291695 -0.03288165 0.057947006 -0.17940496 -0.2159771 -0.008010841 -0.06679906 0.05815446 -0.048709232 -0.14122708 0.16410851 0.15812184 -0.07420491 -0.089759775 0.011827662 -0.13550445 -0.07151536 -0.023132043 -0.31052223 -0.07747959 -0.12943342 0.11444357 -0.21763493 -0.012989198 -0.08177739 -0.20428966 -0.034199886 0.057263564 -0.1236115 -0.005030802 0.086128056 -0.07254133 -0.08530702 -0.06960971 0.019591268 0.17792049 -0.119581826 0.32876527 0.24849878 0.028791064 -0.09307166 0.20729584 0.060192466 0.1351927 0.34528157 0.07437652 -0.24946098 0.04396914 -0.24911597 -0.09722864 -0.28790033 0.12365158 -0.11405048 0.36993602 0.038603872 0.578924 0.091631725 0.08739185 0.00018589514 -0.1628438 -0.31775054 -0.15347025 0.28515217 -0.16100223
208 0.119018905 -0.14431286 0.031082472 -0.13942415 -0.14461064 -0.12877285 0.051558863 -0.008653334 -0.20386153 -0.06893767 0.09133889 0.18265174 0.1511403 -0.07791443 0.0474365 0.11004 0.13000725 -0.14159518 -0.13191798 -0.03491598 -0.31591552 -0.20866776 -0.029006345 -0.018053934 -0.04717253 -0.08541752 -0.12032104 -0.032285225 0.05416869 -0.08360485 -0.03181975 -0.11450827 -0.050046373 0.16455668 0.18444556 0.047488112 0.08296098 0.15359049 0.28284782 -0.039410304 -0.019961676 0.31229594 0.07916534 -0.0043826816 0.21112335 -0.07201536 -0.1495676 -0.20851387 0.022419514 -0.31639662 -0.17366858 0.4810466 -0.060444918 0.24426301 -0.04440554 0.47081172 -0.05860254 0.1486323 -0.14708732 -0.06548804 -0.39455345 0.07348933 0.38423327 0.020796023
218 -0.39497638 0.02220172 -0.09588783 0.17279823 0.084201425 0.09081115 -0.028650207 -0.133944 0.09407044 -0.17634806 0.06505239 -0.028188441 -0.113599084 0.20599695 -0.017795049 0.010321941 0.122603916 0.1667549 -0.042960204 0.041312635 0.08179943 0.30847368 -0.14379685 -0.06219167 -0.032073107 -0.23798543 0.24310984 -0.08639386 0.17877989 0.15761109 0.13705368 -0.08205574 -0.03520028 -2.0606414e-05 0.050716847 0.28547814 0.15846367 0.25571373 0.0154981 -0.15831245 -0.08549551 0.18603222 -0.028081208 0.17205045 0.21637143 0.06296161 0.10814807 -0.19977584 0.11968174 -0.07717377 -0.07894882 0.30017668 -0.03912173 0.023793556 0.098152354 0.5184087 -0.12786575 -0.13058686 -0.044565722 -0.008096513 -0.5219613 -0.18724707 -0.21775648 -0.19509286
121 1.0291439 0.03597059 0.10845567 -0.26771203 -0.21906745 0.034612034 -0.09976864 0.26481232 0.16693832 -0.18416001 -0.12039441 -0.026193935 0.0069003445 -0.11431296 -0.1811931 -0.0858882 0.044854615 0.10051939 -0.13570252 0.14797147 0.190266 0.028222486 -0.124367915 -0.17498846 -0.023392353 -0.26098248 0.09415619 -0.26130423 -0.02329265 0.13300332 0.105578974 0.10916908 -0.13274541 -0.16941397 0.07628261 0.33322105 0.034425043 0.4257221 0.07284057 -0.0046389108 -0.12229363 0.19411671 -0.050667528 0.038249042 0.22121997 -0.1148702 0.016443266 0.092262074 -0.18637857 -0.13369454 -0.32482737 0.15976055 -0.07544439 0.6054499 0.14408942 0.63015574 0.22456932 0.123177916 -0.060533483 0.011628018 -0.24201006 -0.33910182 0.19677234 -0.123392686
183 0.9165922 0.0055289664 -0.0070889834 -0.15557067 -0.22991355 0.061806094 -0.20896375 0.2607654 0.06122402 -0.20143555 0.019375099 -0.042352878 -0.08894908 0.008992863 -0.066355 -0.14345253 -0.13520384 0.056558196 -0.16704434 -0.07443393 -0.06280735 -0.01468135 -0.021476813 -0.044867784 -0.13145193 -0.2875993 -0.011721967 -0.06982272 -0.09188472 -0.06018543 0.19433995 -0.03238069 -0.12749124 -0.07837537 0.10800709 0.29961827 -0.016474746 0.37517017 0.15189168 0.045472603 -0.037630282 0.27868217 0.06131549 0.097328946 0.3606002 -0.13828349 -0.050575487 0.070602365 -0.16657445 -0.10255494 -0.2378131 0.18322265 -0.14678119 0.3343307 0.24889812 0.552102 0.059953943 0.2863009 0.045060605 -0.07478936 -0.29901546 -0.33998963 0.3700062 -0.1811386
113 0.298173 -0.02137059 -0.2351799 0.13377279 0.0758016 0.07655055 0.11158609 -0.037856504 0.2553078 -0.10594509 -0.018367665 0.049620185 0.044841513 -0.017724412 0.108973294 -0.059064787 0.022160603 0.17771904 -0.057827033 -0.07797618 0.029431792 0.3150684 -0.2229425 -0.07640699 -0.15260667 0.01780805 0.20695539 -0.015091208 0.3405713 -0.021224717 0.084242076 0.06808654 -0.24726947 0.022780811 0.053643044 0.41099653 0.040641554 0.09986384 0.05235354 -0.13807881 -0.020610578 0.13563125 0.08698749 -0.10827519 0.19829616 0.18736033 -0.01826721 -0.17162701 0.09110574 0.07743669 -0.2589854 0.1602669 -0.098520234 0.24186333 0.220813 0.38910925 -0.13118197 0.048648223 -0.0011172034 -0.013352306 -0.47122186 0.12754582 -0.04097167 -0.20392336
168 0.033825707 0.044659037 -0.18439794 0.22171655 0.1498214 -0.037946235 0.04579045 -0.103380315 0.12804022 -0.10404007 -0.0042196433 0.030686224 -0.05551055 0.11513341 0.025115166 -0.0668266 0.09170284 0.08859447 -0.009724603 0.026159989 -0.011198006 0.27745694 -0.19275783 -0.1534247 -0.16452576 -0.024255052 0.2319946 -0.093933575 0.2379331 0.044067793 0.17075752 0.056301083 -0.14908192 -0.029450545 0.0040615774 0.33949956 0.17910594 0.16784355 -0.21965793 -0.08311053 -0.06812073 0.10468116 -0.011487361 -0.13909966 0.3204761 0.2850929 -0.03776224 -0.11032323 0.17832693 -0.035082437 -0.18463345 0.15882199 -0.12996283 0.17344223 0.09976933 0.5008298 -0.2087356 0.04445069 -0.049245395 -0.10248651 -0.48857203 0.0076578506 -0.12995458 -0.19490583
120 -0.9930207 -0.2177945 0.4742812 0.064875424 0.12654398 0.08525316 -0.2000646 -0.12112481 0.3752555 -0.18856594 0.072809786 0.056495532 -0.11503586 -0.022413159 0.162531 -0.23831916 -0.14673772 0.03365713 0.09054185 -0.035959173 0.004375216 0.0023601225 -0.3232504 -0.047588326 -0.09496731 -0.021201054 0.038716156 -0.13236244 -0.0054242406 -0.0111644855 0.06853728 0.083160795 -0.046376135 -0.08615122 0.016694983 0.24289922 -0.014188853 0.42988145 -0.016950572 -0.08565171 -0.104178496 0.10799051 0.0847769 0.09230746 0.24110538 -0.12185498 -0.164035 -0.024906438 -0.17503826 0.068310075 -0.2595635 0.22185218 0.20609199 0.46182334 0.38963702 0.45812428 0.13854992 0.1586733 -0.081438154 -0.077796295 -0.37237573 -0.026983054 0.19879746 -0.12482308
22 -0.8888108 -0.106578015 0.35639313 0.10085741 0.09061244 -0.010155318 -0.051514797 -0.18510626 0.33991426 -0.21825631 0.06916767 0.044594932 -0.060318593 -0.029235058 -0.0025699094 -0.2927219 0.007743933 0.13377626 0.08614766 0.07371787 0.0705032 0.010807447 -0.21113373 0.011113404 0.064170405 -0.116685025 0.05022943 -0.22232701 -0.039933886 0.008773642 0.028549181 0.2193835 -0.07481013 -0.04875604 -0.08905328 0.20268983 0.033842362 0.40240216 0.044631884 -0.08049768 0.06915452 0.26247516 0.15234415 0.1316818 0.15332428 -0.14183417 0.086910635 0.04827591 -0.050949164 -0.022297075 -0.059562217 0.25538018 0.11407645 0.21264061 0.39133844 0.48764053 -0.0036985842 0.1510677 -0.07970779 -0.11736634 -0.4816066 -0.021183856 0.14476117 -0.36517456
216 -0.6400278 -0.017631244 0.106726944 0.1261457 0.08630946 -0.13129662 -0.106141664 -0.21433415 0.26783508 -0.1789221 0.112002045 -0.001341433 -0.23268807 0.18108255 -0.030816978 -0.13648789 0.044853207 0.09554219 -0.13510008 0.19224033 0.26467666 0.24413647 -0.15516855 -0.033407986 0.06102589 -0.20130669 0.15623996 -0.12032585 0.045735385 0.10907522 0.09100478 0.11300783 -0.039534118 -0.017527653 -0.0306062 0.16374005 0.11703123 0.29092357 0.03239175 -0.13525516 0.0050921603 0.3792665 0.13279787 0.14649224 0.15281951 0.014062437 0.19021535 -0.093763605 0.03363014 -0.15811846 -0.13472956 0.31414646 0.10817964 0.09332575 0.14322248 0.40043333 -0.020888058 0.052144237 -0.044543076 -0.14676084 -0.5461183 -0.1881425 0.003178976 -0.19865814
68 1.0177634 0.12769382 0.08512411 -0.17694002 -0.15094922 0.14908047 -0.019358253 0.19626504 0.052976247 -0.33156446 -0.16850653 -0.09985723 0.12183205 -0.06923735 -0.091786444 -0.106625676 -0.030156987 0.15396637 -0.087083146 0.12508744 0.20381229 0.07286004 -0.05167742 -0.08887677 -0.10980172 -0.2413605 0.11119142 -0.13482828 -0.08441403 0.14260477 0.17551847 0.10196537 -0.17594022 -0.16766037 0.033528227 0.19634949 0.14126824 0.4459518 0.18412025 -0.025470482 -0.121543534 0.2131803 -0.091263905 0.1482951 0.13577262 -0.12878773 -0.024966655 -0.046780564 -0.2642897 -0.18447773 -0.33575696 0.23459941 -0.06884356 0.5207726 0.30153108 0.6012548 0.23369071 0.21865192 -0.0074338266 0.0074415384 -0.2812749 -0.16611643 0.16919829 -0.18970434
147 -0.9411334 -0.22507446 0.3644241 0.10511059 0.0622271 -0.07870079 -0.059416637 -0.022263752 0.36457053 -0.22343372 0.102925725 0.08609889 -0.21026373 -0.095151484 0.018079229 -0.27337742 -0.06997492 0.12702999 0.10494288 -0.08868373 0.13338558 0.012654973 -0.23456699 -0.04380976 0.08859815 0.03968085 0.063886516 0.02589428 0.015396237 -0.013854438 0.09492343 0.14635365 -0.01776071 -0.14937012 -0.11035735 0.08563107 0.00882577 0.50643224 0.06636253 -0.09947478 -0.122461975 0.2417793 0.03727289 0.2105079 0.20055363 -0.127042 -0.036576785 -0.10862947 -0.056265336 -0.04102657 -0.17506227 0.24904618 0.14755727 0.34600964 0.2936376 0.5014726 -0.07319551 0.1878363 -0.05066265 -0.09384581 -0.42185944 -0.022244766 0.14599672 -0.27297357
44 -0.42379835 -0.071002714 0.043628756 -0.13069522 -0.19785528 0.019915951 0.09724153 0.16962984 0.03234347 -0.13975501 0.13465247 0.15339601 -0.030375207 -0.271776 0.19607729 0.07467054 0.12417261 0.07527137 -0.0074408264 0.18412456 -0.094392575 -0.26203904 0.083467156 -0.08396521 -0.052254718 -0.1053423 -0.1397066 -0.1939345 -0.08432094 0.016339203 -0.0023207332 -0.17395063 -0.1645043 0.17889096 0.12211516 0.06619261 -0.012605231 0.193417 0.13137211 -0.11383857 -0.06533066 0.26818478 -0.14793976 0.06283931 0.37396255 0.07084772 -0.07758131 -0.039644618 -0.06287685 -0.24665399 -0.15835415 0.28155047 -0.07433057 0.31610563 -0.16610287 0.31509218 0.0031113569 0.17017348 -0.22802767 0.101580694 -0.6401392 0.095897175 0.10489376 0.17580311
29 -1.0737089 -0.41240576 0.39067304 0.2154426 0.14254522 0.031811476 -0.14133435 0.17627108 0.26281723 -0.19447406 0.0354287 0.24684063 0.015222068 0.019058913 0.1967808 -0.20046222 -0.11498012 0.08549995 0.07157044 0.032760628 -0.010975479 0.02169824 -0.14918774 -0.047303636 -0.094548345 0.0019071053 -0.047438383 0.008954 -0.18192461 0.09964116 0.025245659 -0.23008075 -0.06966931 -0.095462196 0.23120032 0.36549336 0.04452489 0.4647549 0.03677055 0.022214744 -0.12385938 0.19962062 -0.04730757 0.0005670456 0.35736036 -0.15458705 -0.17273116 -0.04810591 -0.31573895 0.0037999044 -0.3674981 0.05399042 0.19593336 0.5629624 0.31686684 0.58825076 0.1397622 0.118897825 0.12739332 0.004286811 -0.27688795 -0.044166826 0.17847104 0.05257612
206 0.99240553 0.0908223 -0.02574284 -0.0681823 -0.16427948 0.24248545 0.005506353 0.23074993 0.15906963 -0.22772332 -0.09888238 -0.10261836 0.16789627 -0.1239189 -0.003029823 -0.08937062 0.13308279 0.07335157 0.14168254 0.1546028 0.24310595 0.011883047 -0.2649906 -0.1554052 -0.06550973 -0.24299031 0.14481483 -0.11084014 -0.010948209 0.049821395 0.16956124 0.035794314 -0.15554887 0.009529862 -0.040849503 0.20582321 -0.054283846 0.38891152 0.086969905 -0.122279055 -0.19048317 0.23327337 0.035290733 -0.060638063 0.21660139 -0.15860178 0.08836713 -0.35127696 -0.19288634 0.074211664 -0.31300163 0.16787066 0.09877782 0.5989273 0.31102994 0.5024026 0.21284749 0.06837826 0.019243259 -0.039565887 -0.34585175 -0.15466519 0.06000358 -0.22174008
74 -1.0725156 -0.39974365 0.34298983 0.12612699 0.10415987 -0.012589574 -0.20317532 0.08011899 0.32323074 -0.06871093 0.020770444 0.1848441 -0.05475947 -0.028510544 0.06812875 -0.21470891 -0.18370914 0.016876392 0.16203198 -0.039901715 -0.06324256 0.028226987 -0.2565954 -0.030852277 0.026881134 0.056933336 -0.108620174 -0.032101072 -0.08637461 0.072589025 0.1920271 0.012199318 -0.08741347 -0.21795382 0.10737344 0.25340635 -0.0086319465 0.43725553 0.09389384 0.023816407 -0.18571186 0.11433442 -0.000687937 0.058215596 0.3055347 -0.06119519 -0.18947971 -0.016771587 -0.17855032 -0.13907298 -0.39566216 0.17259356 0.16358893 0.5302765 0.5015203 0.48028928 -0.0009590994 0.1130512 0.0119173685 -0.12169466 -0.36270472 -0.13112226 0.20026244 -0.090728305
138 -0.2823048 0.07842261 -0.14573659 0.29522797 0.14335908 -0.100692235 -0.028100347 -0.1748794 0.123623505 -0.23771913 0.0947319 -0.06306759 -0.058477115 0.21500795 -0.049366772 -0.010161899 0.11079836 0.010377077 -0.07481804 0.14051624 0.07155583 0.40574607 -0.10658594 -0.034833156 -0.10052034 -0.07188911 0.30486587 -0.043607455 0.18226576 0.10180744 0.18232733 -0.023365324 -0.121987574 0.014458447 0.022682806 0.18356383 0.11456147 0.24940433 -0.052505773 -0.034245033 -0.015488404 0.14428787 0.10886291 0.092129044 0.30437803 0.16294898 0.10901296 -0.097940624 0.033236697 -0.10616699 -0.036523625 0.20847814 -0.095604524 0.20113921 0.09398347 0.43226597 -0.15495312 -0.0014494691 -0.0765414 -0.103791974 -0.58685446 -0.033065375 -0.16281796 -0.10986885
177 -0.05220842 -0.0811003 0.06377868 -0.1690227 -0.14570083 -0.0029846283 0.14931755 0.09930529 -0.112697124 -0.1616252 0.093820885 0.15818672 0.12998106 -0.08968758 0.1615847 0.21439403 0.0814559 -0.086281426 -0.04184496 0.053466372 -0.36605927 -0.24231541 0.070282586 -0.010607009 -0.010171172 0.048357178 -0.06442472 -0.13260965 -0.022619806 -0.18489753 0.09520197 -0.09011472 -0.04646444 0.22528675 0.20161381 0.12361127 0.06409906 -0.020662587 0.349776 -0.046969496 -0.014416415 0.3300029 -0.008832305 0.018691272 0.20268802 0.03180517 -0.07682024 -0.0620321 0.045996323 -0.119793735 -0.20756999 0.5086134 -0.08637512 0.31251058 -0.09433784 0.54785293 0.04731493 0.20429912 -0.07809701 -0.090276375 -0.41226846 0.009285342 0.22878638 0.10992308
176 -0.17639829 -0.06583865 0.03331418 -0.07407691 -0.1006607 0.013928345 0.07419876 0.15584749 -0.07435577 -0.088494286 0.12561694 0.051452093 0.03210914 -0.112782896 0.03300709 0.098983005 0.16260885 -0.10280385 0.09279537 0.0066787684 -0.30153757 -0.30278045 0.11494716 -0.056510124 -0.01692433 0.06814257 -0.07311749 -0.14210817 -0.04067166 -0.02919774 -0.03186345 -0.14641899 -0.0360662 0.16605386 0.24452357 0.020201862 0.09939597 0.09891429 0.17116214 -0.0947164 -0.11421955 0.40228716 0.06498244 0.08886202 0.26498446 0.03420977 -0.1442809 -0.09803916 0.15519051 -0.20909116 -0.10199606 0.3975907 -0.07642558 0.34618106 -0.16330464 0.5196101 0.05387112 0.21367401 -0.12841122 0.045223966 -0.5194818 -0.07463599 0.24934426 0.23678106
33 -1.0872947 -0.461211 0.30454987 0.16109319 0.1312785 -0.04094436 -0.12694111 0.109530576 0.31351197 -0.22469206 -0.03235291 0.07330763 -0.16409783 -0.035435285 0.18309364 -0.27211666 -0.07550218 0.020355059 0.13612124 -0.08978182 -0.11195776 0.13720612 -0.3646347 0.045583516 -0.056397893 0.03330317 -0.12423113 -0.0651325 -0.107498094 -0.07807276 -0.055455763 -0.13728774 -0.080189474 -0.2586317 0.13096815 0.41885766 0.067497425 0.356934 0.07394669 0.10937894 -0.17239891 0.03427111 0.03320763 -0.04898246 0.38971663 -0.24633753 -0.21572816 -0.051402315 -0.21289857 -0.09078265 -0.3811078 0.1206702 0.11562895 0.5838576 0.3534367 0.5187538 0.12962358 0.14049378 -0.05009692 -0.2237452 -0.30885327 -0.2375004 0.16489121 -0.015960952
41 -0.10332395 -0.23463728 -0.044447552 -0.04416915 -0.1354174 -0.054784637 0.13245012 0.20109089 -0.26167 -0.027638916 0.010579653 0.13526434 0.032404356 -0.15196028 0.12489393 0.121357076 0.11547938 -0.032194957 0.026970489 0.093250155 -0.26012492 -0.27096033 -0.057145987 0.124982074 -0.07725054 0.06035592 -0.06819566 -0.08893244 -0.053795815 -0.11825809 0.019028941 0.020428035 -0.19088851 0.27312353 0.17453128 0.012074915 0.09940756 0.14994097 0.29672462 -0.109820515 -0.12257293 0.28631273 -0.06014124 0.17640828 0.29148722 0.05080009 -0.111655556 -0.075212695 0.073193006 -0.27980322 -0.19891512 0.45471007 -0.18075548 0.27623966 -0.1483006 0.43200067 0.07139566 0.15378645 -0.16566953 0.09800807 -0.48105195 -0.039425872 0.30411914 0.019284396
52 -1.0483019 -0.4553378 0.353213 0.21959521 0.22554903 -0.06586068 -0.21782412 0.16134639 0.06950961 -0.22183634 0.08806702 0.14945628 0.1209778 -0.11792859 0.19189905 -0.24826813 -0.094837286 0.10143303 0.122115485 0.008153942 0.0667412 0.07689042 -0.13438068 0.029422106 -0.20934743 0.08454706 -0.11559968 -0.07862178 -0.06040493 0.10794084 0.057246033 -0.24626295 -0.15005778 -0.18339469 0.27578142 0.37504828 -0.0511929 0.40182835 0.1069584 0.013991647 -0.025276164 0.16547906 0.06637504 -0.0915741 0.23139794 -0.20159426 -0.36129904 -0.07446335 -0.1911528 -0.089180276 -0.25496057 0.061534006 0.14653385 0.5658968 0.3694229 0.5489906 0.15932919 0.028873198 -0.13599631 -0.054618552 -0.33162242 -0.08101124 0.2519735 0.068380885
77 0.8830531 -0.1279778 0.08353769 -0.17681625 -0.3517885 -0.06191054 -0.15856753 0.15362892 -0.017058814 -0.14744268 0.09917133 0.058316555 -0.0853844 -0.20208456 -0.051473945 -0.04814536 -0.02895997 0.062117554 -0.20365393 0.0536787 -0.20423353 0.15695646 -0.053299055 -0.00024132656 -0.1352597 -0.16188262 0.06256846 -0.096194305 -0.061933536 0.052580155 0.18246031 -0.15877101 -0.14886974 -0.17815214 0.07073666 0.21036 0.011716404 0.25029024 0.25978982 0.14238371 -0.04246202 0.13331044 0.11649242 0.04841134 0.38349125 -0.06315468 0.075693086 0.10935685 -0.2024285 -0.07598697 -0.2604212 0.2650136 -0.19639044 0.33967388 0.16987383 0.6052822 0.12009832 0.17478007 -0.00011649009 -0.040327955 -0.3137471 -0.279919 0.3417083 -0.20276739
57 -0.8526704 -0.22391288 0.33645275 0.16272981 0.009802338 -0.120066985 -0.23726295 0.19624276 0.08238556 -0.09888154 0.16374803 0.06334264 0.012095785 -0.19283146 0.19432713 -0.25735646 0.054057006 0.07484265 0.16752149 0.04226867 0.034048934 -0.07965163 -0.0715204 -0.122696824 -0.1353958 -0.039251145 -0.186502 0.011066141 -0.13239546 0.18534979 -0.0841597 -0.22423899 -0.16425338 -0.057541538 0.07209929 0.4029079 -0.17469099 0.33870614 0.124855384 -0.13613857 -0.08131979 0.096907526 0.14186595 0.0454278 0.25130343 -0.020756241 -0.093972154 0.027014043 -0.0033071947 -0.14788592 -0.2512083 0.22391534 0.25206822 0.52881634 0.097393654 0.47693208 -0.0064137555 0.0055167857 0.06169804 0.039055508 -0.4003392 0.06969098 0.06989394 0.083591074
11 -1.1557735 -0.51575476 0.23149934 0.20008522 0.18973869 -0.049538836 -0.088856444 0.0014583125 0.2723813 -0.17872515 0.034558453 0.25287187 0.11887994 -0.105411015 0.14117458 -0.29470465 -0.2062502 0.114889205 0.16549478 -0.17144518 0.014490961 -0.0043296474 -0.25438398 -0.059676014 -0.120608106 0.008816113 -0.013904236 -0.11196756 -0.10617677 0.03963166 -0.10035047 -0.25069875 -0.081807464 -0.27542296 0.11851602 0.4637863 0.063781545 0.35380146 0.14447442 0.010374036 -0.094399095 0.13101861 -0.060935576 0.10528345 0.47175476 -0.12770212 -0.21505356 -0.17942041 -0.22889505 -0.0030423834 -0.28743878 0.10134175 0.33202875 0.6422576 0.33524317 0.6014191 0.2829978 0.06891664 -0.07504418 -0.07552329 -0.257645 -0.13629282 0.29824865 -0.02110153
19 1.019303 0.11612795 0.09897463 -0.2811671 -0.25757983 0.08633932 -0.013540795 0.119673274 0.03709699 -0.32533115 -0.05005323 -0.07611068 0.11763729 -0.048264064 -0.17355677 -0.19712397 0.023637064 0.03444693 -0.21786724 0.020130092 0.08786447 0.004981523 0.0009433622 -0.10347808 -0.15161508 -0.19980496 0.05154085 -0.16439356 -0.11705677 0.17130665 0.15085484 0.16691142 -0.01945352 -0.19978882 0.1380578 0.3934045 -0.0053043263 0.40291247 0.13448025 -0.042945188 -0.049198993 0.25624657 0.028195545 0.073787436 0.33097082 -0.26178876 0.018287126 0.060586058 -0.21496996 -0.26233688 -0.2538694 0.16529456 -0.11092175 0.5807243 0.20811063 0.54937094 0.19382648 0.05439133 -0.0029586505 -0.081546664 -0.3069165 -0.34000352 0.2041657 -0.0901761
226 0.8434412 -0.05270685 -0.31708696 0.022541746 0.008289935 0.1665429 0.01713417 0.11756618 0.34081933 -0.17353575 -0.2353506 -0.07605302 0.08757908 -0.032119207 0.12524848 -0.031879544 -0.06278361 0.120164774 0.14077389 0.24242128 0.22665088 0.09820875 -0.23251876 -0.121486336 -0.18869577 -0.07630443 0.06701192 0.005259618 0.024840705 0.0048990017 0.095632605 0.12782797 -0.07717795 0.04843065 -0.073056154 0.33887833 -0.048855904 0.38378838 0.20979893 -0.047614083 -0.1316031 0.11832288 0.16366415 -0.17088003 0.18162678 -0.07231281 -0.06017082 -0.2580712 -0.11850747 -0.044756275 -0.29086164 0.13607799 0.15298973 0.44788882 0.115539 0.47957742 0.17839186 0.13246164 0.114117235 0.016935527 -0.4546893 0.006392831 0.0067701917 -0.34640664
49 -0.97616017 -0.18620022 0.3361141 0.09581005 0.09820254 0.010999528 -0.13686566 0.22854425 0.111135036 -0.22244482 0.0641799 0.23471822 0.11652237 -0.20785739 0.10711007 -0.269021 0.0107914675 0.09592731 0.1363963 0.09859479 -0.029317018 0.012003968 -0.07922481 -0.05656737 -0.24566102 0.06491848 -0.17647003 -0.04478312 -0.07240491 0.13519491 -0.090048306 -0.24253847 -0.103604436 -0.24121618 0.056398068 0.17071177 -0.106227055 0.34494388 0.04362435 -0.11706148 -0.009615046 0.13681298 0.029646898 -0.04350886 0.30282333 -0.0576039 -0.22129169 -0.049131162 -0.22639175 -0.103039026 -0.2917136 0.30362484 0.22211623 0.5853154 0.11110943 0.5205755 0.17169866 0.039019525 -0.010858244 -0.019114686 -0.3128504 -0.07374375 0.01311769 -0.0116235195
140 -0.33675513 0.06345475 -0.010012402 -0.0009717433 -0.094808064 -0.07937168 0.09649247 0.25460374 0.02708259 -0.042055715 0.18979606 0.09339849 0.0356401 -0.21602406 0.15436007 -0.017966406 0.030419705 -0.017786793 0.16489917 0.089776166 -0.12211804 -0.26891688 0.07341295 -0.0070299986 0.0046571307 -0.075095706 -0.16375293 -0.097681865 -0.10951137 -0.004129548 0.16655527 -0.2005449 0.0005612759 0.15221754 0.2617497 0.07364297 -0.025141628 0.12241697 0.15912628 -0.15238698 -0.08582902 0.2245584 -0.0807687 0.13605112 0.23004518 0.027992839 -0.20728855 -0.058186803 0.07133903 -0.29177803 -0.062007103 0.37481296 -0.16374888 0.47223857 -0.19248201 0.3825498 0.10098793 0.18972617 -0.10282984 -0.017616028 -0.5945684 0.10519517 0.15705791 0.1683108
163 0.57372963 -0.114909306 -0.35883018 0.12357155 0.111755334 0.025149897 0.20878915 0.04185742 0.28192058 -0.08389014 -0.22721702 -0.11637981 0.12365759 -0.28263634 0.057762895 -0.07363743 0.11220247 0.22361347 0.08912987 0.10682953 0.1258783 0.13640672 -0.2505032 -0.10519187 -0.27713963 -0.019851288 0.12877823 0.045261275 0.211575 0.018800084 0.07777231 0.1322972 -0.07563 0.0015489898 -0.012522967 0.36012244 -0.09988025 0.2466003 -0.079222634 -0.17618443 0.02823314 0.15654196 0.20547953 0.038944695 0.18773523 0.15002745 -0.06741325 -0.24099505 0.017027747 0.114707276 -0.23832308 0.13046953 -0.008052089 0.39026803 0.26800248 0.5345524 0.01497469 0.07479021 0.07885229 -0.0957396 -0.34560588 0.031713895 0.0024348842 -0.13154882
144 1.04577 0.1584985 0.06779394 -0.20316869 -0.1560603 0.08861923 -0.0053113494 0.34420335 0.023935521 -0.29397067 0.012842117 -0.037864912 0.13117628 -0.029041737 -0.022254638 0.004532019 0.097437 0.06313821 -0.1778779 0.23317869 0.22450449 0.01578453 -0.023011206 0.06221352 -0.111008644 -0.18957713 0.18943495 -0.2672552 -0.0026733591 0.11362041 0.16260067 0.16811071 -0.1625351 -0.018300418 0.027285347 0.31984454 0.046453785 0.46464458 0.14852732 -0.016250856 -0.09337922 0.111733004 0.1428972 0.06964896 0.103283614 -0.15015547 0.14587219 0.02925651 -0.23301741 -0.20015454 -0.37520686 0.1742712 -0.0770843 0.6353933 0.38522574 0.6330798 0.27716917 0.19249587 -0.071306616 0.10217513 -0.26672152 -0.2565321 0.19713733 -0.2713519
136 -0.47002506 -0.04449485 -0.0918944 0.23521452 0.10842679 -0.23689504 -0.12385005 -0.2330302 0.14630398 -0.07127527 0.123220146 -0.092839904 -0.016700279 0.19534697 -0.060708992 -0.0052578244 0.13567099 0.064580955 -0.03935717 0.29442084 0.2253432 0.24523714 -0.17019433 -0.023739597 -0.03677517 -0.097129725 0.27406847 -0.089185774 0.11985415 0.15917565 0.20395555 0.056746464 -0.1396932 -0.07053609 0.22150931 0.118238695 0.11452603 0.27700952 -0.031745493 -0.15441766 -0.030959563 0.19283175 0.014520172 0.18840379 0.26559573 0.07156599 0.2532505 -0.09510666 0.05515559 -0.05026363 -0.11839341 0.2383222 -0.029019343 0.04656277 0.05629239 0.483628 -0.05243043 0.07109311 0.0048403176 -0.15766148 -0.5755982 -0.15902181 -0.10271895 -0.3648419
148 0.9933753 0.032103915 -0.11077366 -0.09260718 -0.18638682 0.08218046 0.109892145 0.31191236 0.16336823 -0.3453865 -0.09202647 -0.12062669 0.20316677 -0.022063408 -0.08023719 -0.14365463 0.20761058 -0.023744106 0.06347752 0.20490964 0.27378005 -0.056333855 -0.13470107 0.02638823 -0.13173923 -0.28053057 0.20780838 -0.1355158 -0.048552815 0.07041344 0.044087406 0.03251254 -0.127298 0.079038486 -0.036378644 0.22834907 0.021332394 0.47626925 0.09220323 -0.04189706 -0.22914769 0.20591633 -0.064630166 -0.011628376 0.21723874 -0.27526227 0.04002958 -0.036010534 -0.1797121 -0.022786159 -0.37670067 0.16351962 0.025433822 0.6036384 0.39182824 0.5335186 0.25631782 0.16533795 0.08186362 0.1803185 -0.35741878 -0.19989525 0.0048097884 -0.22031032
32 0.95369565 0.023344964 -0.23280354 -0.06186535 -0.037233226 0.20720956 0.14849792 0.16700813 0.31591815 -0.33851063 -0.058611672 -0.13764521 0.105423644 -0.100942634 0.012722145 -0.014632318 0.1416912 -0.023723891 0.10357146 0.23511463 0.22482707 0.12192549 -0.23321858 -0.017765848 -0.08468375 -0.20367694 0.07556553 0.06753934 0.03206919 0.061833907 0.119192444 0.12935849 -0.19292076 -0.012038979 0.02545019 0.24609886 0.049083702 0.482186 0.010694974 -0.04115005 -0.2016448 0.232525 0.17096247 -0.15733433 0.17779475 -0.1798164 -0.09975465 -0.17048034 -0.2650297 -0.04672741 -0.2943324 0.18108982 0.21892034 0.5361087 0.24270548 0.5131712 0.3521582 0.026432717 0.073033474 0.0866721 -0.3552635 -0.041219506 0.04552218 -0.26815766
194 -0.5852313 0.015391513 -0.07953462 0.001822624 0.24544235 -0.02198008 -0.20175564 -0.30901495 0.18108587 -0.15699017 0.2201609 -0.04998235 -0.14149001 0.2695087 -0.06878527 -0.2091324 0.11289357 0.1558678 -0.14591677 0.1624397 0.173195 0.21738325 -0.15791488 -0.03446358 0.00086013594 -0.18341172 0.19596964 -0.13063404 0.053636268 0.12051331 0.17245549 -0.0023002226 0.02366757 -0.06898153 0.019374315 0.12172548 0.019450516 0.33025178 0.07167258 -0.2505881 0.05454057 0.33351454 0.13150728 0.06267479 0.33656648 -0.059395604 0.14023808 -0.1367187 0.030957686 -0.061475843 -0.069227085 0.29218823 -0.048695747 0.0952558 0.12922473 0.33307973 0.011159246 0.05836209 -0.060188137 -0.23348986 -0.61024684 -0.17527634 -0.15926795 -0.20611945
223 -1.2094289 -0.421177 0.20469683 0.19455236 0.17011449 0.015081816 -0.03847958 -0.025974145 0.3167901 -0.30917284 0.04684719 0.27405208 0.019085256 0.007771574 0.19396114 -0.242354 -0.17015001 0.06787179 0.117402025 -0.11568526 -0.06347893 -0.020134162 -0.39786598 -0.039240833 -0.064546876 0.08630629 0.010406526 -0.17839874 -0.18975285 0.02717464 0.15242319 -0.16945457 0.042762946 -0.26150638 0.27082872 0.39143804 0.052022275 0.34864384 0.20221116 0.0048163175 -0.042255703 0.19379054 -0.0041462188 0.03615451 0.39568636 0.0034867274 -0.16831271 -0.10761172 -0.39220977 -0.12961516 -0.36274922 0.09091914 0.17403053 0.7515185 0.5289823 0.47950658 0.11676469 0.10789206 0.07584129 0.07728569 -0.25042444 -0.09787127 0.2763655 -0.007874294
