266 64
81 0.02335743 -0.24651736 -0.19825163 0.22209531 -0.66373044 -0.2921701 -0.06619218 -0.015363087 -0.19812898 -0.38392785 0.6402687 0.31883994 -0.06596714 -0.033653814 -0.025330022 -0.040633645 0.10446576 0.097366616 0.0075640082 0.1006789 -0.032514483 0.22144717 0.16277307 -0.10608426 -0.20777828 -0.08058557 -0.23775348 -0.13397488 -0.017067114 0.18231888 -0.018174894 -0.122806676 0.040349547 -0.12374027 -0.054545566 0.032932818 -0.010911136 0.0039178543 -0.14840525 0.14831169 -0.09794864 -0.02350181 -0.20922866 -0.0188787 -0.105671495 0.24443261 0.19045797 0.0607933 -0.14219974 -0.2721958 0.13906416 0.31206277 -0.14419949 0.09390653 -0.09902953 -0.091760784 -0.14281258 0.3944454 -0.05592858 0.037716582 0.22344127 -0.059280477 0.0043296474 -0.22209837
78 0.050163686 -0.27020186 -0.20391934 0.2530077 -0.7476839 -0.3172496 0.021049017 0.040312275 -0.083687864 -0.26654655 0.70963365 0.27908355 -0.03270161 0.075238496 -0.07846687 -0.041815843 0.19914734 0.07787755 0.0029322966 0.13974684 -0.10054017 0.22058883 0.082747735 -0.05176848 -0.08428712 -0.0021800122 -0.16971892 0.07307858 0.007318943 0.10411679 -0.0005952292 0.008744254 0.16466232 -0.11707628 -0.08508645 0.061050434 0.0155578535 -0.06856282 -0.14030848 0.1638369 -0.0915709 0.0014119762 -0.050260067 -0.028039955 -0.12783141 0.20840172 0.20901965 -0.06549228 -0.20331644 -0.1798785 0.22646226 0.24837512 -0.12359644 0.06160978 -0.05193724 -0.031568944 -0.19030888 0.40213063 -0.027752992 0.0012445644 0.27727136 -0.0068210945 0.08944351 -0.16138165
88 0.031676922 -0.2561475 -0.18691918 0.22955911 -0.622347 -0.3877285 -0.009901144 0.05211038 -0.11842678 -0.3408788 0.6677468 0.3780595 -0.019006927 0.008584008 0.016718483 -0.060833048 0.042833015 0.16343874 0.04244361 0.17036465 -0.15171424 0.10192989 0.073290065 -0.1256911 -0.13485025 -0.0036957664 -0.15547019 -0.003456781 -0.060633484 0.026093971 0.07682979 -0.10161187 0.08206735 -0.1384162 -0.00359553 0.0030555418 -0.041220617 -0.010346791 -0.20515706 0.1411575 -0.058451895 0.05090916 -0.09055911 -0.10198583 -0.08363349 0.20394334 0.22440003 0.011206401 -0.16855446 -0.25599626 0.2019887 0.252951 -0.075817674 0.0057018725 0.0012990094 -0.043326512 -0.18219201 0.47935832 -0.102281846 0.0568803 0.19786327 0.011671886 0.0076419585 -0.18537977
74 0.04617318 -0.26015016 -0.1633673 0.2525337 -0.69378024 -0.4539359 -0.08185514 -0.034100212 -0.03922317 -0.44806567 0.68137926 0.24439089 -0.025759587 -0.011040195 0.12793665 -0.075043805 -0.069923736 0.023262575 -0.004479601 0.13378106 -0.046280656 0.2100012 0.13029113 -0.042401474 -0.118379235 0.033412524 -0.1929678 0.118516296 -0.014899832 0.12921944 0.02234967 -0.09212157 0.07722931 -0.055628944 -0.046987873 -0.071595766 -0.13513476 -0.098832235 -0.22432618 0.24065557 -0.102434196 0.007903923 -0.11395947 -0.09644003 -0.11436116 0.2419992 0.2569983 0.07193591 -0.1717117 -0.32324657 0.16305162 0.26337835 -0.11492733 0.11318947 -0.017525675 -0.035109993 -0.09558177 0.34290576 -0.10332783 0.07967421 0.27108616 0.049234934 0.03008839 -0.27889708
67 -0.026152337 -0.23687038 -0.11165548 0.21994986 -0.7897022 -0.3933948 -0.06532497 -0.023733005 -0.17597696 -0.3995492 0.73347396 0.19769634 0.040813647 0.09480526 -0.07242879 -0.060621217 -0.004631174 0.03430722 -0.05048016 0.14134601 -0.031602364 0.24417637 0.076597184 -0.061156347 -0.14992844 -0.038822655 -0.08785625 0.07960039 -0.05979651 -0.018630803 0.0054519386 -0.06457387 0.10007274 0.005362015 -0.0025492422 -0.05481434 -0.17445642 -0.19195862 -0.21791828 0.13915989 -0.015986368 -0.13403863 -0.09409688 -0.032648895 -0.2710974 0.14654204 0.12832849 0.014262303 -0.24110195 -0.21993843 0.22488394 0.35858446 -0.030501967 0.19566262 -0.047212236 -0.12751718 -0.14735025 0.44553566 -0.14606343 0.1120682 0.40025708 0.043432105 -0.010063358 -0.27550456
89 0.10545273 -0.20788093 -0.22997226 0.29513973 -0.62475014 -0.39476627 0.004078304 -0.056406833 -0.09903361 -0.44014218 0.6664988 0.36503986 0.041472606 0.007869998 0.12238235 -0.051561616 0.04289418 0.045498095 -0.020314842 0.08049679 -0.09639573 0.21515004 0.19984894 -0.07791621 -0.22753464 -0.1459747 -0.07240329 -0.034818422 -0.048971698 0.00915911 0.04939559 0.04159146 -0.07320911 -0.18581416 -0.00087446213 -0.17157406 0.08308667 -0.08350103 -0.110719025 0.067072704 -0.0654963 -0.025463212 -0.1964215 -0.068790324 -0.09389851 0.26797956 0.2771331 0.06486078 -0.10833199 -0.32833922 0.15884252 0.25293028 -0.08069242 0.09403619 -0.14680871 -0.044040546 -0.1496637 0.38404596 -0.11405493 0.0684995 0.15575087 0.03108585 -0.049893048 -0.30443355
97 0.008694557 -0.31346712 -0.26330432 0.22849804 -0.5649847 -0.27522665 -0.031912692 -0.073167995 -0.0056230794 -0.26590008 0.7698445 0.4069225 -0.024143862 0.008424944 0.019044882 -0.07415949 0.08732967 0.048404932 -0.006899182 0.12912805 -0.053178128 0.18516226 0.11574101 -0.04481087 -0.005191857 -0.027264478 -0.20425323 0.026738822 0.07777879 0.055845052 0.106728904 -0.03427827 0.10769041 -0.09927572 0.012501207 -0.08823563 -0.03216834 0.020142227 -0.17300284 0.2294603 -0.12885259 0.0985539 -0.21058717 0.04869757 0.049742583 0.20632766 0.13364787 0.014181173 -0.09466664 -0.23560147 0.13907602 0.23327607 -0.10777756 0.08554164 -0.016900279 -0.05164848 -0.13510098 0.37717152 -0.08095175 0.053522974 0.15969478 -0.024457615 0.13952447 -0.20139098
71 -0.009367681 -0.2635126 -0.13774468 0.26278904 -0.80963415 -0.35227948 -0.04810562 0.057922333 -0.123743035 -0.33125725 0.62079996 0.28676972 -0.107102096 0.13133839 0.002582686 -0.08003316 0.07473587 0.09979249 -0.16695753 0.12728715 -0.011598658 0.16150361 0.08149604 -0.044037383 -0.0940939 -0.04242272 -0.24642882 -0.00014469416 -0.08074092 0.07292374 0.007229826 -0.14516613 0.27833098 -0.15379536 -0.021519907 0.060831167 -0.03681906 -0.01252141 -0.0866851 0.1725076 0.007881081 -0.009845052 -0.16574523 -0.04965489 -0.15438963 0.2341126 0.25783426 -0.0020332779 -0.18530951 -0.23326507 0.22819878 0.30077016 -0.1410276 0.12861425 -0.0059957346 -0.06310952 -0.116971314 0.3179884 -0.13342364 0.023776993 0.33597034 -0.054444786 0.075148724 -0.2765826
80 0.13266957 -0.17831126 -0.14916952 0.36178005 -0.6991993 -0.35903037 -0.054690707 -0.20204008 -0.1550704 -0.46086648 0.7002959 0.32071295 0.01822173 0.039913937 0.0020782202 -0.14564094 0.11244854 0.18801916 -0.004913192 0.11797462 0.023452139 0.20144373 0.16788843 0.051797282 -0.18294321 -0.051005755 -0.06480014 -0.01901347 0.055454377 0.10046079 -0.061088145 -0.085034676 -0.0213714 -0.053117502 0.021977758 -0.037035067 -0.04792194 -0.06761155 -0.14187796 0.066066585 -0.10280842 0.0011248769 -0.0976334 -0.097585835 -0.20221372 0.34941968 0.25808203 0.13148127 -0.17126821 -0.2935077 0.13582036 0.27541205 -0.057091814 0.12025725 -0.085935414 -0.07338528 -0.00016763803 0.34135938 -0.16016148 0.12625653 0.17195821 0.040039204 -0.03398774 -0.25136212
85 -0.086929515 -0.31137517 -0.20483546 0.2320974 -0.6586934 -0.3024508 0.042392757 -0.009781156 -0.12195547 -0.3027251 0.6753209 0.36934826 -0.06375769 0.08731237 0.010435726 -0.094872884 0.04212039 0.033544656 -0.057910815 0.102204144 -0.10649782 0.19302312 0.10363611 -0.08608666 -0.0068673166 -0.008027253 -0.09930519 -0.041944534 0.027866965 0.19302607 -0.018246854 -0.14833997 0.26069573 -0.029983 0.023119422 0.02172727 -0.050190628 -0.07901415 -0.17200471 0.15953836 -0.046203014 0.03505145 -0.23126629 0.019339927 -0.047079943 0.17602302 0.11574748 -0.0066628824 -0.21122377 -0.107615486 0.2461035 0.16990255 -0.20277894 0.020831533 -0.082188845 -0.09925239 -0.18095657 0.37514183 -0.034657653 0.06504002 0.33061677 -0.0041578813 0.062373392 -0.20028618
69 -0.05378615 -0.2209719 -0.13850431 0.18572715 -0.8382426 -0.27381814 -0.08331984 0.0055847825 -0.028896712 -0.37768432 0.72803855 0.18853995 -0.030952562 -0.020891994 -0.0797306 -0.059940618 0.06921757 0.07652854 0.009049333 0.10413851 -0.0376343 0.1515005 0.1267855 0.019861864 -0.11253956 0.066070594 -0.23831172 0.0704134 -0.07200371 -0.008390248 -0.020296523 -0.113544986 0.10985566 -0.1231252 -0.013605285 -0.058247488 -0.15867884 -0.1349841 -0.18668032 0.22790235 -0.05852122 -0.010472775 -0.15478025 0.023626238 -0.1293806 0.23440725 0.31327 0.033773288 -0.18700312 -0.20512177 0.19220756 0.35910392 -0.07906903 0.09696558 0.017220406 -0.091411725 -0.10894639 0.4396907 -0.10311757 -0.04667114 0.31674808 0.008799634 0.08285841 -0.28175792
64 0.078817666 -0.20346126 -0.14890482 0.15950692 -0.865662 -0.3699059 -0.10848168 0.01909231 -0.14141934 -0.40858307 0.6860771 0.15483028 -0.018971669 0.063807465 0.036705274 -0.038902327 0.09325507 0.1474546 -0.11314812 0.12655167 -0.114023216 0.276696 0.18439552 -0.016748188 -0.14168867 0.01203718 -0.18284354 -0.060610253 -0.0062891943 -0.047738302 0.07681932 -0.1359851 0.10698992 -0.029154114 -0.10817281 0.012502547 -0.18919516 -0.12980081 -0.12682655 0.31588593 -0.011041701 0.0022494846 -0.16513102 0.01392972 -0.24189837 0.27554905 0.14605938 -0.0070893457 -0.29454675 -0.22695488 0.14136712 0.29221892 0.038357235 0.17478281 -0.03235017 -0.085306734 -0.19364545 0.3914266 -0.13352086 -0.0178831 0.39815935 -0.0039566034 0.054660875 -0.21417068
96 0.10848726 -0.21698065 -0.2352735 0.29760912 -0.46824625 -0.36352333 0.040461447 -0.013130826 -0.09819527 -0.50943285 0.66765857 0.47443375 0.011166469 0.04418363 0.05743591 -0.08066738 -0.0029906353 -0.017707497 -0.04120323 0.074110396 -0.14643809 0.106178544 0.16533703 0.033559363 -0.14111637 -0.03679616 -0.26750988 -0.07798333 0.050244797 0.12701397 0.11182002 -0.07641218 -0.04698492 -0.1381061 0.011891527 0.06612025 0.02393272 -0.061730295 -0.09834008 0.13397956 -0.07907004 0.022475375 -0.18507035 -0.03113352 -0.096760705 0.19234361 0.2241282 0.14223361 -0.1239956 -0.27752408 0.14306408 0.2596161 -0.16259336 0.09877676 -0.027308648 -0.0771851 -0.110130414 0.32193547 0.028608026 0.056653045 0.14740326 0.06938585 -0.023117844 -0.24489021
82 0.034476873 -0.2740166 -0.29724032 0.19033252 -0.75866324 -0.34978297 0.06137723 0.035258595 -0.089717954 -0.32533112 0.61645585 0.36415303 -0.03404017 0.17765896 -0.08537925 -0.13409743 0.10413626 0.084340826 -0.12568516 0.07491723 -0.10103102 0.29005304 0.09636313 0.006025069 -0.06713568 0.07248674 -0.12311061 -0.0133338915 -0.036826625 0.18523918 -0.05969925 -0.08135166 0.30666065 -0.019317541 -0.07737189 0.016608255 -0.04211261 0.00018943536 -0.17246188 0.22846018 0.041681636 -0.093618535 -0.18609928 -0.029370522 -0.10983354 0.11317454 0.2835074 0.017225891 -0.26547876 -0.13077337 0.14936432 0.15212461 -0.1459363 0.15371248 -0.022998929 -0.046886105 -0.21650156 0.32146475 -0.13216342 -0.049417924 0.19297862 -0.051481143 0.10990766 -0.17658232
72 0.20132944 -0.23554935 -0.15480022 0.28069273 -0.57533 -0.5474997 -0.007668868 -0.07550943 -0.128886 -0.54839915 0.7221681 0.22793068 0.02378005 -0.090774804 0.031838436 -0.043713737 -0.022260733 0.19061929 -0.02999552 0.033687297 -0.08513595 0.29729956 0.055290725 -0.08358715 -0.17051621 0.004539748 -0.19305056 0.028697656 0.07677343 0.117898114 0.042975817 -0.077373095 0.031163396 -0.03989788 0.022088729 -0.06597528 0.0010995647 -0.073378645 -0.17810036 0.17301892 -0.09997319 0.028292457 -0.052329015 -0.08007475 -0.2587098 0.3485805 0.21997957 0.13880886 -0.20981096 -0.28454328 0.12435608 0.28744483 -0.09601822 0.10956401 -0.116931334 -0.11575519 -0.034547426 0.29778215 -0.1279221 0.06403606 0.18046057 0.031067042 -0.084210284 -0.2989468
107 -0.004216337 -0.22988337 -0.2552948 0.17878734 -0.52976394 -0.2977486 -0.03995601 -0.2000425 -0.07465351 -0.2195506 0.6757163 0.5496968 -0.13538882 0.015899446 0.023556486 -0.051255487 -0.016085569 6.693065e-06 -0.104700826 0.11716524 -0.11312944 0.08411498 0.13352828 0.030255811 -0.058564868 -0.0062737893 -0.12935479 -0.013495017 3.2921253e-05 0.13303103 0.02349125 -0.058026303 0.2082367 0.041933846 0.08979228 0.061334785 -0.03490698 0.014144111 -0.14683795 0.20983803 -0.09297204 0.009761957 -0.21394439 -0.08080717 0.061749723 0.1648841 0.20939931 -0.031152204 -0.102840945 -0.20306642 0.008508467 0.16294454 -0.22019887 0.00042462142 -0.0148961535 0.10877489 -0.22671005 0.37227345 -0.10240691 0.036783833 0.11847807 0.038077265 0.1262302 -0.19795032
68 -0.13413103 -0.19878986 -0.14495729 0.07216031 -0.7245241 -0.25678593 -0.08234078 0.029288972 -0.16923705 -0.40051308 0.6978437 0.25475597 0.036220964 -0.0008266942 -0.015573328 -0.020166116 0.21310323 0.07340096 -0.06096677 0.089983515 0.026604824 0.30326605 0.16834773 -0.04553788 -0.026878571 0.052814282 -0.2229128 -0.02194312 -0.14757961 0.04138467 0.09860994 -0.0979227 0.26399386 -0.041104708 -0.098836675 0.01073087 0.012467315 -0.1463493 -0.13061963 0.21925263 0.048148274 0.029295761 -0.06902534 0.005466224 -0.13463712 0.12658414 0.19977134 0.020476028 -0.2556287 -0.22813635 0.2862071 0.24791548 -0.20795316 0.21585453 -0.10035482 -0.08132034 -0.27923763 0.42402014 -0.13702396 0.020939212 0.29567695 0.041961696 0.12363673 -0.22641371
60 -0.07028547 -0.21078217 -0.06594842 0.11318223 -0.7890986 -0.28927454 -0.16100664 0.115706734 -0.116996095 -0.47320318 0.7952571 0.08832147 0.0391016 0.14857247 -0.041639432 -0.08610972 0.0922865 0.11172415 -0.097438365 0.08658429 -0.02535566 0.33222637 0.14562705 -0.12069172 -0.085956 0.026761647 -0.21344663 0.053319667 -0.057168722 0.08829764 0.0135024 -0.12571727 0.16448897 -0.05053014 0.040772866 0.04746964 -0.15367702 -0.13157214 -0.14471926 0.2651387 0.14961562 -0.10572934 -0.043050252 -0.035434045 -0.20835656 0.27590328 0.19994892 -0.054270715 -0.27271265 -0.14272906 0.18818271 0.31028214 -0.16245773 0.26344597 -0.09298486 -0.06501664 -0.09872487 0.42005193 -0.17921379 0.073470876 0.3342721 -0.030351011 0.1589805 -0.3227232
75 -0.032333992 -0.29975486 -0.16016535 0.14191455 -0.79065955 -0.27862802 -0.11710201 0.017366532 -0.06457966 -0.3649825 0.5555774 0.42640233 0.025124429 0.09933218 -0.06991482 -0.021260176 0.05675751 0.12585628 -0.06421224 0.1675119 0.031938855 0.14251858 0.14246997 -0.10461655 0.015080747 0.029746842 -0.22827767 0.03760965 0.046070665 0.08054726 0.010362096 -0.03124159 0.29074925 -0.008838764 -0.049570374 0.024094928 -0.12400656 -0.13604297 -0.17056133 0.26565847 0.048809297 -0.056682527 -0.13706961 -0.00094282575 -0.02189795 0.10088082 0.17776054 -0.014228994 -0.33392838 -0.20208487 0.23395191 0.12064189 -0.14942689 0.030330427 -0.025760708 -0.06065028 -0.17662197 0.41668507 -0.066554114 0.03209679 0.37553072 0.021093268 0.111508965 -0.21315932
113 0.1074316 -0.24050692 -0.2576878 0.22680992 -0.4322915 -0.24216865 0.019567985 -0.11295411 -0.08992908 -0.39224565 0.7070658 0.58994246 -0.023958705 -0.018736595 0.07244626 -0.041819982 -0.008377744 0.004303248 -0.039322957 0.029247366 -0.15883352 0.15846106 0.12670371 -0.08705224 -0.100722015 -0.0065450417 -0.027827563 -0.09289981 -0.0047768364 0.16473393 0.09616661 -0.061366245 0.019532626 -0.09989193 -0.011833959 0.060861513 -0.119665585 -0.015833553 -0.2613407 -0.0050722915 -0.22815873 0.0008360519 -0.08846228 -0.030554857 0.008079103 0.20055343 0.11853753 0.13475774 -0.05407971 -0.296604 0.031726446 0.14410837 -0.086862996 0.12881425 -0.03963976 0.025389628 -0.14529476 0.44504455 -0.01705151 -0.021105679 0.16983318 0.029198406 0.07022349 -0.070884466
103 0.22696093 -0.22611146 -0.24568702 0.25479278 -0.47572106 -0.42440763 -0.07493332 -0.113798164 -0.027508786 -0.37666836 0.7893652 0.40633038 0.007869199 0.05231284 0.17567246 0.033814985 0.07573829 0.14695413 -0.064490005 0.118272536 -0.11522361 0.13578431 0.10842853 0.15196502 -0.14118809 -0.057635788 -0.20053343 -0.06768505 0.024812171 0.21339008 -0.03547451 -0.14958185 -0.06659938 -0.14442772 0.077898175 -0.17708202 -0.018823253 0.10340413 -0.115020834 0.1222093 -0.114706665 0.028383907 -0.08102996 -0.11083853 -0.074775904 0.25883272 0.19987626 0.1445421 -0.09439314 -0.25577396 0.021643627 0.2974449 -0.087159835 0.10793353 -0.03993331 0.0009600916 0.029520407 0.3519212 -0.007067751 0.13012004 0.14449796 0.051333018 -0.03416851 -0.24062088
92 0.13805765 -0.16686784 -0.2088266 0.3444389 -0.54467326 -0.37578046 -0.02817636 -0.11390795 -0.16792932 -0.5382068 0.6880429 0.41730958 0.07551039 -0.027876025 0.12085238 -0.121780574 -0.02678326 0.0983017 0.08951098 0.087054424 -0.056474544 0.13841687 0.13991949 0.018709678 -0.11338894 -0.12682006 -0.16741896 -0.048693478 -0.013527518 0.091349445 0.059379842 -0.13052258 -0.06043472 -0.09236907 0.013328548 -0.1881772 0.06817535 -0.15035006 -0.22212249 0.10144044 -0.104225256 0.0063295616 -0.081652336 -0.11142116 -0.13282327 0.32452106 0.19716053 0.14649516 -0.036152385 -0.38061824 0.069569364 0.25938532 0.002941448 0.18431017 -0.15190634 -0.048980184 0.045256127 0.38714233 -0.16659005 0.057993863 0.09575612 -0.06570142 -0.09085085 -0.3159238
100 0.0043264646 -0.24217896 -0.38563234 0.12023976 -0.617492 -0.26236227 -0.03299864 -0.051221564 0.016962254 -0.2394965 0.6629895 0.4570757 -0.061050437 0.043199632 -0.024500063 -0.025335692 0.049027245 0.009164862 0.006984722 0.12398002 -0.016085835 0.21121944 0.14870535 -0.07234864 -0.111811355 0.1029527 -0.20272295 0.028070167 0.028944029 0.1353317 0.10352161 -0.050254695 0.28933334 -0.14161707 -0.017500091 0.030287735 -0.0187475 -0.13365522 -0.1493825 0.17118491 -0.10790548 0.09898457 -0.16226415 -0.01778934 0.023713192 0.21816805 0.17820832 -0.02535265 -0.1622791 -0.13028622 0.1718095 0.19778173 -0.06887776 -0.07352539 -0.013516158 -0.03133062 -0.17858826 0.29037583 -0.08970232 -0.021989243 0.27216128 0.030652408 0.12802002 -0.18802479
57 -0.046217795 -0.173593 -0.08232211 0.08691399 -0.8751789 -0.3815135 -0.14081591 0.039017223 -0.14854558 -0.49371558 0.7294373 0.050773952 -0.032172196 0.10838377 0.016072959 -0.060842842 0.15821962 0.08723031 -0.112128004 0.1148404 -0.04497858 0.28510836 0.19356808 -0.13630417 -0.07250861 0.10677907 -0.11596613 -0.006251113 -0.076093465 0.06651157 0.0353453 -0.18847364 0.16643772 -0.18014552 -0.1027502 -0.04410338 -0.17612083 -0.0032046011 -0.19836658 0.2050894 0.050714508 -0.0024048772 -0.06354084 -0.0095849745 -0.23851173 0.2849793 0.15527679 0.007023936 -0.4114355 -0.21145695 0.092665866 0.27143636 -0.11272201 0.27827373 -0.004434402 -0.19470687 -0.17839083 0.41381127 -0.15264098 0.11922707 0.4718833 -0.038952064 0.13778593 -0.1522082
53 0.04225384 -0.08400134 0.0153076155 0.13963452 -0.9312237 -0.4347986 -0.10722281 0.05259901 -0.17261751 -0.518935 0.7369171 -0.043061256 0.06744461 0.0056909113 0.017821135 -0.12559257 0.083207764 0.025004297 -0.11626985 0.0037086387 0.03518917 0.20393962 0.16030104 -0.16211542 -0.12859647 0.036986906 -0.2458718 0.01687111 0.045396604 0.11541817 0.026547257 -0.10023738 0.11120505 -0.018658081 -0.023783727 -0.03966749 -0.2358009 -0.055235643 -0.07113191 0.13035262 -0.05496762 -0.04842109 -0.037611995 -0.017909802 -0.29084364 0.3610181 0.25761935 0.048861448 -0.26942763 -0.22190273 0.077903174 0.23050429 -0.104265995 0.19146064 -0.06172392 -0.15738542 -0.14132391 0.5530154 -0.107286885 0.004912039 0.49402604 0.03141606 0.13216174 -0.23334348
79 0.18608283 -0.22336954 -0.04885811 0.41756856 -0.67382437 -0.46130177 -0.08278638 -0.09678988 -0.09630442 -0.44317144 0.73505604 0.28910565 0.09683624 -0.042803142 0.16616897 -0.018034497 0.011872019 0.14313656 -0.033173528 0.046384033 -0.013137678 0.088291585 0.17836456 -0.027944705 -0.19676018 -0.102259345 -0.12390288 -0.039418306 0.122074865 0.092548706 -0.005898399 -0.11721177 0.022394622 -0.068783134 0.1011755 -0.13118356 0.07607166 -0.034283765 -0.21477038 0.03152039 -0.23483852 0.006240143 -0.15931004 -0.12542297 -0.20755562 0.30135512 0.29135352 0.15658575 -0.1665232 -0.32918116 0.11758451 0.23620796 0.069560714 0.20801821 -0.07308041 -0.07274856 0.0308285 0.29130554 -0.15973525 0.0935866 0.09658586 0.09016362 -0.13378036 -0.37499633
83 -0.15696064 -0.2449857 -0.29586467 0.1556193 -0.75281847 -0.21832238 0.006036916 0.0022229147 0.025219474 -0.28966418 0.6660864 0.3056162 0.06684304 -0.019879049 -0.15157624 -0.075217746 0.08844098 0.10585997 -0.031913582 0.20709136 -0.09282513 0.19683659 0.13585985 -0.06181138 -0.1704818 0.12645335 -0.2574972 -0.09275789 -0.11211611 -0.022723515 0.06734821 -0.0041383714 0.3495686 -0.12715124 0.046041895 0.0049629766 -0.06942017 -0.06654777 -0.1791057 0.13474391 -0.10545047 -0.1255677 -0.21752815 0.040978167 -0.041931234 0.20994793 0.12946437 -0.062033802 -0.31381094 -0.089031324 0.14487718 0.1334811 -0.17628519 0.08848557 -0.10124784 -0.081933014 -0.13281386 0.42171273 -0.13711675 -0.010725731 0.19798231 -0.015360945 0.17887136 -0.14961147
49 -0.11459916 -0.06410627 -0.064048536 0.09387365 -0.8961684 -0.39289486 -0.24826698 0.087932974 -0.19298914 -0.527726 0.7703597 0.002530015 0.027032942 -0.024203435 -0.014066771 -0.213589 0.14231364 0.105613105 -0.09893433 0.056624178 -0.13723284 0.27391025 0.1767231 -0.00247285 -0.007831048 -0.036504235 -0.1999626 0.11300309 -0.051739085 0.002921611 -0.03759924 -0.015491783 0.20424615 -0.05112715 -0.02895222 0.111898296 -0.09930702 -0.044975128 -0.17999437 0.2718983 0.0098917335 0.000105036 0.006184474 0.0135389585 -0.28988674 0.18915208 0.18785568 0.014811176 -0.30328825 -0.23300579 0.10496557 0.45502293 -0.05905609 0.34959632 -0.024795437 -0.15417169 -0.12659498 0.44458926 -0.13106546 0.025472272 0.5010629 -0.048352145 0.06288705 -0.24102664
115 0.14574996 -0.1565785 -0.18505834 0.20822065 -0.5206778 -0.30904886 0.085954666 -0.08318761 -0.053198192 -0.39280105 0.5966246 0.6313174 0.10138874 0.03718201 0.11069725 -0.09286814 0.044217445 0.1363788 0.057323013 0.09282271 -0.043615967 0.0922252 0.14454086 -0.02856277 -0.08437889 -0.081316896 -0.08629488 -0.07378124 -0.01151074 0.16438949 0.10947443 -0.0005720632 -0.053294986 -0.15564567 0.20184967 -0.107761234 0.08797251 -0.07297575 -0.119218625 0.03763816 -0.11435608 -0.023940424 -0.2141433 -0.07617836 0.03293409 0.24927607 0.18638241 0.10285383 -0.11994983 -0.28954104 -0.085728 0.24925435 -0.1456503 0.021335378 -0.08427014 0.10009525 -0.006140653 0.39200634 -0.059572443 0.054524135 0.16304035 0.004542368 -0.21996373 -0.15669571
58 -0.09442661 -0.19180776 -0.1120822 0.06638944 -0.82623243 -0.4150152 -0.18397877 0.100917205 -0.10972874 -0.3847444 0.76737505 0.0605289 0.1056564 0.11685786 -0.01545141 0.012527057 0.06639246 0.14382833 -0.1591365 0.07229898 -0.041299216 0.3336648 0.25087833 -0.15990758 -0.09453088 0.038296428 -0.18411916 0.14842455 -0.21348727 0.14806248 0.058215953 0.0662685 0.21135882 -0.16983353 -0.0467495 0.09044103 -0.24050333 -0.14125709 -0.23818439 0.22433345 0.12037903 -0.023767207 -0.08270257 0.0016408695 -0.19309619 0.19501728 0.22947207 0.003107162 -0.3606826 -0.25670543 0.14864765 0.19491976 -0.22388813 0.20071512 -0.018451652 -0.10636975 -0.18142582 0.36700705 -0.14575844 0.026058784 0.45303908 -0.036170334 0.15932363 -0.23046727
119 0.11293872 -0.08513716 -0.23021962 0.2572142 -0.43496823 -0.31776187 0.05820188 -0.16899318 -0.03164842 -0.32618502 0.6268202 0.63703406 0.010143309 0.09914734 0.16516124 -0.05923722 0.0042791124 0.124863476 0.016948322 0.059201233 -0.19308753 0.13393651 0.15692581 0.013579993 -0.2239126 -0.012683333 -0.20035058 0.007144912 0.0105215 0.16994639 0.06660775 0.00536842 0.05548245 -0.14046684 0.015021349 -0.10811498 -0.06918348 -0.10486664 -0.041517485 0.13373734 -0.17200004 0.0001489171 -0.15983209 -0.06220846 0.026265755 0.20538369 0.091958486 0.14560378 -0.051868413 -0.28803957 -0.08575726 0.23864828 -0.057307743 0.034959264 -0.044501353 -0.022050546 0.039477043 0.38979384 -0.0071343402 0.087812915 0.09420414 -0.1118073 -0.057793994 -0.17785668
101 -0.15791167 -0.2677602 -0.3493311 0.18816756 -0.5899927 -0.26303375 -0.15198334 -0.055992823 0.0018139418 -0.2709971 0.6250063 0.51951814 0.02982852 0.12858102 -0.089909956 -0.08074124 0.017859783 0.00995618 0.016470913 0.15545098 -0.116059534 0.19392341 0.125329 -0.10639431 -0.12574515 0.0149241425 -0.098334655 -0.01290218 0.08153023 0.080361925 0.068014435 -0.061562844 0.24508563 -0.038710814 -0.020207744 0.032071244 0.07676194 -0.0575503 -0.069077626 0.178184 -0.15791869 0.022045998 -0.18310896 -0.013353538 -0.0038509774 0.10513146 0.20042062 -0.033378128 -0.12872973 -0.051392823 0.1507618 0.0707575 -0.18564846 0.07350549 -0.07664252 -0.078038104 -0.2864731 0.31627205 -0.13333 -0.058221277 0.30361885 0.055780288 0.20784746 -0.1555692
65 0.21404672 -0.10307749 -0.114494085 0.30339316 -0.76009625 -0.5356511 -0.08911952 -0.08710643 -0.19395678 -0.5889331 0.6532812 0.14577748 0.10925229 -0.062332083 0.050606053 -0.17290772 0.12291905 0.03735038 -0.113365024 0.056155916 -0.01009082 0.14956124 0.09438675 -0.14873485 -0.087475955 -0.02320517 -0.270416 0.010457447 -0.05322393 0.08549453 -0.024359101 -0.05462791 -0.011353143 -0.0048320624 0.004923583 -0.14272587 -0.01687101 0.017509785 -0.21187332 0.10646391 -0.15998746 0.030734977 -0.054969963 -0.018501876 -0.22422884 0.2818252 0.13842048 0.13098335 -0.18607715 -0.34758708 0.077070706 0.4730149 -0.043600075 0.060114782 -0.12583162 -0.14483039 0.010744882 0.2712693 -0.24178915 0.041808393 0.31541356 0.15164682 -0.04701901 -0.34064326
90 -0.0951819 -0.3424139 -0.34199437 0.17053802 -0.70843405 -0.22089173 -0.07329738 -0.0631922 -0.08640632 -0.19092971 0.64660025 0.4372015 0.07127963 0.06281251 0.005976511 -0.044834595 0.040886696 0.009560106 -0.03586944 0.064133115 -0.06366679 0.17391542 0.08637871 -0.10122623 -0.01897183 -0.033034507 -0.20890307 -0.115865715 -0.065293565 0.05065187 0.047501586 0.0093784435 0.29945332 -0.072572246 0.009642327 0.034354735 0.0065797726 -0.070893645 -0.05636219 0.17422391 -0.065870166 -0.053170446 -0.21914123 -0.010894051 -0.053014964 0.17283517 0.19752917 -0.09375022 -0.27330008 -0.0066680126 0.2513072 0.064038716 -0.23159297 0.005586344 -0.05980223 -0.031148491 -0.20126638 0.32753056 -0.0836176 -0.015735451 0.34835315 0.027171439 0.17120638 -0.13309401
108 -0.13768148 -0.2580929 -0.32913145 0.13803013 -0.53754723 -0.27732137 -0.08627764 -0.119129464 0.032665376 -0.22807223 0.62281907 0.597847 -0.009706213 0.12107611 -0.019201662 -0.013550927 0.13612996 0.0009877139 -0.11793248 0.06552788 -0.09365492 0.13574028 0.038913567 -0.071428716 0.0011551273 0.009214861 -0.1876441 0.00422296 0.059657123 0.12307543 0.07891366 0.009302174 0.27700943 -0.092929505 0.09069701 0.03690516 -0.0008909491 -0.015804632 -0.08226343 0.10881131 -0.08638074 0.034433264 -0.22197124 0.016870918 0.04100322 0.22776027 0.05427612 -0.08246431 -0.14342016 -0.092349574 0.17473462 0.06283968 -0.12849773 -0.104325324 -0.055960745 -0.09390812 -0.16536333 0.35551074 -0.14482158 -0.023808572 0.27687967 0.05880795 0.11457107 -0.17630064
203 -0.3557624 -0.07743083 0.17721452 -0.12975469 -0.7857699 -0.39589125 -0.18280026 0.0062412447 -0.32623634 -0.519025 0.674045 0.32463893 -0.040675458 -0.006659663 -0.105755866 0.107174 0.047096275 0.075552404 0.17188291 -0.0500718 -0.027228778 0.12806505 0.13360533 -0.028959753 -0.061293315 0.09307183 -0.08277849 0.11806427 -0.09575604 -0.1497715 -0.018295102 -0.050164733 0.10085698 -0.1449881 0.01808114 0.0050532282 0.23538892 0.059696145 0.013786327 -0.07938337 0.050412357 -0.12548125 -0.06905398 -0.0072067883 -0.16123186 -0.10012144 -0.4856146 0.08493394 0.341309 0.15199462 -0.037640348 -0.4050279 0.1319465 -0.45788014 0.22523877 0.41847157 0.15112081 -0.17147475 0.37327355 -0.19665267 -0.2920051 0.03603238 0.22645326 0.18829396
46 -0.06642187 -0.13134356 -0.07400448 0.0311498 -1.0140216 -0.36841056 -0.079600066 -0.02307525 -0.24142785 -0.39857167 0.71990585 -0.013673702 0.044461995 0.20255682 0.03059103 -0.055937994 0.12361715 0.1279493 -0.0023394988 -0.017774027 -0.12166322 0.30213976 0.12384335 -0.16414703 -0.08141616 -0.0023986888 -0.18475929 0.0873611 -0.12143472 0.016040225 0.058154505 -0.052759297 0.26073205 -0.13138233 -0.070041455 0.103922 -0.21895574 -0.0732213 -0.08290217 0.2175182 0.1672769 -0.054262646 0.054797634 -0.041979108 -0.27143484 0.22521517 0.25961962 0.06893733 -0.34771067 -0.22193795 0.061580002 0.23478499 -0.11151636 0.33271837 -0.091477126 -0.0468417 -0.061399203 0.44531187 -0.18421233 -0.008329031 0.56040484 -0.124942705 0.014207573 -0.30625558
73 0.2453911 -0.16113076 -0.06834496 0.3305052 -0.69444925 -0.49708223 -0.08836236 -0.07750344 -0.12293206 -0.4604443 0.8088598 0.25022963 0.11417685 -0.114290446 0.1149115 -0.03144764 -0.060620274 0.17014052 -0.09712143 0.09937219 -0.07477422 0.094675586 0.16377926 -0.10045868 -0.15935104 -0.11716844 -0.14390598 -0.03356233 0.053413622 0.10214921 0.10513741 -0.11842884 -0.03586089 0.061945807 0.09162372 -0.10689398 -0.020788604 0.029199969 -0.31999594 0.14965071 -0.2255688 -0.060917392 -0.096886076 -0.08083039 -0.15305358 0.35684013 0.2882498 0.14647777 -0.13769017 -0.39376163 0.067934945 0.31380525 0.0048906445 0.104539484 -0.12507023 -0.12775683 0.019012978 0.21866666 -0.1807258 0.020662265 0.2301695 0.033450264 -0.17596224 -0.3167106
122 0.059270427 -0.12244169 -0.21448024 0.22037144 -0.40108517 -0.27805424 0.047991384 -0.17859222 0.056651156 -0.37191844 0.5938694 0.69530576 0.0073658703 0.018784825 0.051275577 -0.07616032 -0.10509775 0.028045898 -0.052703023 0.118462265 -0.1493862 0.1372838 0.16185178 -0.05438943 -0.09699409 -0.023125332 -0.09633119 0.04762163 0.01349755 0.1762179 0.036414236 -0.026090337 0.18680474 -0.1706014 0.14605135 0.09370187 -0.033899616 -0.032028507 -0.04058284 -0.020568354 -0.07629415 -0.023303714 -0.11270727 -0.14051329 0.052244388 0.18687917 0.1538727 0.022991883 -0.049224436 -0.20969181 0.0145206405 0.20557396 -0.027389603 0.04200335 0.12655628 0.018421471 -0.08860326 0.36168876 -0.085928604 0.010698229 0.16430593 0.09351643 0.07646788 -0.09519401
105 0.19187102 -0.15883812 -0.13831125 0.36483482 -0.36902127 -0.47893775 -0.010211548 -0.16230361 -0.1967503 -0.36720675 0.78144467 0.44036716 -0.033928692 0.10987764 0.11419967 0.060732607 -0.1005948 0.13447963 -0.0052940813 0.06364277 -0.1885955 0.24067013 0.2599846 -0.09008846 -0.16214801 -0.15576984 -0.08741245 -0.14109811 -0.0035412204 0.16641422 0.011728148 -0.09800695 -0.1472652 -0.054335214 0.10702896 -0.19914204 0.0075590936 -0.0656966 -0.21970332 0.12568995 -0.16200118 -0.009733679 -0.11923175 -0.13156487 -0.041031696 0.28553808 0.28984788 0.18177745 -0.1688708 -0.24717505 -0.008829576 0.2527479 0.106699444 0.094102874 -0.030550476 -0.073248416 0.09196413 0.33653924 -0.071167916 0.031880982 0.08107001 0.119865544 -0.11378227 -0.24261089
206 -0.40826127 -0.015286235 0.11499142 -0.19616844 -0.85437626 -0.4807283 -0.30364454 -0.0010885746 -0.42940512 -0.4515342 0.63912123 0.2780075 -0.039094444 0.014378096 -0.11564743 -0.030214204 -0.021123346 -0.06161007 0.06497225 0.0008150944 0.16082646 0.21702415 0.28863433 -0.13258126 -0.05226649 0.04788141 -0.07107224 0.08316483 -0.12624307 -0.049188163 -0.061203282 -0.012526798 0.06608624 -0.14420976 0.05977747 0.04335505 0.22325942 0.019386282 0.15107426 0.033591207 0.078847654 -0.03573695 -0.04566117 0.110893965 -0.11470319 -0.07084068 -0.46782565 0.008174004 0.52163416 0.15443069 -0.0073185945 -0.30754584 0.018901924 -0.48046136 0.19069013 0.4165475 0.033751175 -0.17249587 0.36563683 -0.108238146 -0.4005864 0.029488605 0.21011549 0.21059978
111 0.25742537 -0.080292724 -0.12524924 0.34450573 -0.33314043 -0.4619816 0.063378334 -0.15660237 -0.048765656 -0.39190823 0.81758606 0.41449475 0.0150869535 -0.0034356234 0.079662636 -0.030371696 0.14533868 0.11372846 -0.020274566 0.08028845 -0.19563174 0.16220719 0.20853148 0.05052964 -0.11964238 -0.21264164 -0.14720778 -0.13355964 -0.008357428 0.06505315 0.14754893 -0.17457418 -0.053423073 -0.07954042 0.09929955 -0.10673687 0.042203795 -0.0072858273 -0.0058021867 0.07624714 -0.16937281 -0.0022669719 -0.038556933 -0.16806224 0.034484986 0.29744425 0.29329816 0.19376987 -0.06254501 -0.34774163 -0.042247284 0.30347487 -0.029424231 0.041691307 0.010901911 0.14893638 0.052229997 0.30697498 -0.066938795 0.07793792 0.16300745 0.06698979 -0.02599139 -0.15193732
211 -0.40028986 -0.044024788 0.21011123 -0.07853373 -0.8225498 -0.53428006 -0.22600429 0.0341644 -0.37476793 -0.5703996 0.61407506 0.338715 -0.076537445 0.07337865 -0.018925581 0.04458909 -0.047563836 0.0056194393 0.08232094 -0.049773537 -0.08592642 0.08894061 0.11773672 -0.010116579 -0.13728695 0.021414453 0.0021509675 -0.0013495005 -0.08406653 -0.035159707 -0.031682927 -0.03336153 0.090206064 -0.1560188 0.079752155 0.049496647 0.28032455 0.12771755 -0.022665188 -0.062300716 0.07877857 -0.18716568 -0.12325861 -0.03468219 -0.055085592 -0.11345095 -0.38017234 0.073453166 0.5419278 0.19560486 -0.10771607 -0.37707165 0.13667338 -0.5044213 0.20581633 0.35768613 0.042887364 -0.11323734 0.35986233 -0.16920194 -0.30087534 -0.037798997 0.20970477 0.3692982
214 -0.33932638 0.043959793 0.13945563 -0.07834304 -0.79679304 -0.50714654 -0.17665976 -0.10422987 -0.3685267 -0.517458 0.7028318 0.22656871 -0.081581615 0.020916998 0.02535674 0.01740856 0.0068055484 0.00070231454 0.09587251 0.026469419 0.0047488376 0.22624433 0.048563354 -0.05162111 -0.07730223 0.067398936 0.020003457 -0.01956499 -0.14145786 -0.085148074 0.0040841033 0.03944449 0.054231033 -0.10985066 0.038691126 0.07457648 0.22919524 -0.008488667 0.037029125 -0.11213413 0.027760895 -0.09744405 -0.16121724 0.06014147 -0.080101565 -0.1653349 -0.3796617 0.03770795 0.5172967 0.23529968 -0.022778252 -0.3117025 0.06448232 -0.53123575 0.122746706 0.50200707 0.050387423 -0.13424939 0.3070224 -0.2361092 -0.36542994 -0.077100545 0.16730586 0.21094564
66 -0.08668699 -0.3049946 -0.19010518 0.13532431 -0.7895581 -0.26887673 -0.11875855 0.078583516 -0.10114952 -0.28461346 0.76422733 0.19115794 -0.021729097 0.12104672 0.024114717 -0.14071965 0.19647892 0.093176335 -0.105269544 0.024138605 -0.11550032 0.29104418 0.105160154 -0.11181077 -0.033846077 0.14389887 -0.2519045 -0.026258562 -0.20292656 0.11014414 -0.029896772 0.043703165 0.18038975 -0.031481344 -0.07145484 0.0006193964 -0.1811835 -0.10244763 -0.2177728 0.22874671 0.016186766 -0.20039797 -0.13460574 0.090522505 -0.1246005 0.15303037 0.20559809 -0.025106922 -0.32049313 -0.12427151 0.1791142 0.19431166 -0.20911984 0.21009512 -0.035786703 -0.064195625 -0.14794509 0.3822158 -0.043057423 -0.12881434 0.42862844 -0.05492902 0.15527575 -0.20370665
199 -0.34975582 -0.1050876 0.11173866 -0.21778192 -0.7554327 -0.48213926 -0.15012625 -0.012309066 -0.16317393 -0.43699753 0.65664357 0.31482157 0.005321097 0.026025584 -0.070698045 0.022146653 -0.0044084922 -0.019357575 0.06854042 -0.026248723 0.0155684855 0.12278673 0.041423954 0.010218797 -0.19643468 -0.030715676 -0.045611873 -0.045505024 -0.09976168 -0.06913848 -0.018924711 0.03248871 -0.038965173 -0.0919075 -0.029732672 0.034597404 0.2776128 0.018100202 0.018076554 0.03477867 0.06869919 -0.06692457 0.026573922 0.05294645 -0.18973756 -0.0881134 -0.3927351 0.150375 0.3827204 0.1569976 0.020779034 -0.35039937 0.15439361 -0.3806275 0.2206785 0.4533726 0.0001448849 -0.19600806 0.43731582 -0.17531773 -0.32815894 -0.041825756 0.27099183 0.026444897
94 -0.037200145 -0.2748896 -0.42068747 0.04438003 -0.65842056 -0.26963773 -0.07266203 -0.0041807657 0.04240391 -0.27645212 0.6132487 0.45041016 0.05014337 0.07715334 -0.1053 -0.06460628 0.12116833 0.0054035974 -0.024475325 0.13483417 -0.07524542 0.26162615 0.15285866 -0.126187 0.078946486 0.086657606 -0.14531167 -0.11110202 -0.003825083 0.085265115 -0.06279103 -0.009504258 0.3364416 -0.06143164 -0.02820073 0.0239933 -0.033107027 -0.042941954 -0.06364136 0.2129219 -0.09943684 0.031151108 -0.11627104 -0.042396262 -0.070502 0.1674411 0.1465833 -0.07083619 -0.18579379 -0.09956135 0.18093535 -0.0053889267 -0.15212691 -0.059051435 -0.0905269 -0.07118845 -0.2930805 0.3244414 -0.17164525 -0.08020162 0.2898176 0.024257476 0.14417398 -0.19244933
226 -0.24039574 0.1135247 0.17400295 -0.09620306 -0.8785461 -0.5269673 -0.3897533 0.0070385635 -0.48603845 -0.63189113 0.6804296 0.17321423 -0.07948005 -0.007220812 -0.049630012 0.030607983 -0.099856235 -0.13208166 0.11934485 -0.030872196 -0.112320565 0.11417579 0.10384685 0.011258003 0.011710652 -0.02320292 -0.10301149 -0.018490953 -0.046511445 -0.04996779 0.036420546 -0.004164713 0.08360375 -0.12117947 0.11970529 0.09208091 0.24120396 0.0138809 0.0631241 -0.10655325 -0.030301249 -0.11717944 -0.097824976 0.09723757 -0.13317965 -0.20357156 -0.54068446 0.010242713 0.5107979 0.25996867 -0.07429632 -0.40338308 0.0073331464 -0.41533768 0.18433322 0.47489175 0.06586636 -0.077556185 0.38231847 -0.1698706 -0.3041753 -0.05277689 0.32041356 0.17686056
121 0.17113209 -0.028636105 -0.21190087 0.28567678 -0.35598782 -0.31985372 0.06766677 -0.102184236 0.037648033 -0.31890827 0.83335143 0.49593046 0.14028668 0.02927058 0.18261573 -0.039496023 0.13706373 0.101819925 -0.00819607 -0.00033555826 -0.1104462 0.19894569 0.23519337 0.05377293 -0.22763526 -0.08411199 -0.068635084 0.013768664 0.091989435 0.16189136 0.09069021 -0.2247523 -0.0706959 -0.14902878 0.060584843 -0.11977842 0.07130229 -0.08756179 -0.061867733 -0.04034746 -0.18179187 0.07601136 -0.05150707 -0.11553014 0.051048994 0.15251373 0.14717466 0.15772332 -0.025652267 -0.26197892 -0.153002 0.29972938 -0.15969573 0.14214386 0.055469863 0.006920678 -0.005311758 0.33762172 -0.087537915 0.017951272 0.039691597 0.06523052 -0.064859614 -0.13235174
86 0.15465726 -0.21454345 -0.12260033 0.3466394 -0.57165724 -0.4668924 -0.048877895 -0.18340495 -0.21142475 -0.44976944 0.7487448 0.3154482 0.07322025 -0.097465314 0.2051583 0.037792604 -0.090028726 0.08604695 -0.060625542 0.032944433 -0.1585464 0.10977069 0.21612063 -0.040543247 -0.1982702 -0.21733424 -0.14990157 -0.18529665 -0.00075564545 0.16258432 -0.07385724 -0.10485984 -0.087528616 0.031122405 0.046166483 -0.30386353 0.017859083 -0.0062395907 -0.23797859 0.08762672 -0.21900955 -0.117197745 0.037130393 -0.08582198 -0.19073784 0.3538069 0.27620074 0.095718555 -0.18220462 -0.40061218 -0.05485858 0.31758735 0.0048442082 0.10193201 -0.0899158 -0.0661101 0.19658503 0.28672627 -0.033537082 0.11991665 0.16116358 0.08792866 -0.08934536 -0.31360647
224 -0.30801165 0.22767535 0.17095636 -0.070286185 -0.9412359 -0.54952043 -0.386654 -0.047690783 -0.39352483 -0.5758299 0.6702849 0.123052664 -0.13088937 -0.04592031 -0.14565015 0.006976097 -0.06335242 -0.02594497 0.16031642 0.08966401 -0.053409584 0.22832446 0.12386288 -0.037157323 0.021378042 -0.054852527 -0.17324641 0.068295576 -0.09592196 -0.072848536 -0.047976132 -0.043134633 0.065998346 -0.19657771 0.16731237 0.01376831 0.29911536 0.058813434 0.12249423 -0.04756628 0.089541785 -0.10505703 -0.01207905 0.1045555 -0.010095113 -0.116555616 -0.5133235 -0.0026302917 0.48009622 0.07076579 -0.09336716 -0.46883136 0.14811727 -0.4092207 0.18205631 0.4628695 0.026554678 -0.13556261 0.30274478 -0.23271038 -0.34179807 -0.03689124 0.27736717 0.26226526
219 -0.35285494 -0.03318494 0.15378009 -0.14090209 -0.8121401 -0.49139422 -0.16686226 0.014694384 -0.41732076 -0.4546585 0.63591266 0.28796792 -0.13370536 -0.03195577 0.043814722 0.19021945 -0.039379917 -0.14681166 0.14290684 -0.052713405 0.05485219 0.27855244 0.16711187 -0.06359882 -0.099176936 0.032215014 0.0247093 -0.034683265 -0.118539825 -0.043093417 0.023327202 0.027445178 0.11270173 -0.069547184 0.050487243 0.0189274 0.2489259 -0.022140987 0.09301208 -0.081057325 -0.018189916 -0.14415969 -0.06186705 -0.0033068706 -0.112377435 -0.17715487 -0.37464133 0.06705713 0.5293647 0.15616636 0.071798585 -0.39911985 0.038843483 -0.40713334 0.14726485 0.3159272 0.23180565 -0.13026647 0.29324764 -0.22964057 -0.39445096 0.052943703 0.19290935 0.23429117
41 0.044943664 -0.041032337 0.08674848 0.13804226 -0.9269129 -0.43497857 -0.17482787 0.006923503 -0.29515088 -0.6386937 0.7236897 -0.11250512 -0.13180883 0.11606277 0.086912595 -0.18918094 0.12930651 0.022249695 -0.118156075 -0.024254918 0.047666945 0.23996483 0.20624298 -0.26008546 0.022558356 0.007363066 -0.40776852 0.05271387 -0.049257196 0.026962291 0.021780401 0.01979795 0.22077744 -0.052961353 0.047103986 -0.06081903 -0.2168236 -0.09542497 -0.22761893 0.15594596 0.086255416 -0.03152293 -0.17868213 0.015542089 -0.26377127 0.26287687 0.13676354 0.046136115 -0.26551405 -0.24790002 -0.06921173 0.3522336 -0.10192699 0.2362127 -0.097930096 -0.16244386 -0.092224084 0.4993318 -0.2625913 0.04722764 0.50373745 0.079711884 0.012926467 -0.23133871
38 -0.0686604 -0.07518888 -0.018280817 0.009857909 -0.94716686 -0.27128398 -0.310944 0.0850052 -0.3305459 -0.515919 0.84811825 -0.09700647 0.042163957 0.19406071 0.08045292 -0.06128924 0.13559672 0.008607032 -0.2647908 -0.1149443 -0.06986861 0.28052574 0.2160871 -0.19524527 -0.03941822 -0.014897649 -0.24278341 0.13719189 -0.07679678 -0.025827082 0.056045707 -0.069046065 0.21309642 -0.08272871 0.043374438 -0.037634354 -0.22939444 -0.008128819 -0.11484272 0.27919447 0.043626163 0.018243533 -0.086268544 -0.020376878 -0.31215274 0.13845621 0.1243007 0.057083428 -0.34946162 -0.2327756 -0.00012398303 0.36215544 -0.14118135 0.27197257 -0.06653836 -0.13701805 -0.13213933 0.55370253 -0.24628568 0.009572972 0.4621263 0.03191681 0.047825765 -0.26977238
205 -0.35343426 0.083318636 0.07042827 -0.1776006 -0.89781827 -0.5240616 -0.39010844 -0.07452617 -0.35844466 -0.5382538 0.64733803 0.19671813 0.029055431 -0.0050677974 -0.17937909 -0.029820494 -0.06311944 -0.03321011 -0.024281614 -0.022036375 -0.0024459148 0.23451163 0.15420465 -0.04777873 0.11168755 0.036180954 -0.11191467 -0.0106520625 -0.176014 -0.06142568 -0.0023173795 -0.0011392394 -0.001764507 -0.15944232 0.07354662 0.01575718 0.26976326 0.15467812 0.13201688 -0.019153241 0.083573386 -0.079260565 -0.11036729 0.11510778 -0.06454804 -0.009954104 -0.52237785 0.1751403 0.41891336 0.21812743 0.039581254 -0.32825103 0.14114608 -0.4875038 0.1362051 0.4737017 0.029052112 -0.15754846 0.40788165 -0.11242213 -0.38217953 0.11598477 0.27364275 0.19071306
104 -0.15470047 -0.27901292 -0.4926688 0.1756004 -0.59648395 -0.12687944 -0.09345748 0.025819924 0.040692177 -0.22553062 0.74441886 0.4365533 0.120545566 0.019581314 -0.13717733 -0.09129178 0.12132709 -0.060542196 0.06906729 0.16524434 -0.08844752 0.19416231 0.094338425 -0.17634478 -0.03229553 0.11785714 -0.19341132 -0.09944807 0.06796635 0.03187769 0.007064011 0.008106128 0.3249351 -0.078206286 0.0030719102 0.06596309 0.06501662 -0.037625656 -0.19338028 0.15774325 -0.12078067 -0.083732635 -0.19606695 0.011141311 -0.06837277 0.13579774 0.1135519 -0.1108018 -0.16338623 -0.0017946318 0.08804188 0.022514638 -0.0745005 0.0088417735 -0.07970434 -0.020259513 -0.16348274 0.3823786 -0.19489613 -0.1384999 0.23783678 0.009043989 0.17570373 -0.15135342
126 0.077218294 -0.06915242 -0.3019415 0.15653984 -0.3867142 -0.22349802 -0.012722646 -0.11272169 0.061654426 -0.22865939 0.7014826 0.69089746 -0.07135602 0.04854318 -0.014891194 -0.10974594 -0.0043587703 -0.10688983 0.026572356 0.020073613 -0.1591983 0.106389225 0.10379739 -0.0112570925 -0.080702305 0.025656512 -0.12091418 0.018661425 -0.019282296 0.19099945 0.14597107 0.09746715 0.07283443 -0.028803868 -0.02260758 0.036125578 -0.06595852 -0.060009476 0.015927918 0.041225854 -0.040585127 0.031718872 -0.0883862 -0.019897362 -0.04325553 0.1569741 0.0331748 -0.05831923 -0.063628055 -0.19519295 -0.03306769 0.2498333 0.012134574 -0.0050035696 0.030375604 0.07997005 0.010478289 0.4338083 -0.09681971 0.035976596 0.08821357 0.009444517 0.0426756 -0.11161964
200 -0.36364672 -0.17868039 0.08999061 -0.138247 -0.7686366 -0.4877427 -0.2160252 -0.030372752 -0.37083644 -0.46663055 0.6823183 0.29314193 -0.006857523 0.09710154 -0.15133566 0.054655038 -0.20658386 -0.031930603 0.04383563 -0.07268612 -0.029449647 0.24712308 0.19972602 -0.09439468 -0.01258209 0.058946222 -0.18454823 0.032096464 -0.12962086 -0.12312808 -0.08952105 -0.13385524 0.1336006 -0.17082457 0.048477672 -0.063802294 0.28673476 0.069949 0.19068895 -0.07942831 0.18431768 -0.07604598 -0.037355725 0.19489221 -0.17363445 -0.021196868 -0.38010567 0.13327561 0.47726423 0.2477423 0.013904021 -0.42279202 0.10446086 -0.42965606 0.1739646 0.43548012 -0.11575034 -0.24097201 0.34808448 -0.25446206 -0.35505652 -0.041335 0.21348841 0.12769672
192 -0.39290518 -0.08465718 0.17564279 -0.14962657 -0.72802633 -0.4706612 -0.08333366 -0.008144595 -0.19215079 -0.3649965 0.55134207 0.4168892 0.08421221 0.03737176 -0.15473148 0.0080316365 -0.028196277 -0.0052779424 0.15453008 -0.08876208 0.2719218 0.12482146 -0.007570672 0.025057051 -0.116027825 -0.055656374 -0.062637836 -0.030177305 -0.10629902 -0.098471984 -0.17544225 -0.1443343 -0.028560821 -0.19196345 -0.010378701 0.11157548 0.1645756 -0.011993637 -0.10646982 -0.00871048 0.11571734 -0.048012465 -0.050140403 -0.041565448 -0.198841 -0.046502076 -0.3638193 0.08694729 0.2875236 0.12025695 -0.012100332 -0.41660938 0.060646564 -0.41095743 0.18001057 0.30927902 0.009795407 -0.2056852 0.2951708 -0.21614853 -0.20129868 -0.029898793 0.37952253 0.089233495
215 -0.2335508 0.090323314 0.13476144 -0.07463319 -0.98485196 -0.4275653 -0.2955189 -0.11858418 -0.50680655 -0.5001966 0.67562246 0.13770713 -0.09212809 -0.02427932 -0.12240344 -0.09342725 -0.095919974 -0.08018203 0.19448435 0.028998261 -0.15641956 0.26530805 0.09919215 -0.072673224 -0.071998455 0.095833436 -0.17779902 0.06611371 -0.10922933 -0.050448995 -0.076336324 -0.03665675 0.0854162 -0.24836922 0.15236406 0.033403352 0.27865344 0.099980384 0.10220427 -0.066355884 0.1123748 0.030112071 -0.04235969 0.15638873 -0.1073199 -0.06492226 -0.4341069 0.11731771 0.4852065 0.28448057 -0.030006396 -0.55522895 0.19535087 -0.38219482 0.20195349 0.4682584 -0.022694025 -0.08196783 0.3126752 -0.18290225 -0.34687933 -0.007446537 0.20801426 0.2849703
52 0.16240618 -0.14372167 -0.025032524 0.34319595 -0.8448907 -0.51170784 -0.17137566 -0.046316072 -0.31181517 -0.6408791 0.7286216 -0.038696337 0.14517023 -0.00061784824 0.033114005 -0.18377288 0.08349869 0.052575346 -0.102994986 0.01696968 -0.05065629 0.089683235 0.042153314 -0.2237642 -0.12477377 -0.12233594 -0.30933082 0.008799446 -0.011052338 0.04635807 -0.05909255 0.04710916 0.109838806 -0.12756526 -0.031642508 -0.12536666 -0.23608193 0.050152585 -0.11386702 0.18451199 -0.22722457 -0.122196496 0.014083464 0.0049225125 -0.37403604 0.35158 0.07205324 0.041301437 -0.08628533 -0.3135209 -0.053272035 0.3536233 -0.062491372 0.21264468 -0.09485839 -0.1593922 0.08716768 0.2812855 -0.30505487 0.09080638 0.4125836 0.14463846 -0.107797995 -0.27031204
193 -0.41623685 -0.13930976 0.18002968 -0.07818074 -0.6223935 -0.4834198 0.0319997 -0.03985406 -0.046700515 -0.3888334 0.7154382 0.33844855 -0.00555543 0.06332149 -0.083099894 0.03517199 0.047465954 -0.06957873 0.13303529 0.008756322 0.12229014 0.10017584 -0.11353368 -0.1049377 -0.055257604 -0.012818321 -0.045157026 -0.07392886 -0.09297668 -0.12145102 -0.06086829 -0.066978656 0.024912773 -0.018803325 0.1329296 0.007743756 0.3345761 0.023253273 0.01194823 0.020416733 0.15155937 -0.0706998 -0.10694721 -0.02224401 -0.17107768 -0.1583528 -0.28061348 0.17942946 0.27594414 0.18681794 -0.035253923 -0.4586138 0.10504093 -0.2413727 0.21805997 0.4359962 0.044601936 -0.13781068 0.3666936 -0.23413926 -0.13872054 0.08923352 0.2787877 0.17916799
35 0.013006531 -0.03480725 -0.020338625 0.10016174 -0.95282835 -0.3166134 -0.35181782 -0.00070348196 -0.35102966 -0.618341 0.8064432 -0.104904726 -0.052032247 0.20970184 -0.022245696 -0.11740813 0.14163934 0.089879684 -0.16048244 -0.04866845 -0.115733944 0.14697999 0.2283855 -0.2573148 -0.11447733 0.029299453 -0.3354895 0.094344534 -0.049100947 0.040418454 0.020957088 -0.077762984 0.04850259 -0.08214312 -0.06981659 0.08248361 -0.14190556 -0.020751162 -0.033715017 0.14653076 0.009536055 -0.05606434 0.019644767 0.026087988 -0.4424967 0.17357217 0.14212851 0.051418897 -0.2313125 -0.22272402 -0.07714402 0.34487322 -0.03242136 0.35198694 -0.077050425 -0.1614446 -0.16742907 0.48374355 -0.3295752 -0.0018401003 0.60329753 0.02000246 0.056822922 -0.24439506
196 -0.37882593 -0.0053181397 0.12440427 -0.11689679 -0.77356386 -0.500513 -0.2654094 -0.049447138 -0.35906568 -0.37899935 0.68578124 0.3501101 0.020941546 0.04006413 -0.24949206 -0.08582216 -0.07896118 -0.097231284 0.07722572 -0.058092464 0.045028415 0.26283976 0.09347738 0.0047534155 -0.066013135 0.12067807 -0.078370735 0.07589448 -0.037005927 -0.09551457 -0.03251732 -0.17105387 0.04652218 -0.20903392 0.014860366 0.017676536 0.22151108 -0.098390535 0.03523717 -0.078746445 0.11456161 -0.003157729 -0.12029514 0.08963578 -0.14182444 -0.13036765 -0.4263942 0.15169479 0.35390103 0.0926376 0.038022686 -0.4226671 0.2087927 -0.39676446 0.17590927 0.42572644 -0.05494014 -0.19055346 0.383366 -0.19961914 -0.3741576 0.016291365 0.24289788 0.1891123
227 -0.32938322 0.23401853 0.20894797 -0.13429801 -0.9751903 -0.47057843 -0.38788798 0.03160816 -0.47127622 -0.60502315 0.7695364 0.044211425 -0.08758123 0.15424879 -0.10290962 -0.03337299 -0.16053131 -0.13097268 0.10851016 -0.06717268 -0.009114228 0.21267623 -0.001905738 -0.15090628 -0.060364783 -0.017258486 -0.02211945 -0.088719256 -0.18573095 0.03007149 0.06866072 -0.073754184 0.1923417 -0.19902612 0.10368044 0.033995904 0.3037987 0.1902991 0.18118125 -0.13324983 -0.022821685 -0.06926586 0.13377605 0.09915761 -0.12697425 -0.1955757 -0.4734486 0.007284464 0.42118275 0.27041432 -0.009586954 -0.419458 0.11676759 -0.47477806 0.14733118 0.491253 0.02371391 -0.09168144 0.34219542 -0.16455686 -0.33518508 0.017482478 0.21464814 0.14492108
56 -0.19754392 -0.1559558 -0.13150989 0.041798424 -0.8221468 -0.25362462 -0.15501694 0.00740925 -0.19049641 -0.4053105 0.847419 0.03874306 0.025744516 0.114390455 -0.09701663 -0.0673876 0.20174651 0.123709254 -0.19205187 0.001321931 -0.028592153 0.29851416 0.20361969 -0.18545352 -0.14198937 0.009960879 -0.20114897 -0.014440293 -0.0350649 0.04386509 0.14689548 0.024288587 0.24745545 -0.11476236 -0.000745988 0.08815593 -0.20435664 -0.21003367 -0.17774367 0.3223457 0.08835888 0.02408563 0.004835393 -0.022769762 -0.26882136 0.1014613 0.24024281 -0.029745812 -0.44448632 -0.23640035 0.27497783 0.20855974 -0.09421914 0.34600872 -0.025560988 -0.025202833 -0.20065674 0.4422457 -0.08013339 0.017216844 0.40024027 -0.085403174 0.12807252 -0.22560427
230 -0.28242826 0.2328754 0.18183896 -0.123609066 -0.9475291 -0.5821361 -0.4316338 0.014652301 -0.40933302 -0.6054335 0.697614 0.04750231 -0.11536949 0.026027437 0.0023961482 0.080687284 -0.097371645 -0.11328317 0.14323281 -0.04988581 -0.06600398 0.02478649 0.16140106 -0.11838851 0.0063326624 0.009052093 -0.0908195 -0.0027278492 -0.047897913 0.0004729506 0.0564664 -0.0014282404 0.1613644 -0.3072632 0.15163188 0.12148045 0.18497431 0.08351563 0.097372316 -0.22198658 0.14992268 -0.02474904 -0.06220795 0.059220113 -0.13180134 -0.21801424 -0.49861336 0.17321911 0.48339587 0.22901152 -0.17750062 -0.36894265 0.113344856 -0.46327114 0.24119231 0.44411644 0.074840516 -0.06969689 0.3351266 -0.13641387 -0.2661397 -0.11122818 0.20896296 0.19988228
212 -0.26312184 0.020855322 0.18544559 -0.2508137 -0.5988079 -0.49790755 -0.110814236 -0.03558436 -0.26970705 -0.40860644 0.75037813 0.24907571 -0.1642764 -0.060531154 0.05895794 0.15080962 0.0854145 -0.031446856 0.15292889 -0.0010078949 0.08401471 0.20774372 -0.016037717 -0.05264328 -0.06219105 0.056075767 -0.03603714 -0.082690865 -0.114008926 -0.04676233 -0.08633303 -0.04287019 0.05338538 -0.03985281 0.08841411 0.12660772 0.28065684 -0.0023584045 0.022754848 0.021325845 0.0101803765 -0.13780281 -0.07620142 -0.045624666 -0.1336616 -0.24220312 -0.31515753 0.022660948 0.39527768 0.106470846 -0.057277687 -0.33506778 0.040355757 -0.3441472 0.22030242 0.36977124 0.16981913 -0.038567133 0.30557972 -0.30575225 -0.33692944 -0.020404033 0.21554437 0.16711189
112 -0.08597712 -0.12595047 -0.44115174 0.10569604 -0.5676322 -0.22268708 0.0072040604 -0.095693484 0.027146114 -0.20392399 0.68058896 0.5539694 -0.05679847 0.074259736 -0.11837842 -0.14268155 0.1112564 -0.01564378 0.040792607 0.052941654 -0.17462943 0.13537836 0.0046272217 -0.07349617 -0.017614132 0.04300564 -0.18932807 -0.03747095 -0.017888926 0.081254154 0.04544975 0.08705932 0.46334177 -0.026635423 0.086560756 0.13390791 0.07232883 -0.074490756 -0.08705225 0.07945833 -0.02500268 -0.05291473 -0.13480787 0.05049867 0.02966949 0.19218837 0.12662987 -0.0023566072 -0.17386946 -0.03490988 0.08648381 0.054397188 -0.047171544 -0.030211976 0.06505206 -0.09470716 -0.20266604 0.3527192 -0.09005178 0.037087433 0.11869741 0.17315713 0.25053936 -0.25945503
50 -0.16844974 -0.16656831 -0.11863117 0.01651143 -0.9471564 -0.3676995 -0.07061544 0.07801577 -0.12865017 -0.5237213 0.691528 0.061522625 0.14014246 0.23900858 -0.032644194 -0.048001844 0.16921534 0.18215002 -0.17995134 0.026152048 -0.010586787 0.2680739 0.28235444 -0.02778278 0.015904937 0.0069859824 -0.20995806 0.10875928 -0.09230522 0.024408551 0.10351168 0.033529226 0.20931171 -0.09162458 0.00596183 0.060752913 -0.18287274 -0.10702113 -0.1394343 0.27603015 0.008143089 0.08148289 0.03479238 -0.051298823 -0.2714424 0.16746189 0.22424011 0.047074303 -0.43272007 -0.24671789 0.032356367 0.29898864 -0.17386317 0.30442268 -0.07003551 0.04219841 -0.19822371 0.39235216 -0.18639483 -0.081104815 0.5394487 -0.12376239 0.2089883 -0.15889567
62 0.23961999 -0.089485176 0.066960655 0.35751653 -0.8043662 -0.55021346 -0.11053285 -0.2574335 -0.17215972 -0.6050351 0.7149619 0.05380527 0.15013826 -0.003951306 0.1610114 -0.018118298 -0.03539405 0.13392767 -0.0011388417 0.060276855 -0.010954421 0.032765854 0.046702627 -0.16827008 -0.11502525 -0.14731367 -0.2629189 -0.10750766 0.00822333 0.16840836 0.010810258 -0.10175026 0.04252731 -0.11162484 -0.06094074 -0.2315204 -0.023876539 0.047700964 -0.11251776 0.07736432 -0.19638057 -0.09534245 -0.027870081 -0.0033155105 -0.20032007 0.37532103 0.32632884 0.09008624 -0.11771042 -0.3145275 0.021716643 0.3180551 -0.008509981 0.17912419 -0.13590714 -0.22615105 0.005092561 0.2804254 -0.27590278 -0.03289267 0.18150811 0.20862359 -0.072962485 -0.4475173
221 -0.33256269 0.0907634 0.1963522 -0.125476 -0.66384995 -0.5094985 -0.07236358 0.11989466 -0.36356944 -0.5575293 0.6682369 0.27145475 -0.09789475 0.018874865 -0.028187653 0.23709829 0.013551299 -0.0066548614 0.1501277 0.14045891 0.0077455156 0.13410477 0.077507675 -0.057648048 -0.1242883 0.031270918 0.0729822 -0.03440585 -0.08292161 0.0040629595 -0.045994747 0.08285632 0.09401738 -0.04853096 0.032686893 0.112409756 0.32799494 0.08202118 0.051893957 0.017961696 -0.0044113486 -0.077698395 -0.042353783 0.025787128 -0.13793705 -0.2081206 -0.30024448 0.023702279 0.39217958 0.05712436 -0.052212656 -0.33644506 -0.0051242616 -0.56975543 0.2466784 0.29183927 0.15071428 -0.12609681 0.38792792 -0.13499323 -0.3316158 -0.066090286 0.18888256 0.18194239
45 -0.25923336 -0.15491569 -0.054477185 -0.056878917 -0.9193762 -0.38472736 -0.23792168 0.12202548 -0.16191989 -0.45505735 0.75072014 -0.016679171 0.02915324 0.107893065 0.022594046 0.009395355 0.17641795 0.06726999 -0.16390279 -0.03377287 0.0031731315 0.36517072 0.20902336 -0.22007422 -0.014659748 0.0032140943 -0.2536848 0.067018084 -0.08918036 0.047908317 0.030408673 -0.023660528 0.21234642 -0.16220802 -0.025997443 0.092878774 -0.20425634 -0.18358828 -0.19314733 0.19395255 -0.03711065 -0.1189927 0.016828366 0.119706854 -0.21208604 0.17179899 0.19756909 0.034047663 -0.47795302 -0.09219831 0.075439945 0.459443 -0.11238648 0.29564562 -0.062201582 -0.055338167 -0.14196017 0.58449453 -0.10795228 -0.017863514 0.4480701 -0.010023497 0.04214675 -0.2676383
222 -0.24976705 0.17212906 0.075256824 -0.20876458 -0.9608439 -0.44082862 -0.4372239 -0.14012764 -0.47375837 -0.57312167 0.7353688 0.095274754 -0.070317574 0.08269598 -0.090750836 -0.024720507 -0.18846366 -0.11925809 0.07334905 0.005011339 -0.019672325 0.20764716 0.14566877 -0.17110509 0.056032624 0.014160459 -0.069692895 0.014617207 -0.09682938 0.10417046 -0.16641966 -0.06558273 0.1686911 -0.1865006 0.045022678 0.04098602 0.2715394 0.1807807 0.1064717 -0.133738 0.03429153 -0.020116081 -0.06884973 0.1724617 -0.17147169 -0.048693575 -0.5473182 0.092564575 0.4887005 0.2780832 -0.09436263 -0.42263228 0.14737888 -0.36335424 0.19854465 0.43259946 0.083572306 -0.11533617 0.42519817 -0.20930238 -0.3489031 -0.008875602 0.24694006 0.20646249
131 0.11750254 0.024528129 -0.0824529 0.2654015 -0.34985384 -0.30847725 0.1614962 -0.17963068 0.04768093 -0.14763653 0.7541918 0.7037231 -0.0135502 0.017634986 0.20069236 -0.072394274 -0.019304669 -0.01966171 0.08413247 0.021843202 -0.16041495 0.12175727 0.014241529 -0.06383028 0.03939345 -0.013602266 -0.13107981 0.008375287 -0.030992772 0.20425683 0.12051793 -0.069000565 -0.02940431 -0.08144893 0.09218457 -0.10161064 -0.13889132 -0.09416453 -0.032223146 0.02063676 -0.0521992 0.17853801 -0.032814622 -0.06713207 0.08623718 0.17246228 0.04765819 0.02784448 -0.073728696 -0.16686258 -0.15360723 0.16808444 -0.046285506 0.12715833 0.1198739 0.06799325 0.05904914 0.3528612 -0.13813025 0.036012672 0.0686335 0.006405557 -0.045817386 -0.12440043
125 -0.10633682 -0.04723699 -0.24610956 0.14981844 -0.3354996 -0.16648956 -0.08211893 -0.13771519 0.023582643 -0.27829763 0.6435509 0.7521669 -0.07877085 -0.044633903 -0.079362914 -0.044348843 0.021773303 -0.08711186 0.002838733 -0.02110435 -0.12297062 0.058883026 0.109792784 -0.031043475 -0.05067541 0.09945999 -0.26341504 0.013837116 0.021317381 -0.0070854216 0.027194029 0.05428095 0.2393229 -0.04829757 0.11521418 0.07079441 -0.02702603 0.016775183 0.0024641268 0.09982281 -0.11843212 0.05521162 -0.038631003 -0.0052463277 0.01026326 0.21707633 0.096717305 -0.1284633 -0.008467525 -0.19975059 -0.0361934 0.11231572 -0.09675569 -0.058915075 -0.025112119 -0.087059945 -0.18013464 0.33536497 -0.04201666 0.01833157 0.079386994 0.06128085 0.25132516 -0.19154726
76 0.2337383 -0.15517126 0.005097783 0.3826685 -0.5164243 -0.5004105 -0.020268194 -0.22306365 -0.20735595 -0.55923486 0.8312609 0.2142333 0.14000621 -0.1249215 0.09245021 -0.061247442 -0.06073019 0.11215866 0.048373293 0.15200843 -0.14745158 0.098947756 0.08064255 -0.19814688 -0.22942097 -0.20795287 -0.19499503 -0.1386176 0.048044175 0.21045561 -0.04677497 -0.157903 -0.056610227 0.0023511187 0.058181718 -0.22991717 0.11893415 -0.09758827 -0.2554389 0.06311568 -0.18882537 -0.06527217 0.045372233 -0.07455459 -0.22056071 0.38797495 0.2737475 0.10214658 -0.23246425 -0.3419725 0.008968659 0.32148403 0.017370958 0.07537248 -0.067693725 -0.13990633 0.1004611 0.26146364 -0.23666912 0.14224 0.108843386 0.076945044 -0.094539255 -0.3674473
42 -0.2710083 -0.037238415 -0.087407716 0.11835062 -1.0622445 -0.2414098 -0.22100835 -0.047432397 -0.28501123 -0.46055618 0.72134215 -0.0022030915 0.027778883 0.18973224 -0.001770488 -0.08891716 0.15523009 0.10987937 -0.224402 -0.04850465 -0.086199805 0.321449 0.16485514 -0.038813468 -0.014176357 -0.03767138 -0.18200766 0.06405001 -0.16720597 -0.023136066 0.095356435 -0.068794325 0.11947662 -0.15778126 0.0003409147 0.057807513 -0.17241156 -0.17665699 -0.12269772 0.18975808 0.12963466 -0.05392563 0.06479243 -0.039553065 -0.31212997 0.16166712 0.091193534 0.015151621 -0.49853218 -0.16574557 -0.009204372 0.28041437 -0.1098032 0.3195083 0.09440021 -0.17858098 -0.14678253 0.6000483 -0.16043183 -0.037144024 0.51069766 0.074615784 0.04593961 -0.24522066
55 0.28436303 -0.099103004 0.0012589433 0.27694675 -0.9055821 -0.62647873 -0.099106275 -0.123087555 -0.2432776 -0.643564 0.66608787 -0.055374313 0.09396697 0.091268934 0.08481926 -0.18470348 -0.031143753 0.05422774 -0.06693341 -0.012123101 0.07041675 0.008472623 0.13723603 -0.25555792 -0.19682811 -0.05177403 -0.13695063 -0.031166032 -0.058346894 0.20583583 0.028150147 -0.014918037 0.16928495 -0.09499616 0.050789014 -0.13809265 -0.18336022 -0.04407863 -0.20637986 0.1784496 -0.13948542 -0.09900559 -0.019122504 -0.18601847 -0.3611108 0.29525194 0.10520954 0.1103401 -0.16067524 -0.208564 -0.05580645 0.3684756 -0.05615455 0.18243136 -0.15098841 -0.24665079 -0.023202067 0.2858613 -0.2937611 0.008759465 0.29280412 0.16123435 -0.11197479 -0.36014166
189 -0.3705211 -0.06620306 0.03232023 -0.11286338 -0.6416862 -0.527235 -0.34853354 -0.078619026 -0.30297256 -0.30891806 0.7202633 0.41384295 0.025955731 0.085879736 -0.31268287 0.06987562 -0.043553345 0.06341811 0.15325098 0.03728837 0.02269184 0.22915816 0.068742886 -0.1931856 -0.13975404 0.08264876 -0.15567002 0.022926332 -0.23583002 -0.09915375 0.07173551 -0.14970708 -0.030913597 -0.026791396 0.06393528 -0.038555447 0.34911746 0.07981142 -0.06092753 -0.113217056 0.09868659 -0.09030397 -0.06460936 -0.04039698 -0.18646659 -0.12794486 -0.4538151 0.10709186 0.3505248 0.1517735 -0.011480457 -0.42426133 0.18172306 -0.3416659 0.11404884 0.36196554 -0.092153504 -0.28760418 0.40022892 -0.19429566 -0.26998207 0.07776041 0.28621858 0.12839225
130 0.10718295 -0.01913197 -0.23496549 0.15156637 -0.4685821 -0.14787841 0.14119022 -0.10676881 0.16953179 -0.25076622 0.64463484 0.6969838 -0.060627148 0.11549378 0.019417802 0.10011116 0.02052854 -0.19134495 0.13314633 -0.017709833 -0.1252784 0.084508985 0.07149059 -0.21479276 -0.09819303 0.04463972 -0.1334806 -0.068330035 0.16696407 0.13527408 0.04645239 0.1184611 0.20461631 -0.19763783 -0.0573859 -0.019796083 -0.08923346 0.04274865 -0.0023606983 0.0061485455 0.016030204 0.08761557 -0.091772854 0.0020255828 0.10787353 0.12919211 0.042565767 0.037860956 -0.004032353 -0.28890747 -0.104916535 0.17110552 -0.06162052 0.011322093 -0.06154976 0.0669423 -0.096226715 0.3152672 -0.055163372 0.032956067 0.16544072 -0.0037251639 0.10923434 -0.12226301
132 0.090561815 -0.084646754 -0.035608724 0.19725223 -0.28578928 -0.1720515 0.11748114 -0.14755668 0.03897422 -0.22165477 0.78479224 0.7284027 -0.028116794 -0.12800245 0.103524104 -0.05546233 -0.0126901595 -0.13292383 0.03670054 -0.094511576 -0.20700037 0.12417941 0.10804216 0.016457126 -0.05958659 -0.030960826 -0.10018106 0.033111926 0.068888664 0.13585308 0.08543397 -0.015237678 0.030143175 -0.2006978 0.14887609 -0.09389889 -0.074808314 -0.114462666 0.14327937 -0.05734536 -0.0653295 0.010883345 -0.11006236 -0.07932911 0.045985494 0.16801383 0.045187306 -0.030154273 -0.01089977 -0.2275137 -0.024464732 0.18142635 -0.06947079 0.03861112 0.053275097 -0.06291229 -0.02418171 0.32804513 -0.11633868 -0.13398433 0.18048131 0.041375674 0.014355742 -0.07916515
31 0.09818191 -0.05489086 0.045821715 0.13978475 -1.0046053 -0.50487965 -0.27824703 -0.06638112 -0.41745925 -0.52135557 0.7757421 -0.17449921 0.04498475 0.07611469 0.13393416 -0.11995051 0.107671715 0.07629913 -0.10171445 -0.03154582 -0.06940509 0.0911278 0.2959769 -0.22792144 0.020788725 0.007978408 -0.34795833 0.13887876 0.05424407 -0.029063143 0.063465364 0.07928717 0.23946056 -0.18968213 0.094586894 -0.030519133 -0.21300459 -0.13721874 -0.041584227 0.13015138 -0.079792246 -0.074217595 -0.11426317 0.0873427 -0.30366954 0.1528224 0.062495496 0.047997177 -0.22991763 -0.2540626 -0.08697656 0.3197763 -0.059144374 0.32101482 -0.11073017 -0.18736666 -0.091424845 0.47505242 -0.37491375 0.04371589 0.5442453 0.114686154 0.028325532 -0.24160917
184 -0.30910987 -0.10156199 0.10207502 -0.2575768 -0.6409932 -0.5012703 -0.0743177 -0.13250412 -0.09463172 -0.41941887 0.5453034 0.42931366 0.036453318 -0.043299485 -0.07826012 -0.08938686 0.010022189 -0.039169 0.048030294 0.053136885 0.069416076 0.26449254 0.027758943 -0.028704472 -0.17214096 0.0077929017 -0.036231704 -0.029401192 -0.051813208 -0.16407399 -0.0918319 0.047591094 -0.018222893 0.058173265 -0.0729134 -0.027122986 0.2869225 -0.026782572 -0.19370796 -0.041190654 0.12968631 0.085094176 -0.02318217 0.017410673 -0.22267951 -0.025721217 -0.4378624 0.23656052 0.31265143 0.0328088 -0.027969211 -0.3974097 0.0042663356 -0.3158975 0.20901734 0.3471345 0.058671437 -0.22922021 0.2735455 -0.15424928 -0.22767408 0.09428547 0.28904366 0.11091141
229 -0.29108635 0.21740006 0.18839934 -0.094689436 -1.0373646 -0.47858256 -0.3849814 -0.104265824 -0.497222 -0.5963539 0.7039146 0.04022329 -0.14757574 0.056670383 0.009459142 -0.026158119 -0.15572509 -0.09682785 0.105000705 -0.039754216 -0.09383868 0.18854566 0.11143952 -0.24375695 0.03450557 -0.073036484 -0.08365662 -0.017992519 -0.09261386 -0.009420803 0.063936286 0.0020636271 0.09205193 -0.16205882 0.16019121 0.07472753 0.22440746 0.08980449 0.16476645 -0.16315563 0.07078272 -0.060697775 -0.042708393 0.12277609 -0.077462554 -0.087601125 -0.505541 -0.055138677 0.5035936 0.26721543 -0.121202305 -0.54519063 0.06255998 -0.42117506 0.19637142 0.51150346 0.13631998 -0.1330323 0.3014762 -0.16974427 -0.3341866 -0.015130625 0.19103904 0.08269102
37 -0.18643756 -0.13266474 -0.011145751 0.07362343 -1.046747 -0.31625715 -0.15374108 0.021322146 -0.2420296 -0.4462129 0.78681755 -0.1357742 -0.15605535 0.28125665 -0.0020317454 -0.104388766 0.052275743 0.15529574 -0.13410194 -0.10024701 -0.101132795 0.2583324 0.23584627 -0.14151555 0.008856474 0.026637608 -0.2835794 0.09711649 -0.14110835 -0.05514927 0.08740402 -0.112721674 0.22831339 -0.07990067 -0.046435393 -0.04202535 -0.27039227 -0.1210043 -0.14217837 0.03319031 0.036093973 0.034670833 0.027543807 0.08815847 -0.27457252 0.1174454 0.24837136 -0.006034669 -0.3564316 -0.28957984 -0.1099355 0.29372114 -0.26143107 0.35719886 -0.08626579 -0.105106905 -0.056652352 0.48922113 -0.17021282 -0.02371609 0.53157413 -0.0055410885 0.10892965 -0.21708182
123 -0.106342055 -0.20996568 -0.43729088 -0.008700739 -0.57828736 -0.19816555 0.041938372 -0.08617142 0.15769704 -0.15549123 0.6807104 0.55066854 -0.0043801963 0.08321039 -0.00035659235 -0.12526444 0.06532342 -0.048601538 0.028010247 0.022751397 -0.12033258 0.13189825 -0.024477255 -0.13114789 -0.0009857343 0.005860454 -0.12144689 -0.11527078 0.18172896 0.07316479 0.11553604 -0.026698595 0.39072937 0.101858884 0.015254809 0.20242509 0.014864582 -0.026036533 -0.050563253 0.046819467 -0.07871225 0.11738712 -0.08314712 -0.008157664 -0.069594465 0.2559225 0.06789923 -0.1682916 -0.01760497 -0.036931414 -0.031533442 0.11678406 -0.06749647 0.006401156 0.017197657 -0.016197102 -0.07232325 0.28740686 -0.036497638 0.0138504375 0.097211406 0.017962588 0.19228825 -0.15061511
117 0.30499175 -0.093315974 -0.020817304 0.34803122 -0.3908493 -0.32576746 0.00854234 -0.14915033 -0.10029829 -0.37674633 0.83653337 0.49317044 -0.005410738 -0.025644254 0.24042661 0.11394402 0.12035772 0.14391588 -0.0528222 0.009682982 -0.21522272 0.13451977 0.31809393 0.025833074 -0.121782154 -0.18762542 -0.17143698 -0.15936323 0.02365982 0.16658536 0.0034252517 -0.16765627 -0.13414536 -0.12182947 0.18665132 -0.224772 0.018449372 -0.12447147 -0.073838614 0.072724395 -0.17852882 0.0186766 -0.21739429 -0.17187297 -0.0050387173 0.28609407 0.27704546 0.19662975 -0.079292126 -0.31168655 -0.12810057 0.18165384 -0.053318862 0.11535551 -0.1588259 -0.039949834 0.13872984 0.28429732 0.021786982 0.06493361 0.07556249 0.1752785 -0.18020217 -0.18258141
120 0.26132232 -0.003280537 -0.12553619 0.2965347 -0.31190094 -0.30268124 0.10905242 -0.14526892 -0.14916585 -0.371559 0.8252793 0.50216734 -0.02274602 0.015191266 0.16516124 -0.1142407 0.040014286 0.13248879 0.07672338 -0.037925374 -0.13726622 0.17915975 0.22296223 -0.054170333 -0.21918091 -0.26321098 -0.11472114 -0.13074952 0.008612369 0.07526622 -0.107989565 -0.1763194 -0.0933774 -0.2741363 0.05766747 -0.1478108 0.038224697 -0.21638916 -0.1152516 0.26512498 -0.16893902 0.0072184373 -0.108920656 -0.16440223 0.0041074627 0.17604735 0.26237917 0.12982811 -0.19024125 -0.3249452 -0.17574412 0.3033467 -0.07119181 -0.10202142 -0.22789244 0.12663357 0.18654253 0.24623716 -0.08251163 0.09689613 0.05500412 0.03811194 -0.21156448 -0.12881444
236 -0.32237393 0.3761913 0.1862063 -0.06158195 -1.0100051 -0.5475372 -0.46272948 -0.105054855 -0.5930855 -0.49545127 0.7123372 0.07412882 -0.10242507 -0.023850428 -0.007162827 0.13574722 -0.055654712 -0.15375377 0.13950965 -0.033467725 -0.0105118975 0.10355063 0.101029344 -0.13624091 -0.08899937 0.028860245 0.03835128 0.014161848 0.021194428 -0.050616857 0.033008423 -0.0002931866 0.12361992 -0.28743657 0.19978328 0.07830268 0.15409173 0.004320733 0.2305921 -0.07958727 0.055510636 -0.10710997 -0.03177831 0.049795795 -0.06045741 -0.278104 -0.48819435 0.034821317 0.44285774 0.25954273 -0.11537636 -0.36364985 0.01614706 -0.4160279 0.14811751 0.44927192 0.18061754 -0.069662854 0.26968905 -0.27625743 -0.3764841 -0.052276228 0.25515035 0.08976249
63 -0.13786983 -0.1922584 -0.18915263 0.13571495 -0.7439587 -0.19105761 -0.15300559 0.0011066357 -0.23570006 -0.35259816 0.7608758 0.21310973 -0.024176031 0.11752025 -0.011171922 -0.05392981 0.17615502 0.22546178 -0.096427806 0.031039577 -0.105949536 0.3501912 0.20905155 -0.21475618 -0.037997063 0.00381992 -0.16152151 -0.025268083 -0.05066349 0.08913782 -0.004874234 0.11453606 0.35826924 -0.075416714 -0.053099863 0.12499099 -0.20484942 -0.2130595 -0.21699797 0.27447584 0.031702466 -0.049998496 -0.18371002 -0.0025167465 -0.21247765 0.07328165 0.23422778 -0.00793265 -0.46168503 -0.063522846 0.20306256 0.15203874 -0.26253396 0.19526653 -0.0026651125 -0.05561255 -0.20900764 0.30632427 -0.03605508 -0.09995026 0.42105842 -0.103858985 0.17861922 -0.21295974
99 0.2122959 -0.11913383 -0.057798445 0.35237154 -0.43476477 -0.47204804 -0.013221996 -0.088111386 -0.23529595 -0.47140294 0.77458155 0.44165787 0.12430683 0.059978973 0.1280598 -0.003523178 -0.016763488 0.12947816 -0.05343655 0.07648761 -0.16611378 0.06600082 0.33987316 -0.03393736 -0.20960143 -0.22747453 -0.15763645 -0.13805081 0.14825621 0.07679802 0.08158776 -0.22755682 -0.10999546 -0.10746271 0.119331226 -0.37385437 0.1794413 -0.06390115 -0.3324948 0.09220667 -0.20174222 0.03487718 0.025856107 -0.098204255 -0.019744212 0.27201566 0.28071314 0.018493738 -0.2625828 -0.40548158 -0.11468589 0.25340253 0.045366246 0.13268551 -0.05828611 -0.0626125 0.18533146 0.18636331 -0.1797053 0.13595466 0.051005214 0.039205316 -0.11698314 -0.36105934
208 -0.26566246 -0.11892015 0.2175548 -0.12870039 -0.612531 -0.41237468 0.0036183773 -0.07624307 -0.14154764 -0.5272551 0.6376297 0.36450773 0.003576648 -0.020884648 -0.0105085885 0.16980581 0.123712115 -0.17555058 0.18944103 0.06203253 0.1150272 0.21480754 0.029464526 -0.04474705 -0.021672446 0.03132199 0.023726234 -0.05716862 -0.23647426 -0.053433225 -0.11483916 0.040901966 0.09300407 -0.0018930475 -0.10063134 0.056938615 0.24109934 -0.027428381 0.058107693 -0.02749346 0.025299422 -0.05752113 -0.035283405 0.022993952 -0.18643826 -0.2981328 -0.34631753 0.034915056 0.44953403 0.09573351 -0.036565583 -0.2935097 -0.015784442 -0.48366386 0.29048383 0.23056582 0.2962182 -0.13722283 0.30627027 -0.18257964 -0.17046095 0.013024465 0.102821365 0.13874064
180 -0.33546332 -0.15917198 0.18306604 -0.35596353 -0.55617565 -0.4685035 -0.065527834 -0.07759984 0.057401273 -0.36386016 0.5628223 0.4547593 -0.09287415 0.1089971 -0.048800573 -0.087564245 0.041182585 -0.08733471 0.08859694 0.05410198 0.10561977 0.13299163 -0.0807702 -0.087111235 -0.12609978 0.005264997 -0.01580467 -0.01866218 0.0066224043 -0.13592647 -0.09905463 -0.050916556 -0.048641294 -0.1529993 0.12714607 -0.019918624 0.2321106 -0.037044372 -0.109571345 -0.023242708 -0.008285718 0.015270722 -0.13110524 -0.015888061 -0.3493694 -0.031079588 -0.46541375 0.23779446 0.21995665 0.10569083 -0.044136975 -0.34406802 0.060461476 -0.2714037 0.16533995 0.24274495 0.0681266 -0.23748434 0.12901752 -0.17013621 -0.11423759 0.027036116 0.30209693 0.007225973
40 0.17407602 0.031411234 0.01065019 0.29712233 -0.95107377 -0.5049113 -0.34381965 -0.21865192 -0.333565 -0.66908514 0.76328385 -0.14821008 0.19461907 -0.02473541 0.10569692 -0.21543425 0.040520385 0.12776105 -0.19680141 0.07863985 0.052992105 0.124561064 0.054467894 -0.30606532 -0.02190532 0.017855039 -0.40033966 0.013628519 0.012003021 0.14903376 0.020295426 -0.04566299 0.2619669 -0.1332721 -0.04126659 -0.15520836 -0.27839282 -0.09618979 -0.11856329 0.15273817 -0.18853813 0.034861967 -0.0128884 0.0048113507 -0.38845155 0.31269896 0.09507017 0.0676026 -0.095593505 -0.28882587 -0.098261006 0.30022013 0.085720174 0.2848272 0.0014576152 -0.23351786 -0.05839445 0.4239352 -0.31862223 0.016849723 0.4390833 0.2104547 -0.10503918 -0.17131147
95 -0.10911481 -0.20856757 -0.41588765 0.13274918 -0.70828253 -0.20435123 -0.00676119 0.06590397 0.016728144 -0.19466071 0.6794908 0.42774513 0.090818025 0.14754842 -0.16770555 -0.122264385 0.09080008 -0.014527398 -0.006415669 0.08606711 -0.09148482 0.18263702 0.099983804 -0.17482655 -0.050826207 -0.07320112 -0.20078625 -0.10665956 -0.08001515 0.01084949 -0.053182334 0.069453634 0.4553271 0.0904933 -0.049134724 0.119364455 0.03871695 -0.13791445 -0.10604082 0.14897206 -0.19513768 0.07158293 -0.16136308 0.019192714 -0.05261849 0.20237283 0.21577637 -0.10960307 -0.23589775 -0.00094745157 0.13360882 -0.029742759 -0.1586687 0.017482067 -0.0018704584 0.005603241 -0.22300191 0.25274202 -0.17577533 -0.021682072 0.26543477 -0.007524327 0.17573938 -0.15111798
207 -0.25914636 0.123841494 0.17922664 -0.16098842 -0.9077618 -0.45856854 -0.34558284 -0.07540723 -0.47177917 -0.566544 0.73181057 0.106662884 -0.042395227 0.057666965 -0.106027804 -0.015390247 -0.16486788 -0.07472358 0.0011818883 0.028090071 -0.061906617 0.14843337 0.11894458 -0.096836165 -0.021675386 0.08249729 -0.17559728 0.005045288 -0.10017436 -0.101441465 -0.033280347 -0.1956735 0.23359609 -0.22818144 0.047957573 -0.08279934 0.3009832 0.101104796 0.19473155 -0.06498031 0.12555213 0.040575065 -0.14692841 0.20429565 -0.16238086 -0.08659351 -0.45740554 0.0525896 0.42888644 0.25769803 0.014520706 -0.4366884 0.25994545 -0.40853766 0.23675549 0.49432108 -0.04284135 -0.15638752 0.36500025 -0.1772513 -0.29114377 0.07322068 0.3203728 0.2728013
47 0.26109445 -0.043957833 0.13392696 0.33387303 -0.8172623 -0.5839684 -0.24067768 -0.18717514 -0.2872312 -0.7423157 0.7611067 -0.102147 0.11517106 0.04353372 0.13036196 -0.14147063 -0.020139806 0.0889109 0.008308565 0.02557474 0.013337603 0.03161728 0.060433544 -0.20772897 -0.11550704 -0.055702303 -0.28482884 0.009354377 0.0028473968 0.0819845 -0.037129514 0.036765296 0.14977583 -0.12149668 -0.084094524 -0.08577488 0.0043999813 0.0062871883 -0.14043514 0.2561202 -0.255098 -0.003942429 0.051126268 -0.04797784 -0.21505365 0.34446368 0.097361155 0.01744913 -0.1631957 -0.2419931 -0.056519855 0.29513046 -0.12928241 0.3268208 -0.0018709817 -0.24765016 -0.12676015 0.31372473 -0.33528012 0.0727283 0.3587313 0.20300314 -0.08108229 -0.3943558
135 0.14723173 0.12953304 -0.17865899 0.3543606 -0.29230347 -0.14615524 0.1084464 -0.04944098 0.11475775 -0.2544163 0.81885296 0.708504 -0.066411994 0.104965106 0.16892722 0.007671144 0.00037744566 0.054807667 -0.028937774 -0.14835875 -0.115230605 0.12422534 0.10586915 0.020659687 -0.14481616 0.02438051 -0.038443852 0.014399379 -0.016875654 0.119403094 0.09324467 0.049934674 0.07107828 -0.15766841 0.10910485 -0.207548 -0.10236612 -0.048984442 0.037334006 0.040264014 -0.052934833 0.03974262 0.027170837 -0.100189544 0.0010989431 0.005914381 0.048161574 -0.0009674045 0.026607439 -0.28448123 -0.060431812 0.17513517 0.046035163 0.102942914 0.112345465 0.1776647 0.16102214 0.2655938 -0.11119924 0.1588517 0.09054398 -0.027261099 -0.10544515 -0.12022098
234 -0.3417107 0.2832602 0.14932247 -0.12738717 -0.9409722 -0.53178716 -0.2526323 0.06284043 -0.49182075 -0.5309555 0.6691791 0.13471565 -0.05143304 -0.03704663 0.05906803 0.25422484 -0.111782596 -0.14169203 0.24297553 -0.06092872 -0.07894912 0.18039131 0.0927237 -0.16429166 -0.11474326 0.06835424 0.060535166 0.051707573 -0.12331144 -0.16278066 -0.024111632 -0.051179364 0.09362451 -0.13316742 0.1361148 0.0312046 0.2127819 0.055878967 0.18596244 -0.17713481 0.07915259 -0.017536627 -0.060351484 -0.038899593 -0.08143992 -0.30545196 -0.4455165 -0.001019138 0.58670616 0.14934666 -0.072385706 -0.18268342 0.050113432 -0.43148836 0.1987978 0.33377817 0.21291913 -0.022118796 0.2918754 -0.32809037 -0.2664791 -0.025854537 0.26199347 0.22773787
235 -0.34730196 0.28601587 0.11952741 -0.065914206 -0.9781171 -0.5250196 -0.39847502 0.006021648 -0.55569667 -0.7491754 0.65412736 0.036428075 -0.13405585 -0.031264808 0.058430303 0.025067735 -0.07279627 -0.22879341 0.0702869 0.05485813 0.032448176 0.09066845 0.09466967 -0.13600278 0.03632593 0.17593548 0.013980681 0.01055539 -0.040052187 -0.07001596 0.014022175 -0.103127904 0.09236859 -0.3378851 0.059408564 0.030509992 0.2355264 0.06357913 0.11692404 -0.16396451 0.11361085 0.022963222 -0.02202923 0.14611106 -0.15883929 -0.2128536 -0.51348466 0.00016548226 0.49527633 0.24890617 -0.29111433 -0.42413455 -0.05420078 -0.42942557 0.19261171 0.5423783 0.11735704 -0.01881523 0.2985537 -0.1662914 -0.28907612 -0.08698279 0.16236085 0.09628882
176 -0.31981823 -0.094422966 0.25395086 -0.17144202 -0.5218186 -0.45022318 0.08138406 -0.1246247 0.05733725 -0.28363094 0.5101638 0.52385134 -0.040289283 0.032023042 0.083344124 -0.019755324 0.01072739 -0.09006236 0.089044854 0.13392723 0.04851585 0.21374875 -0.031242058 -0.14867876 -0.14488298 0.10479903 0.019563098 -0.035051733 -0.0033631162 -0.21669239 0.024375904 0.08784579 -0.025937015 -0.23622301 -0.042030644 0.09055314 0.28617913 0.029826699 -0.16353215 0.033911373 0.15048677 -0.0048748404 -0.053537138 -0.04968259 -0.32863644 -0.0031685187 -0.378509 0.28784594 0.20700997 0.1882501 0.05337338 -0.29609618 0.15093558 -0.25949097 0.015581524 0.20296669 0.1600321 -0.13764822 0.20442699 -0.08366552 0.022044174 0.0843953 0.29309422 0.007038195
202 -0.20760949 0.06172481 0.05662764 -0.101783425 -0.7933397 -0.48644087 -0.3537306 -0.12140606 -0.42141095 -0.57149684 0.7035073 0.27408865 0.031455845 0.1308616 -0.22828951 -0.052508052 -0.22638153 0.03418402 0.048611317 -0.041551333 -0.038309377 0.24688236 0.036634825 -0.12049836 -0.066422336 0.093526684 -0.20278345 0.08114591 -0.17825499 -0.08041917 -0.032422017 -0.110712565 0.07641491 -0.18757571 0.08455506 -0.029782986 0.2240966 0.15014528 0.01959263 -0.0045082914 0.21533127 0.03208698 -0.15454656 0.10726213 -0.0891128 -0.04804592 -0.40949845 -0.0058841286 0.51608586 0.23062235 -0.023242315 -0.31470817 0.28426895 -0.46411014 0.16628769 0.44253784 0.0038711256 -0.2537422 0.47045916 -0.30675024 -0.35571125 0.090862766 0.22940607 0.22285889
116 -0.27584046 -0.21254458 -0.5438826 0.14395534 -0.57265866 -0.25724852 -0.18405068 -0.04331133 0.20082876 -0.2349476 0.5990015 0.52315927 0.13315354 0.09382065 0.04062821 -0.039846394 0.0915135 -0.0074955137 0.08170445 -0.07652913 -0.09657134 0.07111571 -0.02551496 -0.1354474 -0.041831892 -0.038075242 -0.17559992 -0.072065815 -0.008571071 0.07359339 0.07648449 0.04737223 0.4881655 0.02266447 0.054169293 0.17536251 0.051817115 -0.046307478 -0.109181106 0.2670037 -0.08311523 0.03536095 -0.035104003 -0.014086348 -0.13393739 0.069419906 0.1770136 -0.13036717 0.029981937 -0.14292529 0.0399081 -0.014060351 -0.14803591 -0.07011037 0.029059602 -0.16203913 -0.19870594 0.30981332 0.001291826 0.030745346 0.20799166 0.05660323 0.21060427 -0.07272944
191 -0.41712257 -0.015564116 0.11580702 -0.08602109 -0.7673524 -0.4866593 -0.3880859 -0.10843121 -0.3221987 -0.4477481 0.59681237 0.40329146 0.017855218 -0.035276357 -0.16578408 -0.17216145 -0.007008766 -0.01161509 0.014008901 -0.0096087055 -0.055805884 0.32655898 0.06947376 -0.080365114 -0.11400316 0.13684005 -0.08448958 -0.011333552 -0.10708105 -0.16532598 -0.0722592 -0.13460396 0.029468546 -0.15026008 0.04695845 -0.02839132 0.29944077 0.07605169 0.031475782 0.064456664 0.19217597 -0.10020676 -0.04441397 0.15237865 -0.034654815 0.0077622035 -0.40431675 0.10872246 0.3813898 0.19396804 0.100107044 -0.38260517 0.13128124 -0.4053284 0.16872148 0.3155073 -0.07812056 -0.2501691 0.48007876 -0.17270894 -0.35765746 -0.01933739 0.26607156 0.13845818
232 -0.2748905 0.2930855 0.18329524 -0.19890776 -0.84554374 -0.4432434 -0.20462938 0.04733136 -0.43591532 -0.641423 0.70300776 0.12077667 -0.13677944 -0.08468998 -0.03675617 0.38013366 -0.13349558 -0.11847312 0.24401769 0.113999315 -0.06781 0.15965071 0.11225586 -0.12749822 -0.09361263 0.05987698 0.00219572 -0.12577528 -0.09561248 -0.10181712 0.03162183 -0.051189955 -0.06941993 -0.14012301 0.062359944 0.019218821 0.13014525 0.03239092 0.09446672 -0.11422957 0.041336477 -0.036151476 0.034308348 -0.03490889 -0.088980764 -0.27588835 -0.3172713 0.041073486 0.51069033 0.18636316 -0.04820301 -0.22457653 -0.105013974 -0.49720657 0.23079067 0.41978872 0.2752004 0.015370279 0.31937817 -0.18948825 -0.33460593 -0.12459296 0.2426739 0.27168208
141 0.14729345 0.10200105 0.018564714 0.19636269 -0.29171842 -0.26915073 0.29403052 -0.08073419 0.14561258 -0.19664146 0.73885804 0.71724814 -0.032217894 -0.006935971 0.09055135 0.029382732 -0.047663435 -0.1136631 0.09653986 0.015335151 -0.16059723 0.06086432 0.13640308 -0.119975574 -0.024600863 -0.058454543 -0.2126762 -0.029066162 0.053932786 0.17137146 0.016335433 -0.036006555 -0.029188462 -0.18398702 0.1738186 -0.012921202 -0.19244874 -0.056775413 0.16401891 0.12566839 -0.14330176 -0.019288862 -0.010729462 -0.008087402 0.039652955 0.15038341 0.09135699 0.024628198 0.0005294927 -0.05659084 -0.16932185 0.32341135 -0.09201135 0.04979433 0.104340315 0.18199882 0.033221792 0.26696262 -0.061862666 0.031191174 0.1400099 0.014636749 0.00092590554 -0.055745307
179 -0.27317724 -0.058128014 0.3351592 -0.23230568 -0.4901159 -0.41388455 0.09522283 -0.10623085 0.12533368 -0.2817043 0.5641866 0.47408244 -0.1305183 0.02265838 -0.06250412 -0.022249393 0.032929484 -0.041039582 0.1791403 0.16843133 0.21406297 0.26798654 0.0689663 -0.066816114 -0.21097426 -0.021690017 0.031772174 0.024295626 -0.025677813 -0.21501891 -0.034691535 -0.025035739 -0.058964122 -0.15879348 0.021637853 0.075258575 0.2456128 -0.040798996 -0.12249207 0.077497974 0.048427615 0.0974893 -0.09348583 0.07709624 -0.28622925 -0.13040578 -0.27179405 0.18062882 0.20608816 0.10506385 -0.07848187 -0.36118248 0.027345756 -0.29877722 0.086708635 0.18164939 0.117347226 -0.11032068 0.09901324 -0.14578283 -0.03413873 0.19855341 0.3485745 0.0012492321
102 -0.14807805 -0.32331473 -0.45203772 0.09716913 -0.6365026 -0.1937752 -0.15956143 -0.081164114 0.14115222 -0.31220335 0.61014354 0.47109303 0.05557082 0.12284678 -0.23677492 0.019496204 0.06432601 -0.014538414 -0.03378845 0.0043031145 -0.083071955 0.062300205 0.12361521 -0.15048467 0.0054936744 0.0306121 -0.19661492 0.013645409 0.190327 -0.0313208 -0.1246978 -0.011542758 0.4168627 -0.0339501 -0.174491 0.10014989 0.02664212 -0.14860725 -0.08371481 0.08163686 -0.15857589 0.006814978 -0.16950127 -0.06727245 -0.019929282 -0.016614048 0.23488143 -0.13940394 -0.1867098 0.017377052 0.07348897 -0.020763729 -0.30715182 0.0010506948 0.0066247717 0.020134324 -0.15331192 0.26898333 -0.084032014 -0.03362771 0.20071124 0.129355 0.2527505 -0.28430095
240 -0.34759742 0.21655405 0.25765064 -0.08621385 -0.9228509 -0.5205199 -0.36846352 0.024235703 -0.4589963 -0.62869877 0.80660945 0.03672509 -0.2312942 -0.05600657 -0.06156227 0.23013988 -0.11006865 -0.16380048 0.22311169 -0.11615319 -0.063028425 0.11243299 0.11283932 -0.23386896 0.09968321 0.07038541 0.1771418 -0.06362214 0.0676808 -0.1454197 0.06481606 0.0296262 0.033238623 -0.17586279 0.120998815 0.03112365 0.121423535 0.058597226 0.11720655 -0.18222499 0.14419308 -0.0023699736 0.10433038 0.09297523 -0.11166485 -0.30183443 -0.28616896 0.021386208 0.52609485 0.24372527 -0.15099445 -0.31306234 0.098165415 -0.48762235 0.2905759 0.42121717 0.24730667 -0.030086381 0.30243406 -0.24871254 -0.29030845 -0.101834275 0.15628052 0.15319337
91 0.13272056 -0.11908169 -0.06252379 0.4523566 -0.47972235 -0.5744624 0.020628938 -0.21555811 -0.17679092 -0.5046391 0.8455705 0.24195062 0.08593576 -0.01231539 0.2875799 0.037423816 0.14659707 0.06834532 0.035504177 0.10029831 -0.06060445 0.0855414 0.23444177 0.046737865 -0.08384127 -0.23760344 -0.19837564 -0.25088426 0.054149643 0.27399468 0.049308058 -0.21069376 -0.03657209 -0.049843036 0.2462199 -0.18539122 0.086387105 -0.15633963 -0.23369752 0.11185285 -0.32010776 -0.121371314 0.020863019 -0.093345985 -0.23033284 0.3897577 0.24630547 0.08863395 -0.14002593 -0.4411627 -0.067152515 0.23524399 0.09952072 0.11290724 -0.15368985 -0.084696785 0.042625453 0.11771951 -0.19603652 -0.042495813 0.18992545 0.08898772 -0.21363351 -0.29515326
188 -0.012352381 0.109288566 0.35662365 -0.10022707 -0.46157244 -0.29955402 0.16077356 -0.26599023 0.20944527 -0.17507105 0.571191 0.6129541 -0.106153116 -0.024104483 0.09267346 0.09433314 0.08200644 -0.0825092 0.0074113137 0.17596051 0.12584409 0.237742 0.092673294 -0.18143438 -0.06491767 0.0341111 0.07202908 0.018778646 0.034829844 -0.13985662 -0.037938133 0.037143435 -0.03156083 -0.12683651 0.06749934 -0.029765584 0.24472716 0.15299104 -0.01243986 0.27191946 -0.04815865 0.032917444 0.001846512 0.1488643 -0.39610666 -0.23430018 -0.14341839 0.2329316 0.3873197 0.085278094 0.1334153 -0.22024976 0.0973795 -0.14644958 0.029877774 0.1951882 0.3505845 -0.043120768 0.07659646 0.01613733 0.1163391 -0.146891 0.17286773 -0.083391674
182 -0.30378792 0.017519396 0.30023557 -0.16724555 -0.39032355 -0.34944314 0.12428947 -0.07798143 0.050030272 -0.3263712 0.6178586 0.5631779 -0.008788469 -0.05350332 -0.010442729 0.04797163 0.043626763 -0.10721596 -0.110261165 0.018706832 0.13753451 0.19661076 -0.110007696 -0.07158642 -0.20877317 -0.122234486 0.081157126 0.07797968 -0.033120718 -0.17548984 -0.0054748226 0.044612374 0.0522402 -0.12219472 -0.051348247 0.043003045 0.23395377 0.057104886 -0.17308119 0.043928828 0.17129181 0.10835349 0.07219673 0.0856411 -0.42984843 -0.07433393 -0.18847732 0.16446479 0.38203502 -0.023315622 -0.02541655 -0.33209962 0.03686342 -0.3482354 0.036236938 0.19174299 0.22625326 -0.124441 0.033982266 -0.08415355 0.04114316 0.03524512 0.30051303 -0.006375874
30 0.088494554 0.12236558 0.061258215 0.11796469 -0.96217406 -0.41842708 -0.39995876 -0.061963715 -0.49145272 -0.5755139 0.85273594 -0.19607495 0.17434792 0.1727152 -0.0073415837 -0.22332503 -0.0013760972 -0.009191117 -0.24190766 -0.06173028 0.0063776434 -0.022077344 0.14484547 -0.29526398 -0.11057004 -0.09892182 -0.4028444 0.19500895 -0.077630766 0.05430389 0.011806927 0.08052256 0.16879627 -0.1749902 0.06542948 0.0051222593 -0.20844881 -0.020373495 -0.116616376 0.23752448 -0.15001798 0.03520195 -0.046629936 0.041331876 -0.27894446 0.31180778 0.2417606 0.0636612 -0.20623784 -0.2383918 -0.19618662 0.1815123 -0.07144261 0.11666212 -0.030859882 -0.20924108 -0.1625287 0.5555335 -0.31796807 0.077979915 0.5982969 0.098965 -0.03860094 -0.23066542
181 -0.20606537 0.1287469 0.31299087 -0.23524866 -0.45367655 -0.29387838 0.22562875 -0.14577642 0.26881254 -0.26398888 0.6341995 0.5136281 -0.17215824 -0.10502777 -0.022191908 -0.009196906 0.01697733 -0.15478915 -0.01789636 -0.01785699 0.16447851 0.08358819 0.09058194 -0.06893169 -0.19411398 -0.035913866 -0.032995448 0.057874378 0.0765215 -0.1658059 -0.03294853 -0.02788325 0.022483977 -0.12545964 -0.14870515 0.047097363 0.27935192 0.09421333 -0.12922443 0.14151004 0.030467536 0.06750943 -0.16132294 0.058331277 -0.29689354 -0.19983251 -0.2208603 0.22977088 0.3302743 -0.058466133 0.02828465 -0.25874484 0.067752756 -0.051674273 0.07627206 0.111706235 0.25925395 -0.07322312 0.15044284 -0.12036173 0.023212157 -0.09254502 0.25781465 -0.07839206
167 -0.4600399 -0.10457036 0.1570189 -0.21205285 -0.49832645 -0.49072188 0.012781902 -0.2249262 0.12450052 -0.24827923 0.5889169 0.44187093 -0.13243678 0.06251169 -0.17850985 -0.030321965 0.08013613 -0.011472943 0.07344252 0.062101074 -0.05929806 0.12825039 -0.048561532 0.005935241 -0.15880647 -0.044576123 0.0025759127 -0.06636814 -0.002664261 -0.3338774 -0.12747541 0.0049542533 -0.017440066 -0.21026084 0.019450558 0.072846584 0.24300809 0.027609667 -0.042868186 0.110131755 0.062202375 0.048975397 0.019841075 -0.08598326 -0.38342327 -0.034381498 -0.32723042 0.2523799 0.24920078 0.050525125 -0.082273126 -0.2191388 0.008690798 -0.23866369 0.08148753 0.26074103 0.09163536 -0.25502187 0.16765897 -0.1543197 -0.03417657 0.09027094 0.36422664 -0.07743858
218 -0.35303894 0.27262825 0.16339572 -0.12987664 -0.89077836 -0.41109896 -0.34453076 -0.11318745 -0.6035932 -0.6202338 0.75561374 0.094003 -0.09044799 0.113384485 -0.084495604 -0.08247135 -0.0929656 -0.07054175 0.12200764 0.029838763 0.018090509 0.25299037 0.17172045 -0.113488555 -0.00035070415 -0.06968835 -0.10721686 0.030210972 -0.18818735 -0.09509317 -0.023207484 -0.17344062 0.23218034 -0.3345337 0.04546964 -0.023217577 0.33492318 0.18670563 0.14926878 -0.022420716 0.092080526 -0.020302173 -0.15997806 0.22155668 -0.059778925 -0.071141385 -0.4713251 0.039532628 0.44401154 0.3501205 -0.09531666 -0.36740398 0.2431404 -0.39236212 0.19680199 0.45651147 -0.03933671 -0.21429583 0.40250525 -0.1171748 -0.28363967 0.020865325 0.25357938 0.11648186
168 -0.45024747 -0.17730206 0.21934447 -0.053595033 -0.65309143 -0.26763245 -0.27757448 0.031018756 -0.1854505 -0.42370412 0.59677255 0.5216895 0.05734951 0.09494001 -0.20043932 -0.10592523 -0.016658753 -0.13837083 0.11342118 -0.022023804 0.05285369 0.23355526 -0.03030283 -0.14474672 -0.2295496 0.033822782 -0.08390487 -0.111578256 -0.0549043 -0.30525866 -0.17129165 0.0027549646 -0.05198165 -0.18391785 0.08986419 -0.0790306 0.2259553 0.006366213 -0.061457854 0.01171324 0.23364606 -0.03433936 -0.027217994 -0.0263516 -0.25215942 0.015903069 -0.46015432 0.11413533 0.2615259 0.08032006 -0.08103004 -0.39329788 0.082387604 -0.25785875 0.11961144 0.23392233 -0.09506218 -0.25199813 0.35948312 -0.17550305 -0.29109702 -0.016931085 0.26980373 0.024360355
186 -0.19928221 0.11092447 0.34427893 -0.17525874 -0.41556555 -0.45421448 0.11582731 -0.14187817 0.2791858 -0.15904707 0.5738432 0.54042065 -0.10239837 0.027642457 0.088815905 0.11106272 -0.03424786 -0.12703562 0.012118044 0.1396715 0.16541177 0.21967371 0.080857 -0.038900837 -0.09141611 0.010084299 -0.03600102 0.08512542 -0.027898654 -0.09740207 -0.09965137 -0.009540037 0.015017981 -0.16669735 -0.0084968805 -0.19097754 0.24283132 0.102994174 -0.13235547 0.13992813 0.1044681 -0.0159153 -0.13653046 0.15449594 -0.32322878 -0.20906796 -0.17065321 0.21245955 0.39447084 0.034726236 0.06511434 -0.30815196 0.08894673 -0.26220456 0.024099814 0.08437245 0.39176485 0.011553374 0.018826792 -0.12191261 0.049717896 -0.031287003 0.24374905 -0.14384994
183 -0.44818947 -0.0660141 0.18341579 -0.13579789 -0.7677509 -0.5547742 -0.31407326 0.031461384 -0.17518522 -0.3406842 0.5665464 0.43497983 0.027426505 0.1310641 -0.24456607 -0.13895129 -0.09846759 -0.05533207 0.035383802 0.10154738 0.03200332 0.22445667 0.063610666 -0.22465485 -0.17550376 0.061519768 -0.221455 -0.060592774 -0.11492691 -0.28178567 -0.04357466 -0.1372534 0.01761207 -0.23480047 0.04142199 -0.02795417 0.22775865 -0.07783079 -0.021525532 -0.046722144 0.140181 -0.058103908 -0.13481799 -0.04996061 -0.06797423 -0.025802048 -0.44419765 0.010081733 0.2762391 0.07195361 0.017895581 -0.3392255 0.34322238 -0.27004665 0.15065786 0.41077736 0.017254185 -0.24544819 0.4507875 -0.12842895 -0.36773866 -0.016744079 0.20530397 0.21579534
169 -0.16338302 0.025490928 0.33178046 -0.11231696 -0.5201899 -0.32836393 0.14119004 -0.15633805 0.24805911 -0.25165617 0.6091902 0.50572 -0.20012948 -0.004422164 -0.035765264 -0.012528609 -0.03849968 -0.07732997 0.09050101 0.11584113 0.00046422106 0.2523907 -0.071213454 -0.019376624 -0.23281437 -0.006328075 -0.045048475 0.11066832 -0.053547278 -0.20514488 -0.019229839 0.11095999 -0.025051946 -0.17470829 -0.063495286 0.09958813 0.31582135 0.014340913 -0.15476322 0.14253312 0.033598788 -0.030442365 -0.004590767 0.035433415 -0.36765918 -0.16682398 -0.19250333 0.15070082 0.36118746 0.11898056 -0.053990368 -0.31629875 0.082090326 -0.14752759 -0.03874942 0.15433711 0.11943983 -0.16735755 0.09967274 -0.1142108 0.04747752 0.11062411 0.2728319 -0.004721617
195 0.07325002 0.14972824 0.45953804 -0.26694408 -0.4024751 -0.28645733 0.26232073 -0.1368329 0.2629675 -0.33479407 0.5171758 0.6241627 -0.115121655 -0.18556122 -0.018041302 0.14528817 0.07214077 -0.02237834 -0.050259054 0.11839499 0.052721035 0.27010703 0.16280295 -0.12095624 -0.17238615 -0.020788817 0.10281618 -0.10236919 -0.12830621 0.087330684 0.055801887 -0.18900225 -0.010812275 -0.28771383 0.028248165 -0.031076707 0.1838459 0.18190114 0.12181204 0.0616643 -0.05676884 -0.0070959586 0.057701807 0.061605822 -0.29160887 -0.34276298 -0.04372315 0.15615419 0.35055983 0.049165946 0.04634344 -0.23149526 -0.07773733 -0.13325533 0.17042437 0.15700479 0.4543119 -0.003920112 0.042129144 -0.014871701 0.1207396 -0.14982791 0.10826693 -0.16662762
29 -0.24441667 0.05612323 0.06433354 -0.037465423 -1.0364083 -0.4179497 -0.3430223 -0.10141516 -0.33310008 -0.46970785 0.7864746 -0.21333894 0.04635779 0.29842946 0.08280862 -0.086413264 0.06135442 0.08569607 -0.18827689 -0.07394437 -0.20996396 0.20484634 0.19407845 -0.2259023 -0.09990454 0.034741733 -0.36397803 0.102597944 0.016677069 -0.001201424 0.08443332 -0.044558268 0.21768364 -0.15539737 0.054782286 0.112225965 -0.26116773 -0.07808683 -0.037970573 0.08244825 -0.059138577 0.026987413 -0.01929406 -0.013163031 -0.2409358 0.28851512 0.10036852 0.10906785 -0.36649224 -0.24236305 -0.0074129626 0.2945187 -0.24203545 0.2148127 -0.07715189 -0.10344224 -0.10448887 0.6278775 -0.34077594 0.04359731 0.5482832 -0.13723914 0.043789655 -0.31215826
43 -0.22545668 -0.04557448 -0.0840638 -0.10959897 -0.9305541 -0.2548696 -0.24942817 0.0013181377 -0.1817659 -0.49874678 0.8031984 -0.03178482 0.12186824 0.15338701 -0.09448619 0.049340628 0.23446853 0.021940364 -0.14079666 -0.10532167 -0.035847943 0.35100764 0.14560136 -0.03708649 -0.1622701 -0.09434701 -0.3327366 0.076861426 -0.061653174 0.021279806 0.14150167 0.048329655 0.11477457 -0.2063068 -0.005974592 -0.020434543 -0.23045479 -0.24599516 -0.20971362 0.2339315 0.12600474 -0.051239096 0.052294664 -0.04691227 -0.19067161 0.1639873 0.2834364 0.037750605 -0.43550178 -0.29769382 0.056598358 0.20877936 -0.27818316 0.30881077 0.053183906 -0.114175335 -0.23278925 0.48295623 -0.19824812 -0.16520007 0.52542055 -0.077236645 0.21729276 -0.35301024
174 -0.13524318 0.04325361 0.37387368 -0.12674247 -0.4572328 -0.32145756 0.21294002 -0.16218078 0.28340745 -0.21777417 0.53702855 0.60394305 -0.018971121 -0.043348562 -0.05584586 0.06408948 -0.0034271574 -0.13617772 0.06951679 0.04251488 0.006621604 0.18669651 -0.014643538 -0.07950389 -0.092291206 -0.031027611 -0.040778905 -0.045508012 -0.043762486 -0.13252322 -0.00116147 0.032048304 0.0046811877 -0.22951937 0.072498165 0.19328214 0.20932128 0.18328087 -0.21109185 0.118297584 0.056219492 0.026275486 -0.020806491 0.23541607 -0.3322714 -0.19244386 -0.10019648 0.15448293 0.29180083 0.068903506 0.016742164 -0.17688417 0.07383523 -0.14213678 0.18562692 0.19496273 0.3356009 -0.06297407 -0.009779967 -0.11312768 0.053627174 0.025170943 0.23139937 -0.01036469
70 0.24801496 -0.15401314 -0.03970174 0.47407436 -0.7322594 -0.5336725 -0.06361999 -0.16680808 -0.2519441 -0.6328107 0.7553932 0.18927744 0.15524672 -0.1395911 0.13552333 0.10641763 0.04620746 0.16624892 -0.070886254 0.0090204645 0.0039997064 0.014166326 0.11182528 -0.15388839 0.020364992 -0.25205424 -0.16768765 -0.11337259 0.12253028 0.1514251 0.09061432 -0.07333608 -0.015876167 -0.027797127 0.084858336 -0.23547073 0.04513663 0.035840284 -0.32325548 0.14598456 -0.2526808 -0.07464406 0.011098942 -0.05229439 -0.3037108 0.35355306 0.23336327 0.12298676 -0.22496639 -0.26463622 -0.076081865 0.34243408 -0.054520477 0.114981525 -0.09498865 -0.29974607 0.16184904 0.22608835 -0.24012098 0.00369261 0.1118163 0.17666349 -0.20001514 -0.3445963
165 -0.46130115 -0.08954026 0.18871258 -0.25119013 -0.5695168 -0.3876995 -0.040894397 -0.12550627 0.12747093 -0.17199345 0.6742281 0.3894187 -0.038171005 -0.010728786 -0.09451092 -0.11131824 -0.082608394 -0.08089826 0.15077096 0.027106205 -0.06795757 0.21608451 -0.11227366 -0.02484363 -0.08296797 0.023404138 -0.12529762 -0.061995 0.026733778 -0.21729946 -0.09560548 -0.07875193 -0.05356089 -0.13387989 0.039758697 0.06770946 0.32853356 -0.095944434 -0.22314902 0.09834791 0.19588059 0.11239672 -0.021539968 -0.101945356 -0.31166902 -0.075359836 -0.4799809 0.118521735 0.24441968 -0.029991461 0.06867803 -0.34382096 0.0411688 -0.26017606 0.06842211 0.23002438 0.03378265 -0.16205734 0.24148414 0.005780654 -0.05192868 0.17144163 0.231138 -0.06941719
36 0.2742273 -0.099306464 0.069504805 0.20794106 -0.9718121 -0.5693102 -0.21439023 -0.19135678 -0.34989092 -0.54555714 0.85350055 -0.23397726 0.0821536 0.068599835 -0.096757695 -0.24981807 0.002895185 0.15493657 -0.19439583 0.059938375 0.09292074 -0.005358975 0.13394889 -0.40478057 -0.06564498 -0.16039917 -0.21889532 0.11223702 -0.047682207 0.12095167 0.03319334 0.11785181 0.14590462 -0.19286147 0.10280814 -0.11331938 -0.15639728 -0.060789894 -0.16892914 0.15832683 -0.16198277 -0.13160123 0.024637245 -0.04251181 -0.26032516 0.38252556 0.16675358 -0.053066283 0.08757309 -0.21968114 -0.16212878 0.35037696 -0.18642503 0.30274466 -0.0045688744 -0.23796132 -0.078759395 0.3335791 -0.4749909 -0.024881186 0.35807237 0.19441506 -0.09687155 -0.34843057
11 -0.012308111 -2.1803575 0.72918653 -0.49502763 -1.2239308 -1.2349916 0.26818588 -0.3270691 -0.05087874 -1.5184042 1.9479914 1.8587852 -0.10406326 0.80852306 -0.5550713 -0.19960956 1.0926228 0.22861993 -0.029325262 0.25524667 0.058095 0.9820771 0.39541772 0.13642661 -0.58147275 -0.23042169 -0.049729213 -0.44494757 -2.113541 0.30230007 0.06346292 -0.77815145 -0.16491425 -0.5267054 0.21513537 -0.2686311 -0.3258709 -0.3048457 -0.05809591 0.10357093 0.41880468 0.38017517 -0.8126748 0.8677864 -0.25806725 -0.32773307 0.5325615 0.7171665 -2.004919 -0.83744055 1.2397552 -0.4231949 -0.71806717 0.33905452 0.63190323 0.18739738 0.884846 0.22138678 0.8384554 -1.5585649 0.36538073 -1.1395804 -0.070054404 -0.4325543
34 -0.26052243 -0.049486913 0.066308185 -0.060327284 -0.9695894 -0.28932256 -0.2408067 0.06645893 -0.16573852 -0.6549102 0.77160865 -0.110336274 0.044638477 0.1795401 0.06478057 -0.091208376 0.16485865 0.12008712 -0.12944366 -0.026732724 -0.22961046 0.32825565 0.10438183 -0.06347429 0.052293096 -0.10099603 -0.37194052 0.14828423 -0.018234871 -0.001640581 0.11984011 -0.03646413 0.24282452 -0.17069606 0.08130849 0.0071237395 -0.2801327 -0.094835065 -0.17651527 0.12785685 0.06570765 0.08421261 -0.047915787 0.044426568 -0.27957684 0.13522296 0.25353184 0.08314243 -0.48212957 -0.17315294 -0.08082225 0.13123745 -0.1573982 0.27052018 -0.04228982 -0.134804 -0.27480844 0.57080674 -0.29031307 0.02921382 0.53937316 -0.19421358 0.059004024 -0.2554859
198 0.037222452 0.1583138 0.45587286 -0.21708973 -0.45577842 -0.34426725 0.1403299 -0.12800187 0.1900677 -0.16061862 0.5475157 0.61317724 -0.11912247 -0.10583994 0.037872717 0.18475862 0.004512368 -0.080741554 0.13656189 0.026852658 0.03195049 0.3367717 0.010640132 -0.038016208 -0.16712874 -0.061511345 0.13537861 -0.01421396 -0.10855326 -0.038912557 -0.12535751 -0.02887929 -0.039870925 -0.062427703 -0.13090289 -0.059071235 0.3355541 0.16511463 0.035360835 0.07502833 -0.07313304 0.024347292 -0.120934464 0.23916204 -0.20843937 -0.29465175 -0.07929816 0.11186043 0.31820014 -0.057554442 0.08482361 -0.2013162 0.030031828 -0.17917106 0.24535891 0.25017074 0.5343238 0.1203658 -0.018834407 -0.031642 0.18773696 -0.16984338 0.06400439 -0.09957632
237 -0.28548953 0.27365798 0.23123291 -0.10206151 -1.103347 -0.5995953 -0.46622276 0.031248694 -0.49945217 -0.5300516 0.7018551 -0.052565996 -0.08327777 -0.035867345 0.21380389 -0.014322412 -0.25242755 -0.18770254 0.16951157 -0.067238666 -0.02033571 0.10454686 0.15191741 -0.21367997 0.034788705 0.023262091 -0.2002546 -0.04587454 -0.18589772 -0.11412119 -0.030376136 -0.07587658 0.16324434 -0.2923872 0.1544174 0.14376299 0.24693257 0.17518924 0.05847847 -0.20679191 0.017639209 -0.03299828 -0.03703237 0.19281511 -0.21142207 -0.2053093 -0.5553626 0.037249923 0.4216505 0.18961585 -0.07803775 -0.3892374 0.19554615 -0.48052424 0.106988296 0.45351166 0.15394604 -0.12162148 0.2623916 -0.10876615 -0.3071778 -0.11184637 0.19080189 0.22485559
